svm_type c_svc
kernel_type rbf
gamma 0.058823529411764705
nr_class 10
total_sv 17168
rho -0.0094371117332771037 -0.0098498579724268856 0.10731822419257481 0.027650451159670873 0.011352614632175085 0.0056285605861580322 -0.00073401757745188286 0.11113917876656122 0.09459859878076278 -0.00067807486109435476 0.11577882205170069 0.036835919723634938 0.020687233676568797 0.015015030522633022 0.0094139666420282094 0.11956422636146449 0.103174611769453 0.11601447051446241 0.037200246894844746 0.021078322408720609 0.015416473066961155 0.0098266989301028507 0.11979462340889578 0.10342972896374727 -0.08193037082717991 -0.097066998971484991 -0.10223525931981858 -0.10739900607519841 0.00427153336427124 -0.014055361727958028 -0.016483656920818365 -0.022130554776800589 -0.027689478215235395 0.085860482939732669 0.068850280728703653 -0.0057476587040156887 -0.011382285924110029 0.10093165856799427 0.084201497292212324 -0.0056546267408240898 0.10607687601777926 0.089444762008217216 0.11122141533618497 0.094672972153382481 -0.018279569892473119
label 0 1 4 6 5 3 2 9 8 7
nr_sv 1655 1638 1639 1856 1702 1674 1664 1654 1860 1826
SV
0.990234375 0.9892578125 1 1 1 1 0.99973147295531817 1 1 1:0.000273 2:3 3:-25.176 4:0.0443 5:0.724151 6:6.2e-05 7:0.000807 8:0.34 9:83.398 10:117907 11:15117793 12:137622 13:19981370 14:1 15:0 16:0 17:3070 
0.990234375 0.9892578125 1 1 1 1 0.99999999999998468 1 1 1:0.18422 2:7 3:-17 4:0 5:0.672221 6:0.91 7:0.034966 8:0.746 9:148.692 10:173427 11:184825 12:5190 13:64102085 14:1 15:0 16:0 17:122 
0.990234375 0.9892578125 1 1 1 1 1 1 1 1:0 2:6 3:-15.596 4:0 5:0.667628 6:0.867 7:0.001772 8:0.38 9:84.899 10:150667 11:184825 12:5190 13:19320810 14:1 15:0 16:0 17:122 
0.990234375 0.9892578125 1 1 1 1 1 1 1 1:0.225867 2:10 3:-52 4:0.0323 5:0.291434 6:1.1e-05 7:0.010794 8:0 9:166.668 10:258027 11:76758188 12:252380 13:1.3633237e+08 14:1 15:0 16:0 17:6860 
0.990234375 0.9892578125 1 1 1 1 1 1 1 1:0.006539 2:2 3:-87 4:0 5:0.967362 6:0 7:0.00103 8:0.213 9:132.731 10:2575230 11:88490455 12:1939359 13:4.2752359e+08 14:0 15:0 16:0 17:3259 
0.990234375 0.9892578125 1 1 1 1 1 1 1 1:0.00387 2:4 3:-16.714 4:0.0331 5:0.941192 6:0.0103 7:0.000586 8:0.319 9:77.483 10:175644 11:2273744 12:6991454 13:26635618 14:10 15:0 16:0 17:1275 
0.990234375 0.9892578125 1 1 1 1 1 1 1 1:0.036926 2:3 3:-13.012 4:0 5:0 6:0.594 7:0.020571 8:0.272 9:144.553 10:272467 11:2722474 12:240853 13:23145970 14:0 15:0 16:0 17:1141 
0.990234375 0.9892578125 1 1 1 1 1 1 1 1:0.036265 2:8 3:-12.953 4:0.0648 5:0.843909 6:0.0263 7:0.046268 8:0.576 9:170.721 10:162286 11:19436 12:1119 13:9516698 14:0 15:0 16:0 17:55 
0.990234375 0.9892578125 1 1 1 1 1 1 1 1:0.030959 2:5 3:-18.197 4:0.0407 5:0.835897 6:0.676 7:0.00071 8:0.2 9:75.056 10:247808 11:17645535 12:224423 13:1.4114337e+08 14:0 15:0 16:0 17:883862 
0.990234375 0.9892578125 1 1 1 1 1 1 1 1:0.092345 2:10 3:-10.422 4:0.0307 5:0 6:0.00228 7:0.327083 8:0.189 9:113.066 10:13553979 11:2.4002547e+08 12:1279053 13:3.7490887e+08 14:1 15:0 16:0 17:59796 
0.990234375 0.9892578125 1 1 1 1 1 1 1 1:0.804357 2:10 3:-501 4:0.125 5:7e-06 6:0.0022 7:0.001191 8:0.376 9:195.815 10:280000 11:25115573 12:196994 13:89798826 14:1 15:0 16:0 17:7476 
0.990234375 0.9892578125 1 1 1 1 1 1 1 1:0.047046 2:9 3:-14.398 4:0.0499 5:0.241804 6:0.00119 7:0.003652 8:0.612 9:187.711 10:152867 11:1240905 12:9102 13:1.4295605e+08 14:1 15:0 16:0 17:224 
0.990234375 0.9892578125 1 1 1 1 1 1 1 1:0.108531 2:4 3:-10.266 4:0 5:0.021025 6:0.0139 7:0.002515 8:0.182 9:143.532 10:260387 11:11013537 12:39081004 13:1.0643218e+08 14:1 15:0 16:0 17:1367331 
0 0 0.1064453125 0.02734375 0.0107421875 0.0048828125 0 0.1103515625 0.09375 1:0.187149 2:1 3:-7.818 4:0 5:0.263375 6:0 7:0.008 8:0.285 9:77.986 10:237467 11:129107 12:973 13:1.6976996e+08 14:0 15:0 16:0 17:107 
0.990234375 0.9892578125 1 1 1 1 1 1 1 1:0 2:0 3:-14.14 4:0.0314 5:0 6:3e-06 7:0.000698 8:0 9:103.821 10:217227 11:25942458 12:59228205 13:53928512 14:0 15:0 16:0 17:0 
0.990234375 0.9892578125 1 1 1 1 1 1 1 1:0.053157 2:1 3:-894 4:0.0313 5:0.094196 6:0 7:0.001443 8:0.255 9:97.311 10:173560 11:-64754568 12:59673520 13:32610775 14:1 15:0 16:0 17:5034 
0.9910924332216382 0.9899588949047029 1 1 1 1 1 1 1 1:0.187149 2:759 3:-7.818 4:0.0377 5:0.263375 6:0 7:0.008 8:0.285 9:77.986 10:237467 11:-30055472 12:6786 13:73498461 14:0 15:0 16:0 17:109 
0.9912109375 0.98989566834643483 1 1 1 1 1 1 1 1:0.084028 2:804 3:-6.487 4:0 5:0.049836 6:0 7:0.00623 8:0.153 9:19540 10:253600 11:7188263 12:67769 13:55087974 14:1 15:0 16:0 17:2051 
0.9912109375 0.98990575812058523 1 1 1 1 1 1 1 1:0.145532 2:2 3:-11.656 4:0.0411 5:0.660776 6:2e-06 7:0 8:0.649 9:201.739 10:151000 11:3033061 12:21556 13:6.6183922e+08 14:1 15:0 16:0 17:1075 
0.9912109375 0.990234375 1 1 1 1 1 1 1 1:0.009528 2:6 3:-15.513 4:0.031 5:0.636056 6:7.7e-05 7:0.001685 8:0.195 9:95.555 10:39063209 11:146344 12:86947249 13:80939450 14:1 15:0 16:0 17:7 
0.9912109375 0.990234375 1 1 1 1 1 1 1 1:0.006751 2:8 3:-17.741 4:0.0348 5:0.627222 6:4e-06 7:0 8:0 9:133.591 10:152000 11:15483368 12:31 13:18549494 14:1 15:0 16:0 17:3 
0.9912109375 0.990234375 1 1 1 1 1 1 1 1:0.105824 2:927 3:-10.187 4:0.0324 5:0.134218 6:0 7:0.064 8:0 9:84.897 10:189067 11:1344487 12:17869 13:24578157 14:1 15:0 16:0 17:2968743 
0.9912109375 0.990234375 1 1 1 1 1 1 1 1:0.013652 2:7 3:-15.452 4:0.0274 5:0 6:1e-06 7:0.00018 8:0.472 9:90.387 10:154867 11:3926830 12:17687 13:18535879 14:1 15:0 16:0 17:1199 
0.9912109375 0.990234375 1 1 1 1 1 1 1 1:0.47638 2:4 3:-5.469 4:0.0552 5:0.278445 6:0.000118 7:0.019683 8:0.528 9:79.27 10:304267 11:16398829 12:71128 13:16921719 14:1 15:0 16:0 17:2636 
0.9912109375 0.990234375 1 1 1 1 1 1 1 1:0.307547 2:1 3:-1442 4:0.0472 5:0.273359 6:0 7:0.000893 8:0.496 9:177.053 10:259360 11:52999310 12:235985 13:41143460 14:1 15:0 16:0 17:12946 
0.9912109375 0.990234375 1 1 1 1 1 1 1 1:0.286191 2:7 3:-6.091 4:0.0347 5:2.3e-05 6:1.5e-05 7:0 8:0.599 9:113.021 10:187653 11:11818107 12:85156 13:65167935 14:1 15:0 16:0 17:4629 
0.9912109375 0.990234375 1 1 1 1 1 1 1 1:0.024389 2:7 3:-9.136 4:0.0385 5:0.168197 6:4e-06 7:0.157464 8:0.296 9:179.779 10:53429083 11:88688858 12:622372 13:14430810 14:1 15:0 16:0 17:22218 
0.9912109375 0.990234375 1 1 1 1 1 1 1 1:0.663055 2:2 3:-7.837 4:0.068 5:0 6:0.00975 7:0.000991 8:0.607 9:166.3 10:193653 11:1.4656834e+08 12:979766 13:3.9430073e+08 14:1 15:0 16:0 17:41332 
0.9912109375 0.990234375 1 1 1 1 1 1 1 1:0.101195 2:2 3:-1933 4:0.0418 5:0.004173 6:7e-06 7:0.001191 8:0.487 9:95.163 10:251267 11:44925771 12:254942 13:88309636 14:1 15:0 16:0 17:8663 
0.9912109375 0.990234375 1 1 1 1 1 1 1 1:0 2:0 3:-1978 4:0.0379 5:0 6:0.65 7:0.013652 8:0.101 9:186.044 10:293293 11:78227352 12:2421404 13:2.9309022e+08 14:1 15:0 16:0 17:94358 
0.9912109375 0.990234375 1 1 1 1 1 1 1 1:0.873723 2:10 3:-2002 4:0.185 5:0 6:0.0161 7:0.150569 8:0.271 9:134.083 10:181507 11:29836483 12:200242 13:32575568 14:1 15:0 16:0 17:9048 
0.9912109375 0.990234375 1 1 1 1 1 1 1 1:0.038614 2:10 3:-2092 4:0 5:0.277168 6:0 7:0.015253 8:0.478 9:177.765 10:303373 11:56498415 12:758210 13:7.6694714e+08 14:1 15:0 16:0 17:30038 
0.9912109375 0.990234375 1 1 1 1 1 1 1 1:0.452985 2:9 3:-5.695 4:0 5:0 6:0.38 7:1.5e-05 8:0.532 9:169.492 10:210160 11:34159799 12:274255 13:2.453346e+08 14:1 15:0 16:0 17:7831 
0.9912109375 0.990234375 1 1 1 1 1 1 1 1:0.8174 2:8 3:-5.529 4:0.0817 5:0 6:0.0141 7:0.043244 8:0.658 9:38541 10:198493 11:56289356 12:259856 13:1.5746984e+08 14:1 15:0 16:0 17:4605729 
0.9912109375 0.990234375 1 1 1 1 1 1 1 1:0.616295 2:4 3:-4.039 4:0.0421 5:2e-06 6:0 7:0 8:0.11 9:175.426 10:291360 11:69801752 12:401124 13:96271819 14:1 15:0 16:0 17:16295 
0.9912109375 0.990234375 1 1 1 1 1 1 1 1:0.726573 2:1639 3:-4.105 4:0.0491 5:0 6:0 7:0.030664 8:0.54 9:175.926 10:70924100 11:12212988 12:-78277536 13:41954575 14:1 15:0 16:0 17:5045 
0.9912109375 0.990234375 1 1 1 1 1 1 1 1:0.96443 2:9 3:-2.979 4:0.127 5:0 6:0 7:0.00103 8:0.765 9:191.933 10:71373147 11:21976121 12:-77846209 13:42966994 14:1 15:0 16:0 17:4641502 
0.9912109375 0.990234375 1 1 1 1 1 1 1 1:0.955672 2:10 3:-3.941 4:0.151 5:0 6:0.107 7:0 8:0.221 9:125.307 10:392600 11:-49543102 12:422691 13:1.1203737e+08 14:1 15:0 16:0 17:4664702 
0.9912109375 0.990234375 1 1 1 1 1 1 1 1:0 2:5 3:-4.86 4:0.0401 5:0 6:4e-05 7:0.004096 8:0.255 9:202.777 10:262133 11:22732994 12:209597 13:-33116513 14:1 15:0 16:0 17:4671264 
0.9912109375 0.990234375 1 1 1 1 1 1 1 1:0.921167 2:4 3:-7.004 4:0.071 5:0 6:0.154 7:0.002863 8:0.628 9:187.385 10:152600 11:18103 12:160 13:20809167 14:1 15:0 16:0 17:4671595 
0.9912109375 0.990234375 1 1 1 1 1 1 1 1:0.809558 2:4 3:-4.252 4:0.163 5:0 6:0.817 7:0 8:0.376 9:138.042 10:244160 11:4356416 12:70584 13:48267009 14:1 15:0 16:0 17:3883 
0.9912109375 0.990234375 1 1 1 1 1 1 1 1:0.627222 2:4 3:-6.547 4:0.188 5:0 6:0.00708 7:0.016975 8:0.652 9:69.955 10:327040 11:27167635 12:248511 13:38874688 14:1 15:0 16:0 17:12869 
0.9912109375 0.990234375 1 1 1 1 1 1 1 1:0.96443 2:2 3:-3.74 4:0.144 5:0 6:0.84 7:0.033698 8:0.149 9:115.301 10:311200 11:2583710 12:44105 13:64258934 14:1 15:0 16:0 17:1767 
0.9912109375 0.990234375 1 1 1 1 1 1 1 1:0.007762 2:1844 3:-2526 4:0.0354 5:0 6:0.0698 7:0.000703 8:0.289 9:43440 10:236307 11:1.1611219e+08 12:-69464051 13:-97516712 14:1 15:0 16:0 17:13899 
0.9912109375 0.990234375 1 1 1 1 1 1 1 1:0.512 2:10 3:-4.032 4:0.0376 5:0 6:5.2e-05 7:0.002863 8:0.328 9:44414 10:214492 11:3877674 12:50981 13:4096818 14:256 15:0 16:0 17:1627 
0.9912109375 0.990234375 1 1 1 1 1 1 1 1:0.743677 2:10 3:-2608 4:0.0781 5:9.9e-05 6:5.1e-05 7:0.063045 8:0.334 9:143.039 10:201330 11:3877674 12:50981 13:-18413961 14:0 15:0 16:0 17:1627 
0.9912109375 0.990234375 1 1 1 1 1 1 1 1:0.028934 2:7 3:-13.16 4:0.0371 5:0.272098 6:2.4e-05 7:0.022188 8:0 9:161.982 10:235640 11:694867 12:3567 13:61579453 14:1 15:0 16:0 17:272 
0.9912109375 0.990234375 1 1 1 1 1 1 1 1:0.00887 2:0 3:-13.155 4:0 5:0 6:3.1e-05 7:0.001561 8:0.268 9:171.282 10:227600 11:91903509 12:-40743013 13:43682228 14:1 15:0 16:0 17:27260 
0.9912109375 0.990234375 1 1 1 1 1 1 1 1:0.667628 2:0 3:-3.161 4:0.0777 5:0.000595 6:0 7:0.002147 8:0.269 9:185.888 10:260467 11:1.9417774e+08 12:692197 13:-37135331 14:1 15:0 16:0 17:21084 
0.9912109375 0.990234375 1 1 1 1 1 1 1 1:0.049431 2:7 3:-7.95 4:0.0311 5:0.601212 6:0.00279 7:0.000665 8:0 9:53802 10:250984 11:57057668 12:601662 13:1.1468127e+08 14:1 15:0 16:0 17:6210937 
0.9912109375 0.990234375 1 1 1 1 1 1 1 1:0.033076 2:10 3:-8.513 4:0.0338 5:0.553388 6:4e-06 7:0 8:0 9:81.915 10:268933 11:1.8702904e+08 12:1167184 13:90813770 14:1 15:0 16:0 17:31394 
0.9912109375 0.990234375 1 1 1 1 1 1 1 1:0.10785 2:7 3:-3162 4:0.0326 5:0.672221 6:0.00217 7:0.00089 8:0 9:105.54 10:245627 11:14819802 12:814917 13:1.274776e+08 14:1 15:0 16:0 17:6471100 
0.9912109375 0.990234375 1 1 1 1 1 1 1 1:0.065939 2:0 3:-7.478 4:0.0358 5:0.569723 6:0 7:0 8:0.441 9:80.778 10:186982 11:4865970 12:22126 13:29891438 14:1 15:0 16:0 17:398 
0.9912109375 0.990234375 1 1 1 1 1 1 1 1:0.315821 2:2327 3:-6.388 4:0.0426 5:0.057512 6:0 7:0.389017 8:0.269 9:134.032 10:350867 11:29891003 12:-24055018 13:48806476 14:0 15:0 16:0 17:16481 
0.9912109375 0.990234375 1 1 1 1 1 1 1 1:0 2:2345 3:-7.818 4:0 5:0.263375 6:0 7:0 8:0.285 9:77.986 10:237467 11:764832 12:5730 13:1.6976996e+08 14:0 15:0 16:0 17:472 
0.9912109375 0.990234375 1 1 1 1 1 1 1 1:0.105824 2:2351 3:-3230 4:0.0466 5:0.143878 6:0.0457 7:0.010941 8:0 9:128.987 10:283933 11:20341385 12:148643 13:47589327 14:0 15:0 16:0 17:3828 
0.9912109375 0.990234375 1 1 1 1 1 1 1 1:0.004411 2:4 3:-18.756 4:0.0364 5:0.756058 6:0.916 7:0.001295 8:0.071 9:58347 10:166867 11:-3163752 12:14054 13:70880561 14:1 15:0 16:0 17:376 
0.9912109375 0.990234375 1 1 1 1 1 1 1 1:1e-06 2:2473 3:-38.855 4:0.0343 5:0 6:0.652 7:0.005 8:0.134 9:112.378 10:1.0664603e+08 11:5265050 12:166 13:24027522 14:1 15:0 16:0 17:0 
0.9912109375 0.990234375 1 1 1 1 1 1 1 1:0.002097 2:2 3:-3424 4:0.0462 5:0.841232 6:0.928 7:0.000347 8:0.113 9:47.362 10:1.070712e+08 11:280313 12:6070 13:37112679 14:1 15:0 16:0 17:19 
0.9912109375 0.990234375 1 1 1 1 1 1 1 1:0 2:1 3:-3436 4:0.0518 5:0 6:0.0163 7:0.000375 8:0.0391 9:108.013 10:141707 11:61434 12:1723 13:14506290 14:1 15:0 16:0 17:11 
0.9912109375 0.990234375 1 1 1 1 1 1 1 1:0.003242 2:7 3:-18.882 4:0.0386 5:0.801765 6:0.954 7:0.001191 8:0.0788 9:142.536 10:306533 11:219570 12:5551 13:14647125 14:1 15:0 16:0 17:6842016 
0.9912109375 0.990234375 1 1 1 1 1 1 1 1:0 2:2 3:-31.179 4:0 5:0 6:0.165 7:0.001368 8:0.0388 9:88.858 10:156573 11:2527 12:109 13:16083927 14:1 15:0 16:0 17:6842232 
0.9912109375 0.990234375 1 1 1 1 1 1 1 1:1.1e-05 2:2516 3:-3492 4:0 5:0.788889 6:0 7:0.000275 8:0.0892 9:104.721 10:124120 11:300430 12:3721 13:6399904 14:1 15:0 16:0 17:158 
0.9912109375 0.990234375 1 1 1 1 1 1 1 1:0.047046 2:2 3:-10.187 4:0.0333 5:0.131097 6:0.00268 7:0.00126 8:0.056 9:126.786 10:535963 11:1.8144685e+08 12:1470779 13:37873326 14:345 15:0 16:0 17:58385 
0.9912109375 0.990234375 1 1 1 1 1 1 1 1:0 2:4 3:-8.621 4:0.0322 5:3e-06 6:0 7:0.001225 8:0.112 9:161.961 10:449253 11:59634002 12:-10298950 13:77516908 14:1 15:0 16:0 17:8383 
0.9912109375 0.990234375 1 1 1 1 1 1 1 1:0.002097 2:0 3:-16.555 4:0.0653 5:0.733871 6:0 7:0.019903 8:0.223 9:75.668 10:148520 11:2233635 12:29856 13:22395820 14:1 15:0 16:0 17:536 
0.9912109375 0.990234375 1 1 1 1 1 1 1 1:0.315821 2:4 3:-6.388 4:0.0426 5:0 6:0 7:0.389017 8:0.269 9:134.032 10:350867 11:8008 12:153 13:48806476 14:0 15:0 16:0 17:9 
0.9912109375 0.990234375 1 1 1 1 1 1 1 1:0.045499 2:10 3:-6.596 4:0.0315 5:0.250047 6:0 7:0 8:0.174 9:114.229 10:241067 11:1.1614296e+08 12:656663 13:-31499472 14:1 15:0 16:0 17:26290 
0.9912109375 0.990234375 1 1 1 1 1 1 1 1:0.442451 2:9 3:-5.802 4:0.0578 5:0.164567 6:0 7:0.000591 8:0 9:202.936 10:-98713195 11:1659252 12:8221 13:12689289 14:1 15:0 16:0 17:287 
0.9912109375 0.990234375 1 1 1 1 1 1 1 1:0 2:7 3:-10.541 4:0 5:0.05401 6:0.00332 7:0 8:0.163 9:154.649 10:237080 11:1757053 12:206740 13:-88387242 14:1 15:0 16:0 17:5397 
0.9912109375 0.990234375 1 1 1 1 1 1 1 1:0 2:1 3:-33.366 4:0.0451 5:0.979147 6:0.919 7:0.000236 8:0.0383 9:132.085 10:294960 11:88157607 12:886141 13:63536557 14:385 15:0 16:0 17:68790 
0.9912109375 0.990234375 1 1 1 1 1 1 1 1:0 2:1 3:-3886 4:0.0376 5:0.982108 6:0.912 7:0.000239 8:0.0397 9:66600 10:-93319230 11:88157607 12:886141 13:93461661 14:1 15:0 16:0 17:68790 
0.9912109375 0.990234375 1 1 1 1 1 1 1 1:0 2:7 3:-31.948 4:0.0394 5:0.982108 6:0.91 7:0.000562 8:0.0673 9:66728 10:-93098865 11:15974768 12:107236 13:51210863 14:1 15:0 16:0 17:7811565 
0.9912109375 0.990234375 1 1 1 1 1 1 1 1:1e-06 2:5 3:-31.617 4:0.041 5:0 6:0.922 7:0.000473 8:0.083 9:66851 10:233400 11:15974768 12:107236 13:40399275 14:1 15:0 16:0 17:7815226 
0.9912109375 0.990234375 1 1 1 1 1 1 1 1:0 2:3 3:-27.888 4:0.0509 5:0.982108 6:0 7:0.000336 8:0 9:102.801 10:346347 11:-1.0737418e+08 12:886141 13:44802930 14:1 15:0 16:0 17:68790 
0.9912109375 0.990234375 1 1 1 1 1 1 1 1:6.6e-05 2:8 3:-31.023 4:0 5:0.976191 6:0 7:0.002628 8:0.233 9:63.821 10:-92430095 11:21045 12:341 13:18088338 14:0 15:0 16:0 17:6 
0.9912109375 0.990234375 1 1 1 1 1 1 1 1:1.5e-05 2:2847 3:-27.017 4:0.0463 5:0 6:0.932 7:0 8:0.0396 9:133.024 10:279160 11:2867746 12:14118430 13:66137762 14:1 15:0 16:0 17:1692 
0.9912109375 0.990234375 1 1 1 1 1 1 1 1:0 2:4 3:-31.909 4:0 5:0.973242 6:0.955 7:0.000238 8:0.0897 9:109.115 10:273413 11:282964 12:3820 13:17989562 14:1 15:0 16:0 17:167 
0.9912109375 0.990234375 1 1 1 1 1 1 1 1:0 2:3 3:-38.222 4:0.0435 5:0.985075 6:0.844 7:0 8:0 9:72.32 10:150440 11:40337 12:448 13:12672498 14:0 15:0 16:0 17:1 
0.9912109375 0.990234375 1 1 1 1 1 1 1 1:0 2:2861 3:-35.324 4:0.0369 5:0.985075 6:0.894 7:0.000134 8:0.0815 9:65.097 10:252600 11:153045 12:1315 13:6385495 14:1 15:0 16:0 17:15 
0.9912109375 0.990234375 1 1 1 1 1 1 1 1:0.110592 2:2954 3:-4090 4:0.0282 5:0 6:2e-06 7:0.001728 8:0.137 9:100.956 10:-87517926 11:1.3976848e+08 12:677406 13:2.0132741e+08 14:1 15:0 16:0 17:28379 
0.9912109375 0.990234375 1 1 1 1 1 1 1 1:0.170954 2:10 3:-4138 4:0.129 5:0.008999 6:0.00437 7:0.034328 8:0.397 9:96.019 10:132147 11:1.0667278e+08 12:26293 13:80451082 14:1 15:0 16:0 17:318 
0.9912109375 0.990234375 1 1 1 1 1 1 1 1:0 2:1 3:-7.977 4:0 5:0 6:0.878 7:0.219256 8:0 9:0 10:-84778669 11:104635 12:1905 13:9283211 14:1 15:0 16:0 17:21 
0.9912109375 0.990234375 1 1 1 1 1 1 1 1:0 2:2 3:-7.691 4:0.0313 5:0.605496 6:3.2e-05 7:0.004252 8:0.342 9:73053 10:263133 11:1631977 12:690580 13:1.8712859e+08 14:1 15:0 16:0 17:15079 
0.9912109375 0.990234375 1 1 1 1 1 1 1 1:0.187149 2:1 3:-7.818 4:0.0377 5:0.263375 6:0 7:0.008 8:0.285 9:77.986 10:237467 11:54343998 12:77 13:1.6976996e+08 14:0 15:0 16:0 17:6 
0.9912109375 0.990234375 1 1 1 1 1 1 1 1:0.035937 2:3174 3:-10.454 4:0 5:0.290118 6:0 7:0.328509 8:0.328 9:203.636 10:277947 11:4.3875919e+08 12:1129399 13:39848891 14:434 15:0 16:0 17:35346 
0.9912109375 0.990234375 1 1 1 1 1 1 1 1:0 2:0 3:-4417 4:0.0326 5:0.094819 6:0.0024 7:0.527514 8:0 9:75310 10:-77419189 11:57227764 12:724027 13:1.092965e+08 14:1 15:0 16:0 17:27875 
0.9912109375 0.990234375 1 1 1 1 1 1 1 1:0.05401 2:1 3:-11.008 4:0.0329 5:0.313047 6:0 7:0.000754 8:0 9:81912 10:470500 11:3.3383059e+08 12:2719004 13:73834235 14:1 15:0 16:0 17:94883 
0.9912109375 0.990234375 1 1 1 1 1 1 1 1:0 2:7 3:-4834 4:0.162 5:0.05401 6:0.000254 7:0.001482 8:0.186 9:177.179 10:169404 11:20375506 12:139835 13:7651549 14:0 15:0 16:0 17:9889282 
0.9912109375 0.990234375 1 1 1 1 1 1 1 1:0.109902 2:4 3:-5.879 4:0.0286 5:0 6:0 7:0.082313 8:0 9:83868 10:307451 11:72265101 12:705779 13:23376678 14:0 15:0 16:0 17:15324 
0.9912109375 0.990234375 1 1 1 1 1 1 1 1:0.25484 2:0 3:-7.927 4:0.0335 5:0 6:0 7:0.015069 8:0.331 9:94.733 10:241173 11:21568838 12:162903 13:2.2413525e+08 14:1 15:0 16:0 17:4415 
0.9912109375 0.990234375 1 1 1 1 1 1 1 1:0.976191 2:4 3:-3.9 4:0.0988 5:3e-06 6:0.113 7:0.57801 8:0.374 9:87580 10:187120 11:74465789 12:387293 13:1.4715743e+08 14:1 15:0 16:0 17:13433 
0.9912109375 0.990234375 1 1 1 1 1 1 1 1:0.881974 2:1 3:-2.956 4:0.0627 5:1e-06 6:0.000953 7:0.069427 8:0.927 9:161.797 10:174027 11:43675939 12:178356 13:86272730 14:1 15:0 16:0 17:7004 
0.9912109375 0.990234375 1 1 1 1 1 1 1 1:0 2:9 3:-6.606 4:0.0923 5:0.008615 6:0 7:0.001861 8:0.589 9:88918 10:-52207411 11:14663251 12:88571 13:60891633 14:1 15:0 16:0 17:3990 
0.9912109375 0.990234375 1 1 1 1 1 1 1 1:0 2:4 3:-30.932 4:0.0493 5:0.751089 6:0.89 7:0.001561 8:0.347 9:50.96 10:102373 11:13086 12:422 13:44833008 14:1 15:0 16:0 17:4 
0.9912109375 0.990234375 1 1 1 1 1 1 1 1:0.022665 2:0 3:-9.323 4:0.0494 5:0.702595 6:7e-06 7:0.001728 8:0.189 9:206.557 10:156333 11:1327 12:30 13:77692768 14:526 15:0 16:0 17:0 
0.9912109375 0.990234375 1 1 1 1 1 1 1 1:0.000224 2:4 3:-22.497 4:0.0417 5:0.958585 6:0.685 7:0.001443 8:0.0372 9:91326 10:64440 11:805 12:95414309 13:6943922 14:529 15:0 16:0 17:2 
0.9912109375 0.990234375 1 1 1 1 1 1 1 1:0.000404 2:4 3:-22.458 4:0.0437 5:0.768575 6:0.947 7:0.000888 8:0 9:141.524 10:174333 11:46931 12:1038 13:-10007214 14:1 15:0 16:0 17:10765785 
0.9912109375 0.990234375 1 1 1 1 1 1 1 1:0.382657 2:9 3:-11.541 4:0.0449 5:0 6:0.0113 7:0.000979 8:0.426 9:92023 10:422933 11:49948110 12:371007 13:1.2360114e+08 14:533 15:0 16:0 17:16798 
0.9912109375 0.990234375 1 1 1 1 1 1 1 1:0.700227 2:2 3:-5.88 4:0.0943 5:0 6:0.00442 7:0.001521 8:0.555 9:141.374 10:305293 11:38163344 12:98626603 13:66031676 14:535 15:0 16:0 17:19216 
0.9912109375 0.990234375 1 1 1 1 1 1 1 1:0.868251 2:3892 3:-7.006 4:0.0722 5:0 6:0.000614 7:0.000133 8:0.627 9:156.899 10:237347 11:23142844 12:182815 13:48944027 14:535 15:0 16:0 17:9489 
0.9912109375 0.990234375 1 1 1 1 1 1 1 1:0.533412 2:10 3:-7.237 4:0.0621 5:0 6:1 7:0.001191 8:0 9:120.758 10:-45333581 11:3142 12:99620150 13:22431459 14:1 15:0 16:0 17:16 
0.9912109375 0.990234375 1 1 1 1 1 1 1 1:0.079507 2:9 3:-12.564 4:0.0288 5:0.162771 6:1 7:0.006645 8:0.547 9:96994 10:197813 11:46538402 12:351862 13:4.7056128e+08 14:1 15:0 16:0 17:11359 
0.9912109375 0.990234375 1 1 1 1 1 1 1 1:0.028373 2:2 3:-10.879 4:0.0298 5:0.660776 6:0.00368 7:0.049431 8:0.464 9:146.066 10:180693 11:9490013 12:67711 13:1.6775825e+08 14:1 15:0 16:0 17:3530 
0.9912109375 0.990234375 1 1 1 1 1 1 1 1:0.004742 2:10 3:-13.893 4:0.0336 5:0.766061 6:0.000223 7:0.001602 8:0.259 9:146.68 10:311893 11:15056037 12:113703 13:45866471 14:1 15:0 16:0 17:4264 
0.9912109375 0.990234375 1 1 1 1 1 1 1 1:0.000668 2:7 3:-18.981 4:0.0414 5:0.738763 6:3e-06 7:0.001443 8:0.478 9:89.014 10:114200 11:3731577 12:17091 13:4802731 14:567 15:0 16:0 17:509 
0.9912109375 0.990234375 1 1 1 1 1 1 1 1:0.006128 2:3 3:-6118 4:0 5:0.638277 6:0.000234 7:0.00081 8:0 9:136.646 10:231867 11:85093775 12:459124 13:67029464 14:0 15:0 16:0 17:12048308 
0.9912109375 0.990234375 1 1 1 1 1 1 1 1:0.070445 2:4406 3:-12.472 4:0.0314 5:0.11338 6:5e-06 7:0.041422 8:0.313 9:142.765 10:258720 11:2527788 12:21862 13:84632037 14:1 15:0 16:0 17:746 
0.9912109375 0.990234375 1 1 1 1 1 1 1 1:0 2:7 3:-6146 4:0.0341 5:0.290118 6:0 7:0.00103 8:0.153 9:172.546 10:218133 11:12160629 12:-85227961 13:41138592 14:1 15:0 16:0 17:1665 
0.9912109375 0.990234375 1 1 1 1 1 1 1 1:0.187149 2:4426 3:-7.818 4:0.0377 5:0.263375 6:1 7:0.008 8:0.285 9:77.986 10:-22830506 11:764832 12:5730 13:1.6976996e+08 14:611 15:0 16:0 17:472 
0.9912109375 0.990234375 1 1 1 1 1 1 1 1:0.001405 2:10 3:-15.309 4:0.0362 5:0.881974 6:0.000104 7:0.000306 8:0.153 9:134.893 10:-12884029 11:2871455 12:-68991361 13:13672939 14:1 15:0 16:0 17:1627 
0.9912109375 0.990234375 1 1 1 1 1 1 1 1:0.008615 2:7 3:-15.315 4:0.0303 5:0.596948 6:0 7:0.00103 8:0.166 9:81.586 10:186973 11:14049 12:-68892475 13:1.0419282e+08 14:1 15:0 16:0 17:1 
0.9912109375 0.990234375 1 1 1 1 1 1 1 1:0.040354 2:10 3:-12.993 4:0.0385 5:0.523607 6:0 7:0 8:0 9:184.301 10:179173 11:34897501 12:138010 13:1.0740312e+08 14:1 15:0 16:0 17:7767 
0.9912109375 0.990234375 1 1 1 1 1 1 1 1:0.054872 2:4673 3:-13.806 4:0.0337 5:0.303464 6:0 7:0.05444 8:0.408 9:168.496 10:-12043597 11:1725525 12:7529 13:99597112 14:645 15:0 16:0 17:716 
0.9912109375 0.990234375 1 1 1 1 1 1 1 1:0.003944 2:4 3:-17.011 4:0.0353 5:0.849278 6:0.00106 7:0.000601 8:0 9:85.174 10:201040 11:27685256 12:547 13:67355877 14:1 15:0 16:0 17:4 
0.9912109375 0.990234375 1 1 1 1 1 1 1 1:0.012978 2:4695 3:-11.513 4:0.0323 5:0.61847 6:1 7:0.000326 8:0 9:74.72 10:218893 11:52812042 12:263698 13:47426266 14:1 15:0 16:0 17:22582 
0.9912109375 0.990234375 1 1 1 1 1 1 1 1:0.143878 2:2 3:-6554 4:0.0293 5:0.111285 6:0.00116 7:0.001295 8:0.595 9:164.732 10:200800 11:84397041 12:219114 13:15295987 14:653 15:0 16:0 17:5011 
0.9912109375 0.990234375 1 1 1 1 1 1 1 1:0.208528 2:7 3:-7.971 4:0.039 5:0.178454 6:0.0235 7:0.002048 8:0.275 9:89.521 10:-6895425 11:25627525 12:179932 13:-17984999 14:1 15:0 16:0 17:5971 
0.9912109375 0.990234375 1 1 1 1 1 1 1 1:0.003308 2:9 3:-13.131 4:0 5:0.704969 6:0.0271 7:0.001561 8:0.105 9:103.667 10:205227 11:336472 12:5008 13:25393808 14:1 15:0 16:0 17:53 
0.9912109375 0.990234375 1 1 1 1 1 1 1 1:0.087528 2:2 3:-9.748 4:0.0375 5:0.658503 6:0.00548 7:0.007078 8:0.136 9:67.232 10:198600 11:462118 12:3921 13:20661045 14:1 15:0 16:0 17:169 
0.9912109375 0.990234375 1 1 1 1 1 1 1 1:7.8e-05 2:5 3:-26.085 4:0.0478 5:0.96443 6:0.922 7:0.002406 8:0.0393 9:63.918 10:240000 11:29055753 12:381 13:9157267 14:0 15:0 16:0 17:0 
0.9912109375 0.990234375 1 1 1 1 1 1 1 1:0.134218 2:7 3:-11.576 4:0.0343 5:0.825294 6:0.888 7:0.002 8:0 9:110.148 10:-6295971 11:145278 12:1213 13:4160652 14:1 15:0 16:0 17:61 
0.9912109375 0.990234375 1 1 1 1 1 1 1 1:0.000417 2:0 3:-24.201 4:0.0437 5:0.857375 6:0.935 7:0.000935 8:0.126 9:117.686 10:271943 11:48311 12:616 13:1896618 14:1 15:0 16:0 17:21 
0.9912109375 0.990234375 1 1 1 1 1 1 1 1:0.002048 2:4810 3:-19.22 4:0.0384 5:0.478212 6:0.894 7:0.001093 8:0.11 9:114193 10:166840 11:283661 12:2894 13:2572941 14:1 15:0 16:0 17:4 
0.9912109375 0.990234375 1 1 1 1 1 1 1 1:0.001953 2:2 3:-17.868 4:0.039 5:0.901429 6:0.815 7:0.000148 8:0.102 9:114292 10:424507 11:11040705 12:93772 13:7354616 14:1 15:0 16:0 17:2758 
0.9912109375 0.990234375 1 1 1 1 1 1 1 1:0.009261 2:5 3:-16.481 4:0 5:0 6:0.758 7:0.005178 8:0 9:94.233 10:232760 11:295022 12:-61868295 13:70061869 14:1 15:0 16:0 17:12801035 
0.9912109375 0.990234375 1 1 1 1 1 1 1 1:0.187149 2:1 3:-7.818 4:0.0377 5:0.263375 6:0 7:0.008 8:0.285 9:77.986 10:237467 11:-20352271 12:5730 13:1.6976996e+08 14:684 15:0 16:0 17:472 
0.9912109375 0.990234375 1 1 1 1 1 1 1 1:0.187149 2:1 3:-7.818 4:0 5:0.263375 6:0 7:0.008 8:0 9:77.986 10:237467 11:129107 12:973 13:1.6976996e+08 14:0 15:0 16:0 17:107 
0.9912109375 0.990234375 1 1 1 1 1 1 1 1:0.275894 2:4 3:-6.348 4:0.0414 5:0.00071 6:0 7:0 8:0.395 9:172.111 10:214720 11:21331510 12:103278 13:-14419788 14:1 15:0 16:0 17:4781 
0.9912109375 0.990234375 1 1 1 1 1 1 1 1:0.036265 2:0 3:-7056 4:0.0305 5:0.390618 6:4e-06 7:0 8:0.0996 9:95.004 10:312333 11:31153601 12:141420 13:56307695 14:1 15:0 16:0 17:4455 
0.5211762575903508 0.51660109793322628 0.58222905229829625 0.54112456123202701 0.53357918646712876 0.52918922561157056 0.52602582236690931 0.58382913607082443 0.57609394582422968 1:0 2:0 3:-5.197 4:0.0587 5:0.317215 6:6e-06 7:0.027 8:0 9:92.989 10:415237 11:4039676 12:45290 13:9472473 14:1 15:0 16:0 17:1281 
0.9912109375 0.990234375 1 1 1 1 1 1 1 1:0.702595 2:1 3:-8.045 4:0.335 5:0.018821 6:1.5e-05 7:0.005088 8:0.666 9:85.61 10:130480 11:8438660 12:178461 13:92371658 14:1 15:0 16:0 17:2532 
0.9912109375 0.990234375 1 1 1 1 1 1 1 1:0.043987 2:8 3:-7.411 4:0.0288 5:0.024897 6:0 7:0 8:0.676 9:169.229 10:196998 11:57282890 12:222101 13:55860414 14:1 15:0 16:0 17:14468495 
0.9912109375 0.990234375 1 1 1 1 1 1 1 1:0.470911 2:10 3:-4.871 4:0.0899 5:0.007301 6:2.6e-05 7:0.000847 8:0.342 9:84.033 10:288347 11:2681742 12:26939 13:5179302 14:775 15:0 16:0 17:1149 
0.9912109375 0.990234375 1 1 1 1 1 1 1 1:0.092345 2:7 3:-8.809 4:0.0326 5:0 6:0 7:0 8:0.307 9:103.264 10:178733 11:3.1222651e+08 12:1678392 13:51007137 14:1 15:0 16:0 17:64523 
0.9912109375 0.990234375 1 1 1 1 1 1 1 1:0.172809 2:7 3:-10.066 4:0.033 5:0.013312 6:1 7:0.037933 8:0.635 9:209.953 10:34724386 11:17125391 12:1678392 13:8675994 14:1 15:0 16:0 17:64523 
0.9912109375 0.990234375 1 1 1 1 1 1 1 1:0.240642 2:4 3:-8.258 4:0.0336 5:0.009664 6:4.5e-05 7:0.00071 8:0 9:138974 10:221427 11:9389789 12:110890 13:2.1604807e+08 14:1 15:0 16:0 17:4411 
0.9912109375 0.990234375 1 1 1 1 1 1 1 1:0.283593 2:2 3:-8208 4:0.0358 5:0.00103 6:3e-06 7:0.002986 8:0 9:177.477 10:190373 11:-65716585 12:11703 13:52961913 14:0 15:0 16:0 17:502 
0.9912109375 0.990234375 1 1 1 1 1 1 1 1:0.452985 2:5939 3:-7.48 4:0.0387 5:0 6:0.301 7:0.001061 8:0.35 9:169.873 10:43721217 11:78767955 12:391137 13:1.8545197e+08 14:818 15:0 16:0 17:11482 
0.9912109375 0.990234375 1 1 1 1 1 1 1 1:0.262144 2:9 3:-6.02 4:0.0301 5:0 6:4.4e-05 7:0.004742 8:0 9:74.537 10:354547 11:51645825 12:45605131 13:1.2543648e+08 14:1 15:0 16:0 17:12633 
0.9912109375 0.990234375 1 1 1 1 1 1 1 1:0.034646 2:7 3:-9.239 4:0.0386 5:0.644973 6:0 7:0.006968 8:0.546 9:148031 10:174000 11:15606350 12:48220307 13:-55732304 14:1 15:0 16:0 17:3936 
0.9912109375 0.990234375 1 1 1 1 1 1 1 1:0.125752 2:10 3:-11.296 4:0.0731 5:0.470911 6:0 7:0 8:0 9:158.348 10:166200 11:33116600 12:49003882 13:-19737738 14:860 15:0 16:0 17:8475 
0.9912109375 0.990234375 1 1 1 1 1 1 1 1:0.02364 2:7 3:-8829 4:0.0388 5:0.672221 6:0.644 7:0 8:0.185 9:71.608 10:311107 11:6000182 12:231315 13:48597664 14:1 15:0 16:0 17:3820 
0.9912109375 0.990234375 1 1 1 1 1 1 1 1:0.00593 2:0 3:-17.599 4:0.0424 5:0.830584 6:0.888 7:0.001158 8:0.0922 9:71.277 10:178507 11:55494 12:1981 13:28970977 14:1 15:0 16:0 17:56 
0.9912109375 0.990234375 1 1 1 1 1 1 1 1:0.000849 2:2 3:-20.885 4:0.0333 5:0.743677 6:0.869 7:0.186169 8:0.0949 9:49.034 10:153573 11:6000182 12:231315 13:22292044 14:1 15:0 16:0 17:3820 
0.9912109375 0.990234375 1 1 1 1 1 1 1 1:0.017985 2:10 3:-12.798 4:0.0342 5:0.804357 6:0.842 7:0 8:0.377 9:119.388 10:134813 11:18204 12:514 13:14953989 14:1 15:0 16:0 17:16797077 
0.9912109375 0.990234375 1 1 1 1 1 1 1 1:9.9e-05 2:4 3:-8879 4:0 5:0.679151 6:0.803 7:0.000786 8:0.0392 9:77.936 10:218240 11:209039 12:4013 13:13484622 14:1 15:0 16:0 17:210 
0.9912109375 0.990234375 1 1 1 1 1 1 1 1:0.000804 2:0 3:-22.214 4:0.0299 5:0 6:0.937 7:0.000828 8:0 9:79.441 10:193000 11:545701 12:15095 13:7827335 14:873 15:0 16:0 17:357 
0.9912109375 0.990234375 1 1 1 1 1 1 1 1:0.002197 2:1 3:-17.036 4:0.0293 5:0.949862 6:0.917 7:0.001685 8:0.0376 9:151029 10:192507 11:4350395 12:142292 13:8211083 14:1 15:0 16:0 17:2812 
0.9912109375 0.990234375 1 1 1 1 1 1 1 1:0.012326 2:5 3:-13.319 4:0.031 5:0.887504 6:0.0947 7:0.001643 8:0.0713 9:107.763 10:203493 11:19268639 12:78721 13:61658408 14:1 15:0 16:0 17:4742 
0.9912109375 0.990234375 1 1 1 1 1 1 1 1:0.194105 2:6367 3:-6.983 4:0.0286 5:0.105154 6:0.00055 7:0.010503 8:0.381 9:151404 10:295067 11:23657450 12:111553 13:64416732 14:1 15:0 16:0 17:8458 
0.9912109375 0.990234375 1 1 1 1 1 1 1 1:0.109215 2:7 3:-9.37 4:0 5:0 6:7.2e-05 7:0.000539 8:0.186 9:94.203 10:331400 11:33925954 12:161218 13:1.0582955e+08 14:1 15:0 16:0 17:7544 
0.9912109375 0.990234375 1 1 1 1 1 1 1 1:0.056182 2:10 3:-10.071 4:0.0347 5:0.377933 6:0 7:0.026731 8:0.452 9:173.79 10:191160 11:68042088 12:711368 13:1.4865462e+08 14:1 15:0 16:0 17:16858315 
0.9912109375 0.990234375 1 1 1 1 1 1 1 1:0.027271 2:9 3:-11.843 4:0 5:0.454757 6:0 7:0 8:0.436 9:65.488 10:158680 11:6544598 12:51779 13:45683827 14:1 15:0 16:0 17:1918 
0.9912109375 0.990234375 1 1 1 1 1 1 1 1:0.042144 2:5 3:-8.631 4:0.0293 5:0.163667 6:0.0133 7:0.03726 8:0.328 9:87.43 10:179693 11:54085718 12:425548 13:3.6915997e+08 14:1 15:0 16:0 17:11788 
0.9912109375 0.990234375 1 1 1 1 1 1 1 1:0.045118 2:0 3:-8.031 4:0.0303 5:0 6:0 7:0 8:0.426 9:174.176 10:187667 11:2381677 12:21843 13:59478167 14:1 15:0 16:0 17:487 
0.9912109375 0.990234375 1 1 1 1 1 1 1 1:0.014527 2:8 3:-9183 4:0.0303 5:0.381078 6:1 7:0.094819 8:0.512 9:173.509 10:175627 11:2372324 12:15625 13:-48673816 14:1 15:0 16:0 17:423 
0.9912109375 0.990234375 1 1 1 1 1 1 1 1:0.086351 2:4 3:-11.974 4:0.0357 5:0.088121 6:1 7:0.003308 8:0.508 9:176.184 10:150200 11:12742 12:160 13:4244437 14:1 15:0 16:0 17:12 
0.9912109375 0.990234375 1 1 1 1 1 1 1 1:4e-06 2:9 3:-31.034 4:0.0442 5:0.958585 6:0.86 7:0.000522 8:0.0573 9:128.143 10:75631596 11:14529728 12:69713893 13:1.0453026e+08 14:1 15:0 16:0 17:5341 
0.9912109375 0.990234375 1 1 1 1 1 1 1 1:0.001295 2:7 3:-21.356 4:0.0597 5:0.729 6:0.867 7:0.000442 8:0.307 9:75.02 10:151480 11:14668662 12:252043 13:2.2798473e+08 14:1 15:0 16:0 17:6073 
0.9912109375 0.990234375 1 1 1 1 1 1 1 1:0 2:7 3:-33.123 4:0.0455 5:0.982108 6:0.89 7:0.000395 8:0.0391 9:118.247 10:184707 11:14529728 12:221848 13:36586830 14:1 15:0 16:0 17:5341 
0.9912109375 0.990234375 1 1 1 1 1 1 1 1:0 2:0 3:-29.76 4:0.0445 5:0.979147 6:0.888 7:0.000184 8:0 9:81.616 10:163267 11:7523761 12:70155949 13:68780059 14:1 15:0 16:0 17:1420 
0.9912109375 0.990234375 1 1 1 1 1 1 1 1:0 2:7 3:-22.496 4:0.072 5:0.96443 6:0.916 7:0 8:0.417 9:159347 10:150973 11:14668662 12:252043 13:36303881 14:1 15:0 16:0 17:6073 
0.9912109375 0.990234375 1 1 1 1 1 1 1 1:1e-06 2:6708 3:-33.503 4:0.0519 5:0.967362 6:0.596 7:0.001125 8:0.211 9:61.541 10:109800 11:82397502 12:415 13:42238569 14:1 15:0 16:0 17:0 
0.9912109375 0.990234375 1 1 1 1 1 1 1 1:0.01778 2:2 3:-9437 4:0 5:0.935441 6:0.902 7:0.002406 8:0.0477 9:159587 10:192067 11:-1.0275111e+08 12:63067 13:44397102 14:1 15:0 16:0 17:2643 
0.9912109375 0.990234375 1 1 1 1 1 1 1 1:2.9e-05 2:5 3:-27.399 4:0.0404 5:0 6:1 7:0.000938 8:0.036 9:96.639 10:77208978 11:-77236262 12:641 13:21505063 14:1 15:0 16:0 17:8 
0.9912109375 0.990234375 1 1 1 1 1 1 1 1:3.8e-05 2:2 3:-9457 4:0 5:0 6:1 7:0.001 8:0.181 9:72.134 10:164680 11:224706 12:70687643 13:13791165 14:1 15:0 16:0 17:10 
0.9912109375 0.990234375 1 1 1 1 1 1 1 1:0 2:5 3:-23.054 4:0.0403 5:0.876467 6:1 7:0.002197 8:0.284 9:116.654 10:711627 11:42417 12:581 13:816958 14:1 15:0 16:0 17:3 
0.9912109375 0.990234375 1 1 1 1 1 1 1 1:0.373248 2:6738 3:-5.541 4:0.033 5:0 6:0.000288 7:0.022665 8:0.554 9:141.283 10:341747 11:2.6880666e+08 12:1546605 13:-27855703 14:1 15:0 16:0 17:36673 
0.9912109375 0.990234375 1 1 1 1 1 1 1 1:0.131872 2:5 3:-6.426 4:0 5:0 6:0.000964 7:0.055306 8:0.291 9:128.618 10:78924108 11:3088602 12:33204 13:62672487 14:1 15:0 16:0 17:1609 
0.9912109375 0.990234375 1 1 1 1 1 1 1 1:0.101195 2:0 3:-8.453 4:0 5:0.152273 6:1.6e-05 7:0.18422 8:0.132 9:137.974 10:230400 11:13559393 12:54127 13:46419803 14:1 15:0 16:0 17:1542 
0.9912109375 0.990234375 1 1 1 1 1 1 1 1:0.030371 2:9 3:-16.918 4:0.0366 5:0 6:0 7:0 8:0.362 9:156.361 10:209600 11:981960 12:10966 13:52406558 14:934 15:0 16:0 17:533 
0.9912109375 0.990234375 1 1 1 1 1 1 1 1:0 2:5 3:-8.072 4:0.0268 5:0.385828 6:1e-05 7:0.001061 8:0 9:109.973 10:79826072 11:-45704053 12:100900 13:45076682 14:1 15:0 16:0 17:3137 
0.9912109375 0.990234375 1 1 1 1 1 1 1 1:0.016003 2:7 3:-11.687 4:0.0351 5:0.512 6:4.4e-05 7:0.000705 8:0.13 9:37.114 10:206533 11:1083575 12:11338 13:39541367 14:1 15:0 16:0 17:613 
0.9912109375 0.990234375 1 1 1 1 1 1 1 1:0.124251 2:2 3:-10.972 4:0.0685 5:0.000449 6:1 7:0 8:0.367 9:171.067 10:327400 11:44044732 12:253263 13:1.3290112e+08 14:1 15:0 16:0 17:10011 
0.9912109375 0.990234375 1 1 1 1 1 1 1 1:0.25124 2:2 3:-9794 4:0 5:0.11338 6:0 7:0 8:0.342 9:80.14 10:271933 11:23301049 12:101320 13:27036790 14:1 15:0 16:0 17:6155 
0.9912109375 0.990234375 1 1 1 1 1 1 1 1:0.052734 2:6989 3:-14.409 4:0.0272 5:0.002803 6:1 7:0.001295 8:0.511 9:166105 10:89160727 11:151026 12:2604 13:62566222 14:1 15:0 16:0 17:137 
0.9912109375 0.990234375 1 1 1 1 1 1 1 1:0.001861 2:0 3:-9860 4:0 5:0.676836 6:2.2e-05 7:0.00387 8:0.239 9:67.006 10:195400 11:806212 12:4914 13:27582760 14:1 15:0 16:0 17:339 
0.9912109375 0.990234375 1 1 1 1 1 1 1 1:0.146363 2:10 3:-8.422 4:0.0507 5:0.090519 6:0 7:0.028373 8:0.303 9:167931 10:241493 11:59033131 12:1089 13:43506262 14:1 15:0 16:0 17:2 
0.9912109375 0.990234375 1 1 1 1 1 1 1 1:0.57593 2:0 3:-11.433 4:0.403 5:0.000621 6:0 7:0 8:0.353 9:146.354 10:326893 11:-7584614 12:1.0010394e+08 13:-50204857 14:980 15:0 16:0 17:33 
0.9912109375 0.990234375 1 1 1 1 1 1 1 1:0.010648 2:9 3:-14.997 4:0.0345 5:0 6:1.8e-05 7:0 8:0.333 9:200.263 10:98887670 11:2879001 12:23934 13:14234746 14:1 15:0 16:0 17:1682 
0.9912109375 0.990234375 1 1 1 1 1 1 1 1:0.032157 2:0 3:-15.605 4:0.0411 5:0.873723 6:0.897 7:0.00093 8:0.188 9:98.171 10:442000 11:598931 12:6441 13:48345816 14:1 15:0 16:0 17:369 
0.9912109375 0.990234375 1 1 1 1 1 1 1 1:0.004331 2:4 3:-15.638 4:0.0351 5:0.731433 6:0.741 7:0.001907 8:0 9:136.037 10:685000 11:361391 12:5045 13:8003013 14:1 15:0 16:0 17:176 
0.9912109375 0.990234375 1 1 1 1 1 1 1 1:1.2e-05 2:10 3:-29.761 4:0.0432 5:0.96443 6:0.909 7:0.001093 8:0.04 9:84.99 10:498867 11:1649371 12:10399 13:19481743 14:1 15:0 16:0 17:657 
0.9912109375 0.990234375 1 1 1 1 1 1 1 1:0.000444 2:7401 3:-23.986 4:0.0429 5:0.268336 6:0.897 7:0.043987 8:0.0509 9:78.535 10:295219 11:199132 12:4163 13:7638792 14:1 15:0 16:0 17:8 
0.9912109375 0.990234375 1 1 1 1 1 1 1 1:1e-06 2:5 3:-33.111 4:0.0453 5:0.57593 6:0.815 7:0.001728 8:0 9:86.682 10:659000 11:50517 12:856 13:8404944 14:1 15:0 16:0 17:7 
0.9912109375 0.990234375 1 1 1 1 1 1 1 1:0 2:7411 3:-18.328 4:0.0373 5:0.841232 6:0.945 7:0.00564 8:0.0379 9:152.283 10:63333 11:4009 12:16 13:896992 14:1 15:0 16:0 17:0 
0.9912109375 0.990234375 1 1 1 1 1 1 1 1:0.048627 2:7 3:-13.863 4:0.0356 5:0.796598 6:0.907 7:0.004913 8:0.126 9:91.187 10:183667 11:24615 12:1261 13:-31449296 14:1 15:0 16:0 17:2 
0.9912109375 0.990234375 1 1 1 1 1 1 1 1:0.001816 2:7419 3:-22.312 4:0.0446 5:0.862801 6:0.48 7:0.000156 8:0 9:153.204 10:211600 11:18393 12:194 13:4017653 14:1 15:0 16:0 17:6 
0.9912109375 0.990234375 1 1 1 1 1 1 1 1:0.00402 2:2 3:-20.433 4:0 5:0.955672 6:0.793 7:0.000913 8:0.0396 9:75.99 10:324227 11:168262 12:-94379924 13:10530335 14:1 15:0 16:0 17:114 
0.9912109375 0.990234375 1 1 1 1 1 1 1 1:0.000605 2:2 3:-10539 4:0.045 5:0.783777 6:1 7:0.001443 8:0.0586 9:176.329 10:363253 11:2234909 12:7101 13:37292776 14:0 15:0 16:0 17:506 
0.9912109375 0.990234375 1 1 1 1 1 1 1 1:0.004331 2:4 3:-15.638 4:0 5:0.731433 6:0.741 7:0.001907 8:0.112 9:177856 10:685000 11:6898121 12:96713 13:8003013 14:1 15:0 16:0 17:3758 
0.9912109375 0.990234375 1 1 1 1 1 1 1 1:0.000395 2:7486 3:-21.889 4:0.0351 5:0.169112 6:0.875 7:0.005452 8:0.0347 9:177967 10:710000 11:86553 12:1664 13:11983943 14:1 15:0 16:0 17:7 
0.9912109375 0.990234375 1 1 1 1 1 1 1 1:0.026198 2:7 3:-14.937 4:0.037 5:0.788889 6:1 7:0.030959 8:0.279 9:139.855 10:456000 11:1754 12:-90177323 13:4409738 14:1 15:0 16:0 17:6 
0.9912109375 0.990234375 1 1 1 1 1 1 1 1:0.004173 2:10 3:-10581 4:0.0363 5:0.862801 6:0.888 7:0.001907 8:0.0954 9:178199 10:936000 11:243462 12:2827 13:2957606 14:1 15:0 16:0 17:11 
0.9912109375 0.990234375 1 1 1 1 1 1 1 1:0.027271 2:0 3:-10588 4:0.0449 5:0.258475 6:0.935 7:0.003652 8:0.0409 9:77.276 10:109667 11:3443338 12:28070 13:-58775874 14:1 15:0 16:0 17:673 
0.9912109375 0.990234375 1 1 1 1 1 1 1 1:0.004657 2:7 3:-20.965 4:0.0555 5:0.901429 6:0.818 7:0.000691 8:0.254 9:178441 10:626000 11:282412 12:3630 13:2609450 14:1 15:0 16:0 17:19129770 
0.9912109375 0.990234375 1 1 1 1 1 1 1 1:0 2:5 3:-10609 4:0 5:0.838562 6:0.531 7:0.001191 8:0.0301 9:85.284 10:517000 11:57337693 12:478 13:-28468943 14:1 15:0 16:0 17:4 
0.9912109375 0.990234375 1 1 1 1 1 1 1 1:1.8e-05 2:4 3:-21.686 4:0.0392 5:0.893056 6:0.903 7:0.012813 8:0.0354 9:141.29 10:253440 11:939071 12:11309 13:6719639 14:1 15:0 16:0 17:20 
0.9912109375 0.990234375 1 1 1 1 1 1 1 1:0.002628 2:7582 3:-13.236 4:0.0338 5:0.806954 6:1e-06 7:0.000964 8:0.0799 9:83.624 10:-99285717 11:-26152117 12:2384 13:7967376 14:1 15:0 16:0 17:20 
0.9912109375 0.990234375 1 1 1 1 1 1 1 1:0.002406 2:5 3:-17.292 4:0.0324 5:0.862801 6:0.00144 7:0 8:0.107 9:85.992 10:290760 11:287208 12:-87440339 13:49411732 14:1 15:0 16:0 17:23 
0.9912109375 0.990234375 1 1 1 1 1 1 1 1:0.091125 2:10 3:-10764 4:0.0338 5:0.704969 6:0.14 7:0.034646 8:0 9:106.629 10:-98222191 11:15258345 12:84792 13:13365507 14:1 15:0 16:0 17:2345 
0.5211762575903508 0.52486921846866608 0.58264485024940393 0.5409934143346572 0.53033728824684645 0.52850316666309261 0.52553961758253609 0.58470281116663592 0.57552901239435739 1:0.273359 2:0 3:-5.197 4:0.0587 5:0 6:1 7:0.027 8:0.78 9:92.989 10:415237 11:4039676 12:45290 13:9472473 14:1 15:0 16:0 17:1281 
0.9912109375 0.990234375 1 1 1 1 1 1 1 1:0.013652 2:7 3:-15.505 4:0.0346 5:0.746143 6:0.000213 7:0 8:0.295 9:184194 10:106600 11:-98015059 12:7991 13:24838856 14:1065 15:0 16:0 17:17 
0.9912109375 0.990234375 1 1 1 1 1 1 1 1:0 2:0 3:-15.278 4:0.0298 5:0 6:7.1e-05 7:0.011391 8:0.296 9:94.347 10:148333 11:318836 12:2524 13:-67255844 14:1 15:0 16:0 17:11 
0.9912109375 0.990234375 1 1 1 1 1 1 1 1:0.006435 2:10 3:-14.75 4:0.0348 5:0.605496 6:1 7:0.034328 8:0.571 9:200.073 10:133533 11:275821 12:1475 13:2343811 14:1 15:0 16:0 17:47 
0.9912109375 0.990234375 1 1 1 1 1 1 1 1:0 2:7931 3:-13.552 4:0.0308 5:0 6:0 7:0.032157 8:0.377 9:79.397 10:256120 11:11659011 12:63536 13:49339853 14:1 15:0 16:0 17:3867 
0.9912109375 0.990234375 1 1 1 1 1 1 1 1:0 2:7 3:-12.405 4:0.0303 5:0.245314 6:2e-06 7:0.005452 8:0.281 9:94.34 10:-84279929 11:701128 12:11940 13:84461994 14:1 15:0 16:0 17:273 
0.9912109375 0.990234375 1 1 1 1 1 1 1 1:0.010078 2:3 3:-12.833 4:0.0343 5:0.451218 6:1 7:0.149721 8:0.283 9:119.57 10:222733 11:1961450 12:11114 13:22143449 14:1 15:0 16:0 17:335 
0.9912109375 0.990234375 1 1 1 1 1 1 1 1:0.887504 2:2 3:-5.664 4:0 5:1.4e-05 6:9e-06 7:0 8:0.491 9:189513 10:153840 11:-17724737 12:-71954207 13:2.0081707e+08 14:1 15:0 16:0 17:15658 
0.9912109375 0.990234375 1 1 1 1 1 1 1 1:0.367062 2:8004 3:-5.653 4:0 5:5.5e-05 6:3.2e-05 7:0.004411 8:0.544 9:190214 10:409800 11:1251998 12:16525 13:93693054 14:1 15:0 16:0 17:991 
0.9912109375 0.990234375 1 1 1 1 1 1 1 1:0.034966 2:8148 3:-11551 4:0.031 5:1e-06 6:0.86 7:0.00038 8:0.454 9:175.898 10:257867 11:1.0294858e+08 12:533012 13:49606816 14:1 15:0 16:0 17:17779 
0.9912109375 0.990234375 1 1 1 1 1 1 1 1:6e-06 2:7 3:-31.858 4:0.0513 5:0.835897 6:0.94 7:0.007415 8:0.039 9:194037 10:172120 11:40003899 12:691633 13:29384597 14:1 15:0 16:0 17:39823 
0.9912109375 0.990234375 1 1 1 1 1 1 1 1:0 2:5 3:-11576 4:0.0576 5:0.988048 6:0.944 7:0.000686 8:0.0369 9:71.827 10:296480 11:10545759 12:173981 13:43255565 14:0 15:0 16:0 17:9535 
0.9912109375 0.990234375 1 1 1 1 1 1 1 1:0.000355 2:0 3:-29.097 4:0 5:0.941192 6:0.927 7:0.001295 8:0.188 9:130.479 10:159837 11:1455840 12:26561 13:6254591 14:0 15:0 16:0 17:27 
0.9912109375 0.990234375 1 1 1 1 1 1 1 1:2e-06 2:4 3:-27.57 4:0.045 5:0 6:1 7:0.000397 8:0.0727 9:97.216 10:220773 11:10623 12:-51086242 13:21999018 14:1125 15:0 16:0 17:0 
0.9912109375 0.990234375 1 1 1 1 1 1 1 1:0 2:0 3:-11635 4:0.045 5:0.809558 6:0.0318 7:0 8:0.0495 9:194982 10:-72477760 11:895 12:11 13:8512083 14:1126 15:0 16:0 17:1 
0.9912109375 0.990234375 1 1 1 1 1 1 1 1:0.310289 2:2 3:-5.83 4:0.0346 5:1e-06 6:0.00366 7:0 8:0.195 9:196080 10:238240 11:2.926496e+08 12:1467865 13:2.0341027e+08 14:1 15:0 16:0 17:47603 
0.9912109375 0.990234375 1 1 1 1 1 1 1 1:0.681472 2:8252 3:-6.035 4:0.0504 5:0 6:4e-06 7:0.000439 8:0.257 9:196205 10:294600 11:2.4326954e+08 12:-45315735 13:72644804 14:1 15:0 16:0 17:32315 
0.9912109375 0.990234375 1 1 1 1 1 1 1 1:0.335702 2:0 3:-5.756 4:0.0388 5:3.3e-05 6:1 7:0 8:0.165 9:196582 10:235267 11:154575 12:2009 13:57510289 14:1 15:0 16:0 17:20821281 
0.9912109375 0.990234375 1 1 1 1 1 1 1 1:0.191103 2:7 3:-4.701 4:0.0322 5:0 6:1 7:0.040002 8:0.139 9:137.622 10:272867 11:34124507 12:-43664081 13:44444093 14:1 15:0 16:0 17:6526 
0.9912109375 0.990234375 1 1 1 1 1 1 1 1:0.778688 2:8 3:-12208 4:0 5:0 6:0 7:0 8:0.376 9:204793 10:-54603272 11:1.9885822e+08 12:1070545 13:2.2238525e+08 14:1 15:0 16:0 17:21753147 
0.9912109375 0.990234375 1 1 1 1 1 1 1 1:0.432081 2:8626 3:-4.12 4:0.0544 5:0 6:2 7:0.032462 8:0.475 9:112.092 10:304373 11:55694894 12:259989 13:-72545548 14:1 15:0 16:0 17:7588 
0.9912109375 0.990234375 1 1 1 1 1 1 1 1:0.753571 2:5 3:-3.268 4:0.133 5:0 6:2 7:0.003796 8:0.644 9:162.253 10:177048 11:61557196 12:294486 13:1.1368678e+08 14:1 15:0 16:0 17:7870 
0.9912109375 0.990234375 1 1 1 1 1 1 1 1:0.756058 2:9 3:-12250 4:0 5:0 6:3e-06 7:0.006128 8:0.47 9:183.535 10:315453 11:14542507 12:148920 13:65496556 14:1 15:0 16:0 17:525 
0.9912109375 0.990234375 1 1 1 1 1 1 1 1:0.445944 2:10 3:-4.153 4:0.0402 5:0.000183 6:2 7:0.001816 8:0.219 9:205741 10:-52821475 11:84001396 12:499711 13:-42362323 14:1 15:0 16:0 17:16852 
0.9912109375 0.990234375 1 1 1 1 1 1 1 1:0.185193 2:8682 3:-11.56 4:0.0441 5:0.122763 6:0.0124 7:0.002097 8:0 9:81.28 10:215693 11:6016946 12:51018 13:47312429 14:1 15:0 16:0 17:2942 
0.9912109375 0.990234375 1 1 1 1 1 1 1 1:0.278445 2:7 3:-7.638 4:0.0264 5:0 6:0.106 7:0 8:0.285 9:73.393 10:-50741832 11:4281210 12:39249 13:19309901 14:1 15:0 16:0 17:853 
0.9912109375 0.990234375 1 1 1 1 1 1 1 1:0.020124 2:2 3:-12393 4:0.0368 5:0.131097 6:2e-05 7:0.018191 8:0.509 9:207544 10:212933 11:139231 12:2636 13:11345192 14:1 15:0 16:0 17:65 
0.9912109375 0.990234375 1 1 1 1 1 1 1 1:0.047046 2:9 3:-14.398 4:0.0499 5:0.241804 6:0.00119 7:0.003652 8:0.612 9:187.711 10:152867 11:8145894 12:90383 13:1.4295605e+08 14:1 15:0 16:0 17:22101808 
0.99118667500233848 0.990234375 1 1 1 1 1 1 1 1:0 2:8880 3:-17.583 4:0.0332 5:0 6:4e-06 7:0.004827 8:0.125 9:128.065 10:170960 11:2824127 12:-10510291 13:43677798 14:1 15:0 16:0 17:661 
0.99118667500233848 0.990234375 1 1 1 1 1 1 1 1:0.015438 2:1 3:-11.812 4:0.0277 5:0.658503 6:5.1e-05 7:0.003512 8:0.203 9:210867 10:200587 11:45775892 12:335852 13:76557869 14:1 15:0 16:0 17:15205 
0.99118667500233848 0.990234375 1 1 1 1 1 1 1 1:0.029791 2:8 3:-10.332 4:0.0293 5:0.519718 6:1.8e-05 7:0.001331 8:0.0942 9:136.052 10:256467 11:22289 12:-10096536 13:5818631 14:1221 15:0 16:0 17:23 
0.99118667500233848 0.990234375 1 1 1 1 1 1 1 1:0.442451 2:6 3:-12760 4:0.266 5:0 6:0 7:0.002924 8:0.409 9:81.101 10:-39029064 11:60116512 12:375324 13:25667652 14:0 15:0 16:0 17:9829 
0.99118667500233848 0.990234375 1 1 1 1 1 1 1 1:0 2:9 3:-14.729 4:0.0395 5:0.873723 6:1.8e-05 7:0.000649 8:0 9:216300 10:260878 11:-97615554 12:783256 13:31340996 14:0 15:0 16:0 17:22499193 
0.99118667500233848 0.990234375 1 1 1 1 1 1 1 1:0.014172 2:0 3:-14.149 4:0.0327 5:0.4601 6:0.00454 7:0.00623 8:0.113 9:216662 10:250493 11:12901602 12:31033 13:20698774 14:1 15:0 16:0 17:1253 
0.99118667500233848 0.990234375 1 1 1 1 1 1 1 1:0 2:9 3:-30.923 4:0.0478 5:0.982108 6:2 7:0 8:0.0634 9:69.043 10:378733 11:838406 12:6456 13:31057579 14:1 15:0 16:0 17:363 
0.99118667500233848 0.990234375 1 1 1 1 1 1 1 1:0 2:9 3:-13049 4:0.0434 5:0.985075 6:0.836 7:0.000559 8:0.158 9:125.698 10:81800 11:75538949 12:15 13:10241974 14:1 15:0 16:0 17:22701417 
0.99118667500233848 0.990234375 1 1 1 1 1 1 1 1:0.004657 2:7 3:-16 4:0.0354 5:0.726573 6:0.96 7:0 8:0.601 9:144.561 10:138707 11:41694822 12:324416 13:39575743 14:1 15:0 16:0 17:12641 
0.99118667500233848 0.990234375 1 1 1 1 1 1 1 1:0 2:8 3:-41.696 4:0.0518 5:0.985075 6:0.909 7:0.000991 8:0.693 9:124.244 10:52200 11:70157 12:821 13:5532251 14:1 15:0 16:0 17:24 
0.99118667500233848 0.990234375 1 1 1 1 1 1 1 1:1e-06 2:3 3:-33.503 4:0.0519 5:0.967362 6:0.596 7:0.001125 8:0.211 9:61.541 10:109800 11:58914 12:415 13:42238569 14:1 15:0 16:0 17:0 
0.99118667500233848 0.990234375 1 1 1 1 1 1 1 1:0.000295 2:7 3:-21.772 4:0.0403 5:0.573856 6:0.392 7:0.000572 8:0.256 9:82.568 10:173853 11:-94398883 12:324416 13:3344477 14:1 15:0 16:0 17:12641 
0.99118667500233848 0.990234375 1 1 1 1 1 1 1 1:1e-05 2:0 3:-28.778 4:0.0409 5:0.898632 6:0.841 7:0.001125 8:0.0616 9:172.879 10:374733 11:506575 12:7895 13:20409550 14:1 15:0 16:0 17:214 
0.99118667500233848 0.990234375 1 1 1 1 1 1 1 1:0.003375 2:2 3:-17.554 4:0 5:0.868251 6:0.863 7:0.001482 8:0.312 9:83.755 10:97640 11:1419 12:7204625 13:1695760 14:0 15:0 16:0 17:0 
0.99118667500233848 0.990234375 1 1 1 1 1 1 1 1:0.002744 2:4 3:-20.747 4:0.0489 5:0.743677 6:0.759 7:0.001953 8:0 9:92.122 10:425000 11:-73683876 12:1028 13:12226656 14:1 15:0 16:0 17:5 
0.99118667500233848 0.990234375 1 1 1 1 1 1 1 1:4e-06 2:2 3:-27.871 4:0 5:0 6:0.882 7:0.000286 8:0.0781 9:83.717 10:170000 11:-71154538 12:113390 13:2865633 14:0 15:0 16:0 17:6021 
0.99118667500233848 0.990234375 1 1 1 1 1 1 1 1:0.008742 2:7 3:-13145 4:0.0348 5:0.961505 6:0.00666 7:0.011239 8:0.773 9:219277 10:90373 11:4675 12:32 13:2830445 14:1 15:0 16:0 17:0 
0.99118667500233848 0.990234375 1 1 1 1 1 1 1 1:0.000187 2:9256 3:-29.864 4:0.0494 5:0.704969 6:2 7:0.029504 8:0.0386 9:219395 10:144267 11:3636 12:49 13:-10345841 14:1 15:0 16:0 17:1 
0.99118667500233848 0.990234375 1 1 1 1 1 1 1 1:4.8e-05 2:10 3:-26.822 4:0 5:0 6:0.922 7:0.000686 8:0 9:84.467 10:-27426447 11:223760 12:2450 13:6574020 14:1 15:0 16:0 17:102 
0.99118667500233848 0.990234375 1 1 1 1 1 1 1 1:2.1e-05 2:4 3:-13183 4:0.0433 5:0.843909 6:0.279 7:0.001907 8:0.13 9:167.727 10:202240 11:-67687733 12:92 13:4831916 14:1 15:0 16:0 17:3 
0.99118667500233848 0.990234375 1 1 1 1 1 1 1 1:1.3e-05 2:9 3:-13194 4:0.0459 5:0.921167 6:0.936 7:0.001521 8:0.0657 9:219900 10:172000 11:-67489507 12:59 13:65985369 14:1 15:0 16:0 17:3 
0.99118667500233848 0.990234375 1 1 1 1 1 1 1 1:0.187149 2:1 3:-7.818 4:0 5:0.263375 6:0 7:0.008 8:0.285 9:220030 10:237467 11:66040761 12:239180 13:1.6976996e+08 14:1272 15:0 16:0 17:5664 
0.99118667500233848 0.990234375 1 1 1 1 1 1 1 1:0 2:10 3:-13321 4:0.0929 5:0 6:0 7:0.036265 8:0.812 9:173.459 10:320813 11:2781710 12:50036 13:8590648 14:1 15:0 16:0 17:2454 
0.99118667500233848 0.990234375 1 1 1 1 1 1 1 1:0.026464 2:0 3:-10.169 4:0.0296 5:0.469097 6:2 7:0.000751 8:0.236 9:178.336 10:291121 11:8428785 12:81858 13:-99424689 14:1 15:0 16:0 17:1132 
0.9910924332216382 0.990234375 1 1 1 1 1 1 1 1:0 2:0 3:-10.631 4:0.0331 5:0.812166 6:0.134 7:0 8:0 9:224948 10:-17654037 11:23961410 12:141756 13:9571125 14:1 15:0 16:0 17:4319 
0.9910924332216382 0.990234375 1 1 1 1 1 1 1 1:0.180362 2:0 3:-9.908 4:0.0759 5:0.000551 6:0 7:0 8:0.382 9:74.874 10:345150 11:25883254 12:21256296 13:24425226 14:0 15:0 16:0 17:4927 
0.9910924332216382 0.990234375 1 1 1 1 1 1 1 1:0.204336 2:10 3:-6.523 4:0.0401 5:0.050653 6:0 7:0.004913 8:0.303 9:78.967 10:246027 11:25883254 12:22508397 13:20981662 14:1 15:0 16:0 17:4927 
0.9910924332216382 0.990234375 1 1 1 1 1 1 1 1:0.359425 2:6 3:-10.561 4:0.0693 5:0.012009 6:0 7:0.000218 8:0.272 9:90.159 10:222240 11:34795778 12:125626 13:43857116 14:1327 15:0 16:0 17:3163 
0.9910924332216382 0.990234375 1 1 1 1 1 1 1 1:0.056623 2:5 3:-9.541 4:0.0289 5:0.445944 6:0 7:0.001772 8:0.114 9:229615 10:267000 11:29886460 12:73067 13:70873595 14:1 15:0 16:0 17:2239 
0.9910924332216382 0.990234375 1 1 1 1 1 1 1 1:0.470911 2:10 3:-4.871 4:0.0899 5:0.007301 6:2.6e-05 7:0.000847 8:0.342 9:84.033 10:-5281948 11:2681773 12:28100094 13:3103411 14:1 15:0 16:0 17:1149 
0.9910924332216382 0.990234375 1 1 1 1 1 1 1 1:0.393833 2:9 3:-7.853 4:0.0389 5:0.408518 6:0.0022 7:0.034012 8:0.684 9:156.614 10:318408 11:67046 12:644 13:11061012 14:1 15:0 16:0 17:21 
0.9910924332216382 0.990234375 1 1 1 1 1 1 1 1:0.090519 2:9955 3:-13.516 4:0.0356 5:0.290118 6:2e-06 7:0 8:0.556 9:103.643 10:351425 11:1.2854955e+08 12:675571 13:11638340 14:1 15:0 16:0 17:27234 
0.9910924332216382 0.990234375 1 1 1 1 1 1 1 1:0.146363 2:10 3:-8.658 4:0.0435 5:0 6:0.000306 7:0.004574 8:0.165 9:237224 10:295520 11:26353588 12:112740 13:82380775 14:1 15:0 16:0 17:10032 
0.9910924332216382 0.990234375 1 1 1 1 1 1 1 1:0.324243 2:0 3:-7.967 4:0.0571 5:0.2823 6:2 7:0.005359 8:0.663 9:161.008 10:9528009 11:-83921700 12:55623944 13:16546876 14:1 15:0 16:0 17:13841 
0.9910924332216382 0.990234375 1 1 1 1 1 1 1 1:0 2:10 3:-10.152 4:0.0331 5:0 6:0.8 7:0.000616 8:0.0413 9:178.089 10:315987 11:-45951959 12:134816 13:59054570 14:1 15:0 16:0 17:3040 
0.9910924332216382 0.990234375 1 1 1 1 1 1 1 1:0.835897 2:1 3:-2.53 4:0.0869 5:0 6:0.24 7:0.002744 8:0.356 9:158.993 10:232307 11:8637951 12:47637 13:-94587027 14:1 15:0 16:0 17:1343 
0.9910924332216382 0.990234375 1 1 1 1 1 1 1 1:0.257259 2:5 3:-6.303 4:0.0301 5:0 6:0.00757 7:0.042509 8:0.193 9:155.466 10:224560 11:147854 12:2070 13:-37541541 14:1402 15:0 16:0 17:26 
0.9910924332216382 0.990234375 1 1 1 1 1 1 1 1:0.61196 2:6 3:-3.972 4:0.0928 5:0 6:0 7:0.006751 8:0.395 9:176.04 10:212572 11:2326310 12:63051001 13:23344288 14:1 15:0 16:0 17:1429 
0.9910924332216382 0.990234375 1 1 1 1 1 1 1 1:0.700227 2:6 3:-2.641 4:0.097 5:0 6:2e-06 7:0.048627 8:0.268 9:156.254 10:222893 11:275652 12:63076622 13:7108601 14:1 15:0 16:0 17:258 
0.9910924332216382 0.990234375 1 1 1 1 1 1 1 1:0.551368 2:0 3:-8.387 4:0.216 5:0.029504 6:1.6e-05 7:0.926859 8:0 9:173.314 10:295200 11:20295737 12:63153990 13:5994971 14:0 15:0 16:0 17:7 
0.9910924332216382 0.990234375 1 1 1 1 1 1 1 1:0.768575 2:8 3:-4.842 4:0.0841 5:0 6:0 7:0 8:0.578 9:159.925 10:194160 11:-44808704 12:431295 13:80592951 14:1 15:0 16:0 17:18923 
0.9910924332216382 0.990234375 1 1 1 1 1 1 1 1:0.707348 2:10450 3:-5.869 4:0.118 5:0 6:0.0016 7:0.003944 8:0.498 9:164.045 10:227347 11:39942299 12:206712 13:66603441 14:1 15:0 16:0 17:9018 
0.9910924332216382 0.990234375 1 1 1 1 1 1 1 1:0.43552 2:3 3:-6.161 4:0.0608 5:0.002686 6:2.7e-05 7:0.049836 8:0.382 9:188.167 10:306027 11:65348308 12:232766 13:36828500 14:1 15:0 16:0 17:14044 
0.9910924332216382 0.990234375 1 1 1 1 1 1 1 1:0 2:3 3:-4.19 4:0.0787 5:0 6:2 7:0.003375 8:0 9:180.094 10:225147 11:5308909 12:35631 13:43240278 14:1 15:0 16:0 17:1979 
0.9910924332216382 0.990234375 1 1 1 1 1 1 1 1:0.614125 2:4 3:-14857 4:0.0404 5:0.000739 6:0 7:0.001561 8:0 9:125.796 10:253187 11:1.8851568e+08 12:625074 13:1.4462403e+08 14:1 15:0 16:0 17:16775 
0.9910924332216382 0.990234375 1 1 1 1 1 1 1 1:0.002097 2:2 3:-20.459 4:0.0462 5:0.841232 6:0.928 7:0.000347 8:0.113 9:250100 10:415813 11:280316 12:6070 13:37112679 14:1 15:0 16:0 17:19 
0.9910924332216382 0.990234375 1 1 1 1 1 1 1 1:0.000397 2:10 3:-24.133 4:0.054 5:0.92401 6:0.861 7:0.021952 8:0.0306 9:72.616 10:537427 11:43099 12:902 13:29351723 14:0 15:0 16:0 17:33 
0.9910924332216382 0.990234375 1 1 1 1 1 1 1 1:0.003242 2:7 3:-18.882 4:0.0386 5:0.801765 6:0.954 7:0.001191 8:0.0788 9:142.536 10:306533 11:219577 12:5551 13:14647125 14:1 15:0 16:0 17:19 
0.9910924332216382 0.990234375 1 1 1 1 1 1 1 1:9e-06 2:4 3:-31.8 4:0.0351 5:0.761048 6:0.775 7:0.004913 8:0 9:111.004 10:145147 11:89503 12:1399 13:11510097 14:1446 15:0 16:0 17:2 
0.9910924332216382 0.990234375 1 1 1 1 1 1 1 1:1.2e-05 2:10 3:-15024 4:0.0432 5:0.96443 6:0.909 7:0.001093 8:0.04 9:84.99 10:498867 11:-76397259 12:6858 13:19481743 14:1447 15:0 16:0 17:362 
0.9910924332216382 0.990234375 1 1 1 1 1 1 1 1:0.00097 2:10597 3:-26.281 4:0.0422 5:0.778688 6:2 7:0.001093 8:0.0986 9:106.902 10:227288 11:24472 12:206 13:6929149 14:1 15:0 16:0 17:1 
0.9910924332216382 0.990234375 1 1 1 1 1 1 1 1:0.014887 2:0 3:-21.403 4:0.049 5:0.731433 6:0.297 7:0.193101 8:0.639 9:62.102 10:134192 11:9774 12:64 13:-38850740 14:1 15:0 16:0 17:0 
0.9910924332216382 0.990234375 1 1 1 1 1 1 1 1:0 2:7 3:-15.975 4:0.0442 5:0.776152 6:0.667 7:0 8:0.851 9:157.195 10:31560890 11:41530 12:520 13:7527716 14:1 15:0 16:0 17:6 
0.9910924332216382 0.990234375 1 1 1 1 1 1 1 1:0.019249 2:6 3:-7.757 4:0.0399 5:0.751089 6:0 7:0.003375 8:0.394 9:81.912 10:243160 11:10860470 12:231582 13:47292906 14:1 15:0 16:0 17:9164 
0.9910924332216382 0.990234375 1 1 1 1 1 1 1 1:0.315821 2:7 3:-8.039 4:0.0298 5:0 6:2 7:0 8:0.285 9:108.789 10:285133 11:26111453 12:239717 13:6.3227806e+08 14:1 15:0 16:0 17:9748 
0.9910924332216382 0.990234375 1 1 1 1 1 1 1 1:0.504358 2:2 3:-7.335 4:0 5:0 6:0.417 7:0.006539 8:0.522 9:175.02 10:261387 11:251365 12:4369 13:68327595 14:1 15:0 16:0 17:135 
0.99106845710944691 0.990234375 1 1 1 1 1 1 1 1:0.368602 2:2 3:-10.309 4:0.0405 5:3e-06 6:0.00365 7:0.046656 8:0.47 9:121.878 10:360333 11:9947235 12:93121409 13:1.0318631e+08 14:1 15:0 16:0 17:4743 
0.99106845710944691 0.990234375 1 1 1 1 1 1 1 1:0.539353 2:10744 3:-7.23 4:0.0405 5:0 6:2 7:0.00103 8:0.569 9:116.454 10:37190264 11:2388325 12:18013 13:24537445 14:1 15:0 16:0 17:1577 
0.99103197269141674 0.990234375 1 1 1 1 1 1 1 1:0.421875 2:6 3:-7.338 4:0 5:0 6:0.000185 7:0.00091 8:0.364 9:131.464 10:37371866 11:143262 12:2226 13:10960777 14:1 15:0 16:0 17:103 
0.99103197269141674 0.990234375 1 1 1 1 1 1 1 1:0 2:1 3:-3.297 4:0.0661 5:3.2e-05 6:0.081 7:0.019034 8:0.227 9:179.911 10:300387 11:13697099 12:57288 13:9330319 14:1 15:0 16:0 17:4990 
0.99103197269141674 0.990234375 1 1 1 1 1 1 1 1:0.002571 2:1 3:-30.893 4:0.0422 5:0.929714 6:0.855 7:0.001728 8:0.0399 9:69.347 10:285673 11:26531 12:901 13:19326087 14:0 15:0 16:0 17:12 
0.99103197269141674 0.990234375 1 1 1 1 1 1 1 1:0.292755 2:10 3:-5.913 4:0.0334 5:0.000293 6:9e-06 7:0.001521 8:0.196 9:171.207 10:287933 11:1359219 12:7760 13:27053354 14:1 15:0 16:0 17:1068 
0.99091612093070225 0.990234375 1 1 1 1 1 1 1 1:0.090519 2:11001 3:-12.584 4:0.088 5:0.086938 6:0 7:0.01861 8:0.692 9:179.651 10:162707 11:15762625 12:128297 13:27529384 14:1 15:0 16:0 17:4446 
0.99091612093070225 0.990234375 1 1 1 1 1 1 1 1:0 2:2 3:-7.067 4:0.0377 5:0.025672 6:0 7:0.033076 8:0.3 9:261264 10:50063601 11:54952358 12:317325 13:49470793 14:1 15:0 16:0 17:26356724 
0.99091612093070225 0.990234375 1 1 1 1 1 1 1 1:0.131097 2:7 3:-11.523 4:0.0601 5:0.010648 6:0.00174 7:0.949862 8:0.308 9:261519 10:50569681 11:1.0189782e+08 12:868627 13:20148762 14:0 15:0 16:0 17:50512 
0.99091612093070225 0.990234375 1 1 1 1 1 1 1 1:0.489304 2:6 3:-5.263 4:0.0403 5:0 6:0 7:0.353393 8:0.429 9:80.718 10:228707 11:84066889 12:466248 13:62007907 14:1 15:0 16:0 17:26701924 
0.99091612093070225 0.990234375 1 1 1 1 1 1 1 1:0.392223 2:11249 3:-15962 4:0.0436 5:0 6:0 7:0.28489 8:0.2 9:80.195 10:234427 11:2330950 12:11078 13:37901165 14:1 15:0 16:0 17:577 
0.99091612093070225 0.990234375 1 1 1 1 1 1 1 1:0 2:7 3:-9.371 4:0.0363 5:0.005832 6:3.4e-05 7:0.020346 8:0.244 9:112.998 10:213079 11:7521849 12:171197 13:3973958 14:0 15:0 16:0 17:26775769 
0.99091612093070225 0.990234375 1 1 1 1 1 1 1 1:0.074088 2:0 3:-10.658 4:0 5:0.169112 6:0.002 7:0 8:0.286 9:139.842 10:204493 11:36854276 12:30945 13:24305212 14:1 15:0 16:0 17:2029 
0.99091612093070225 0.990234375 1 1 1 1 1 1 1 1:0.232608 2:6 3:-7.21 4:0.0314 5:0.093577 6:0 7:0.000109 8:0.603 9:137.19 10:207413 11:50094985 12:-92722103 13:15618149 14:1 15:0 16:0 17:26824265 
0.99075651137229281 0.990234375 1 1 1 1 1 1 1 1:0 2:1 3:-20.031 4:0.0517 5:0.938314 6:0.926 7:0.001331 8:0 9:83.933 10:229107 11:-1016445 12:13982 13:60149733 14:1560 15:0 16:0 17:38 
0.99072273367779562 0.990234375 1 1 1 1 1 1 1 1:0 2:11436 3:-20.553 4:0.0387 5:0.814781 6:0.485 7:0.000659 8:0.0465 9:78.577 10:440800 11:4354202 12:42568 13:63575826 14:0 15:0 16:0 17:396 
0.99072273367779562 0.990234375 1 1 1 1 1 1 1 1:6.7e-05 2:4 3:-26.194 4:0.0457 5:0 6:0.847 7:0.001125 8:0.0342 9:74.418 10:66553120 11:2857432 12:37513 13:31225994 14:1561 15:0 16:0 17:106 
0.99072273367779562 0.990234375 1 1 1 1 1 1 1 1:0.001 2:0 3:-20.607 4:0.0459 5:0.946966 6:0.934 7:0.001561 8:0.0359 9:64.791 10:185427 11:530236 12:5786 13:-50978488 14:0 15:0 16:0 17:21 
0.99072273367779562 0.990234375 1 1 1 1 1 1 1 1:0.119095 2:5 3:-16289 4:0.0544 5:0.046656 6:0.905 7:0.008242 8:0.0365 9:84.204 10:357400 11:393105 12:5051 13:24971485 14:1562 15:0 16:0 17:379 
0.99049165007188433 0.990234375 1 1 1 1 1 1 1 1:0.000107 2:2 3:-23.78 4:0.04 5:0.672221 6:0.545 7:0.03008 8:0.114 9:270800 10:67155544 11:1755 12:-91080808 13:7065608 14:1563 15:0 16:0 17:0 
0.99049165007188433 0.990234375 1 1 1 1 1 1 1 1:0.063521 2:4 3:-14.865 4:0.0501 5:0.105824 6:0.959 7:0.00051 8:0.069 9:120.942 10:250040 11:2912709 12:30150 13:13021858 14:0 15:0 16:0 17:163 
0.99049165007188433 0.990234375 1 1 1 1 1 1 1 1:0.303464 2:8 3:-5.795 4:0.04 5:0.031855 6:3e-05 7:0 8:0.523 9:168.299 10:269640 11:-82463914 12:573887 13:42766176 14:1 15:0 16:0 17:49460 
0.99049165007188433 0.990234375 1 1 1 1 1 1 1 1:0 2:5 3:-5.845 4:0.0313 5:0.000113 6:0 7:0 8:0.378 9:162.735 10:265653 11:16576310 12:-75343519 13:18215343 14:1 15:0 16:0 17:8802 
0.9902961123457944 0.990234375 1 1 1 1 1 1 1 1:0.118371 2:6 3:-7.036 4:0.0564 5:0.217082 6:0.00863 7:0.000265 8:0.527 9:156.76 10:295760 11:69598282 12:293264 13:22340537 14:1 15:0 16:0 17:18984 
0.99029611234579429 0.990234375 1 1 1 1 1 1 1 1:0.187149 2:1 3:-7.818 4:0.0377 5:0.263375 6:2 7:0 8:0.285 9:77.986 10:237467 11:286491 12:1466 13:1.6976996e+08 14:0 15:0 16:0 17:278 
0.990234375 0.990234375 1 1 1 1 1 1 1 1:0.188133 2:1 3:-17193 4:0.0324 5:0.001225 6:2 7:0.000623 8:0.0765 9:156.054 10:305427 11:29971575 12:194663 13:82424075 14:1 15:0 16:0 17:5716 
0.990234375 0.990234375 1 1 1 1 1 1 1 1:0.015253 2:10 3:-10.553 4:0.0306 5:0 6:0 7:0.001191 8:0.119 9:137.92 10:96276490 11:28007350 12:177518 13:18082097 14:1 15:0 16:0 17:5123 
0.990234375 0.990234375 1 1 1 1 1 1 1 1:0.15313 2:8 3:-17226 4:0.0291 5:0 6:0 7:0.008615 8:0.127 9:145.937 10:250627 11:14479571 12:84296 13:44001143 14:1 15:0 16:0 17:2444 
0.990234375 0.990234375 1 1 1 1 1 1 1 1:3.8e-05 2:2 3:-17292 4:0.0606 5:0.796598 6:0.83 7:0.000868 8:0 9:67.359 10:207267 11:578772 12:7643 13:78592874 14:1 15:0 16:0 17:376 
0.990234375 0.990234375 1 1 1 1 1 1 1 1:3.6e-05 2:0 3:-29.429 4:0.0389 5:0.890277 6:0.868 7:0.00081 8:0.0377 9:91.64 10:227013 11:112 12:1 13:9592413 14:1 15:0 16:0 17:0 
0.990234375 0.990234375 1 1 1 1 1 1 1 1:0 2:10 3:-26.683 4:0.0437 5:0.967362 6:0.374 7:0 8:0.0598 9:96.923 10:300000 11:3472 12:44 13:4810941 14:1 15:0 16:0 17:0 
0.990234375 0.990234375 1 1 1 1 1 1 1 1:2e-05 2:5 3:-31.271 4:0.0431 5:0.979147 6:0.916 7:0.000938 8:0.125 9:68.211 10:268000 11:232206 12:3011 13:-64069829 14:1663 15:0 16:0 17:144 
0.990234375 0.990234375 1 1 1 1 1 1 1 1:0 2:9 3:-27.657 4:0 5:0.985075 6:0.959 7:0.001521 8:0.0475 9:290105 10:204920 11:6925 12:-46593608 13:284443 14:1 15:0 16:0 17:28537511 
0.990234375 0.990234375 1 1 1 1 1 1 1 1:0.002048 2:2 3:-22.123 4:0.0301 5:0.881974 6:0.000684 7:0.002353 8:0.507 9:290227 10:159614 11:31143974 12:518057 13:96415 14:1 15:0 16:0 17:28548477 
0.990234375 0.990234375 1 1 1 1 1 1 1 1:0.00103 2:2 3:-15.961 4:0.0392 5:0.967362 6:0.0025 7:0.007078 8:0.323 9:290354 10:223547 11:968 12:2 13:254150 14:1 15:0 16:0 17:0 
0.990234375 0.990234375 1 1 1 1 1 1 1 1:0 2:9 3:-29.254 4:0.046 5:0.973242 6:0 7:0.003652 8:0.354 9:84.099 10:104947 11:131403 12:1164 13:38212 14:0 15:0 16:0 17:1 
0.990234375 0.990234375 1 1 1 1 1 1 1 1:0.106496 2:12318 3:-13.864 4:0.0518 5:0 6:0.58 7:0.007415 8:0.133 9:98.854 10:1.0519534e+08 11:1016389 12:21749 13:57417003 14:1 15:0 16:0 17:1512 
0.990234375 0.990234375 1 1 1 1 1 1 1 1:0.007415 2:2 3:-17.202 4:0.0461 5:0.884736 6:0.914 7:0.000499 8:0.0675 9:291446 10:134133 11:8406437 12:63069 13:58851218 14:1679 15:0 16:0 17:2643 
0.990234375 0.990234375 1 1 1 1 1 1 1 1:0.283593 2:0 3:-13.567 4:0.0824 5:0.487443 6:2 7:0.001443 8:0.102 9:120.338 10:162133 11:276577 12:5125 13:32694477 14:1680 15:0 16:0 17:111 
0.990234375 0.990234375 1 1 1 1 1 1 1 1:0.0098 2:2 3:-10.946 4:0.037 5:0.584277 6:0.676 7:0 8:0.0451 9:90.408 10:223120 11:33496456 12:104190 13:16778947 14:1681 15:0 16:0 17:7374 
0.990234375 0.990234375 1 1 1 1 1 1 1 1:0.000799 2:7 3:-23.182 4:0.0443 5:0.96443 6:0.871 7:0.000392 8:0 9:76.735 10:169240 11:8406437 12:63069 13:10584928 14:1 15:0 16:0 17:2643 
0.990234375 0.990234375 1 1 1 1 1 1 1 1:0.003242 2:12349 3:-16.815 4:0.0367 5:0.967362 6:0.889 7:0.001772 8:0.188 9:127.323 10:178667 11:28573747 12:144491 13:-3858795 14:1 15:0 16:0 17:6015 
0.990234375 0.990234375 1 1 1 1 1 1 1 1:0.716917 2:2 3:-4.987 4:0.139 5:0.245314 6:0.843 7:0 8:0.0679 9:107.613 10:162387 11:2204442 12:24465 13:27368908 14:1 15:0 16:0 17:28631210 
0.990234375 0.990234375 1 1 1 1 1 1 1 1:0.033076 2:8 3:-8.783 4:0.0293 5:0.259694 6:0 7:0.849278 8:0 9:107.134 10:318027 11:1.3754516e+08 12:742310 13:41353830 14:1 15:0 16:0 17:22960 
0.990234375 0.990234375 1 1 1 1 1 1 1 1:0.040708 2:0 3:-12.577 4:0 5:0.365526 6:2 7:0.002353 8:0.232 9:171.143 10:277160 11:2.253857e+08 12:1125139 13:1.0939181e+08 14:1 15:0 16:0 17:56058 
0.990234375 0.990234375 1 1 1 1 1 1 1 1:0.753571 2:4 3:-7.748 4:0.0758 5:0 6:0.000121 7:0 8:0 9:140.452 10:166360 11:22843125 12:264142 13:3.5631292e+08 14:1 15:0 16:0 17:7278 
0.990234375 0.990234375 1 1 1 1 1 1 1 1:0.649462 2:10 3:-17860 4:0 5:0 6:2 7:0.000888 8:0.211 9:119.41 10:311133 11:6271051 12:125472 13:59012236 14:1 15:0 16:0 17:4513 
0.990234375 0.990234375 1 1 1 1 1 1 1 1:0.935441 2:8 3:-2.123 4:0.122 5:0 6:0 7:0.000879 8:0.28 9:170.286 10:209907 11:42536284 12:-34073834 13:67270731 14:1 15:0 16:0 17:11137 
0.990234375 0.990234375 1 1 1 1 1 1 1 1:0.835897 2:2 3:-8.052 4:0.0442 5:1e-06 6:0.000437 7:0.118371 8:0.251 9:134.558 10:-99573527 11:5829454 12:-33991203 13:-73715958 14:1 15:0 16:0 17:1637 
0.990234375 0.990234375 1 1 1 1 1 1 1 1:0.697864 2:3 3:-4.629 4:0.0877 5:0.004173 6:2 7:0.001093 8:0.183 9:175.921 10:-99358969 11:1481724 12:30480 13:23646573 14:1711 15:0 16:0 17:1638 
0.990234375 0.990234375 1 1 1 1 1 1 1 1:0.351896 2:1 3:-7.445 4:0 5:0.096703 6:0.0147 7:0 8:0 9:125.694 10:327547 11:1974720 12:21448 13:14579767 14:1 15:0 16:0 17:616 
0.990234375 0.990234375 1 1 1 1 1 1 1 1:0 2:4 3:-3.299 4:0.0696 5:0 6:0.000285 7:0.000769 8:0.381 9:101.766 10:302267 11:31699905 12:199191 13:42363265 14:1 15:0 16:0 17:4541 
0.990234375 0.990234375 1 1 1 1 1 1 1 1:0.025154 2:2 3:-9.502 4:0.0258 5:0.43552 6:8e-06 7:0.001125 8:0.162 9:302296 10:166467 11:6824127 12:48999 13:49108020 14:1 15:0 16:0 17:2318 
0.990234375 0.990234375 1 1 1 1 1 1 1 1:0.6098 2:5 3:-5.217 4:0.0526 5:0.091125 6:4e-05 7:0.013144 8:0.545 9:69.367 10:226533 11:29494450 12:206340 13:43148614 14:1744 15:0 16:0 17:9158 
0.990234375 0.990234375 1 1 1 1 1 1 1 1:0.022188 2:4 3:-11.207 4:0.0327 5:0.006751 6:0.000298 7:0.00753 8:0.196 9:125.471 10:353533 11:208173 12:3804 13:-38970805 14:1 15:0 16:0 17:38 
0.990234375 0.990234375 1 1 1 1 1 1 1 1:0.000514 2:8 3:-19.643 4:0.0458 5:0.833238 6:0.431 7:0.001521 8:0.0608 9:75.314 10:-83849994 11:11999 12:226 13:14743348 14:0 15:0 16:0 17:2 
0.990234375 0.990234375 1 1 1 1 1 1 1 1:0.029218 2:7 3:-14.874 4:0.0345 5:0.616295 6:0.854 7:0.000405 8:0.0361 9:107.666 10:394973 11:416620 12:4535 13:35946551 14:1761 15:0 16:0 17:29446892 
0.990234375 0.990234375 1 1 1 1 1 1 1 1:0.019249 2:7 3:-14.772 4:0.0321 5:0.812166 6:0.904 7:0 8:0 9:93.405 10:-83444979 11:17053 12:-22793115 13:28877799 14:1 15:0 16:0 17:29447137 
0.990234375 0.990234375 1 1 1 1 1 1 1 1:0.000506 2:2 3:-24.843 4:0.0523 5:0.616295 6:9.4e-05 7:0.003112 8:0.37 9:64.079 10:220893 11:10527 12:175 13:4252811 14:1 15:0 16:0 17:3 
0.990234375 0.990234375 1 1 1 1 1 1 1 1:4e-06 2:6 3:-18444 4:0.0513 5:0.935441 6:0.184 7:0.005832 8:0.0971 9:78.661 10:253453 11:160040 12:1703 13:12424998 14:1762 15:0 16:0 17:81 
0.990234375 0.990234375 1 1 1 1 1 1 1 1:0.0023 2:2 3:-18557 4:0.0353 5:0 6:0.942 7:0 8:0.0988 9:85.314 10:301587 11:145548 12:-20882848 13:-32965869 14:1 15:0 16:0 17:21 
0.990234375 0.990234375 1 1 1 1 1 1 1 1:0.002744 2:4 3:-20.747 4:0.0489 5:0.743677 6:0.759 7:0.001953 8:0.285 9:307339 10:425000 11:8420613 12:-20769426 13:12226656 14:1 15:0 16:0 17:1245 
0.990234375 0.990234375 1 1 1 1 1 1 1 1:0 2:2 3:-27.871 4:0.0469 5:0.952764 6:2 7:0.000286 8:0 9:83.717 10:170000 11:293 12:23 13:2865633 14:0 15:0 16:0 17:29507646 
0.990234375 0.990234375 1 1 1 1 1 1 1 1:0.000187 2:13032 3:-29.864 4:0.0494 5:0 6:0.871 7:0 8:0.0386 9:174.381 10:144267 11:-28378216 12:49 13:3429614 14:1775 15:0 16:0 17:1 
0.990234375 0.990234375 1 1 1 1 1 1 1 1:0.663055 2:5 3:-10.215 4:0.0394 5:0 6:2 7:0 8:0.46 9:178.823 10:129200 11:675353 12:5415 13:8673345 14:1 15:0 16:0 17:282 
0.990234375 0.990234375 1 1 1 1 1 1 1 1:0.741218 2:13112 3:-18731 4:0.0829 5:0 6:0.000744 7:0 8:0.172 9:309547 10:270454 11:678303 12:-20569843 13:2376164 14:0 15:0 16:0 17:653 
0.990234375 0.990234375 1 1 1 1 1 1 1 1:0 2:10 3:-4.199 4:0.114 5:0 6:0.549 7:0.016387 8:0.279 9:169.967 10:-75429559 11:17344925 12:9104 13:78546961 14:0 15:0 16:0 17:29522926 
0.990234375 0.990234375 1 1 1 1 1 1 1 1:0 2:13194 3:-7.818 4:0.0377 5:0.263375 6:0 7:0.008 8:0.285 9:311507 10:237467 11:286491 12:1466 13:1.6976996e+08 14:0 15:0 16:0 17:278 
0.990234375 0.990234375 1 1 1 1 1 1 1 1:0.315821 2:4 3:-6.388 4:0.0426 5:0.057512 6:0 7:0.389017 8:0.269 9:134.032 10:350867 11:46425 12:296 13:48806476 14:0 15:0 16:0 17:23 
0.990234375 0.990234375 1 1 1 1 1 1 1 1:0.233745 2:3 3:-9.401 4:0.0381 5:0.110592 6:1.3e-05 7:0.000157 8:0.408 9:77.835 10:253360 11:6933 12:213 13:6594454 14:0 15:0 16:0 17:29664343 
0.990234375 0.990234375 1 1 1 1 1 1 1 1:0.016003 2:0 3:-18918 4:0.0301 5:0 6:0 7:0.00103 8:0.126 9:177.679 10:264333 11:45922614 12:2590271 13:3.4855142e+08 14:1 15:0 16:0 17:70430 
0.990234375 0.990234375 1 1 1 1 1 1 1 1:0.00887 2:13271 3:-14.718 4:0.0306 5:0.2823 6:2 7:0.000668 8:0 9:313210 10:316040 11:5294316 12:32299 13:20504751 14:1 15:0 16:0 17:1392 
0.990234375 0.990234375 1 1 1 1 1 1 1 1:0.709732 2:6 3:-3.011 4:0.351 5:0.001405 6:0 7:0.009528 8:0.849 9:172.639 10:183688 11:1.058962e+08 12:110097 13:7994814 14:0 15:0 16:0 17:3622 
0.990234375 0.990234375 1 1 1 1 1 1 1 1:0.665339 2:13585 3:-5.716 4:0.123 5:0.022426 6:0 7:0 8:0.507 9:104.985 10:321711 11:5010411 12:23585 13:3509543 14:0 15:0 16:0 17:210 
0.990234375 0.990234375 1 1 1 1 1 1 1 1:0.603351 2:13597 3:-7.011 4:0.0625 5:0.15313 6:6e-06 7:0.11693 8:0.671 9:86.044 10:-55864866 11:739675 12:1667 13:503699 14:0 15:0 16:0 17:40 
0.990234375 0.990234375 1 1 1 1 1 1 1 1:0.014706 2:0 3:-11.813 4:0.0314 5:0.156591 6:0 7:0 8:0.242 9:108.145 10:271000 11:171819 12:1556 13:16723935 14:1852 15:0 16:0 17:170 
0.990234375 0.990234375 1 1 1 1 1 1 1 1:0.02364 2:13671 3:-19522 4:0.0303 5:0.686129 6:0.00607 7:0.006435 8:0.189 9:130.135 10:227133 11:5168397 12:-1336021 13:38536922 14:1 15:0 16:0 17:30142317 
0.990234375 0.990234375 1 1 1 1 1 1 1 1:0.126506 2:7 3:-6.062 4:0.0564 5:0.081183 6:7.2e-05 7:0 8:0.206 9:119.871 10:190680 11:-19926089 12:4413727 13:32684801 14:1 15:0 16:0 17:30429626 
0.990234375 0.990234375 1 1 1 1 1 1 1 1:0 2:7 3:-35.546 4:0.0533 5:0.988048 6:0.912 7:0.000397 8:0.386 9:69.813 10:93387 11:223774 12:1685 13:12789222 14:1 15:0 16:0 17:44 
0.990234375 0.990234375 1 1 1 1 1 1 1 1:1e-06 2:10 3:-35.138 4:0.0356 5:0.979147 6:0.901 7:0.000849 8:0.0526 9:77.518 10:81893 11:130742 12:1079 13:3805433 14:1 15:0 16:0 17:30893658 
0.990234375 0.990234375 1 1 1 1 1 1 1 1:0 2:7 3:-41.932 4:0.0515 5:0.988048 6:0.914 7:0.000244 8:0.324 9:127.892 10:113240 11:223774 12:1685 13:9719644 14:1 15:0 16:0 17:44 
0.990234375 0.990234375 1 1 1 1 1 1 1 1:8.9e-05 2:9 3:-19989 4:0.0408 5:0.944076 6:0.953 7:0.000446 8:0.0471 9:69.777 10:111093 11:7605 12:172 13:3002621 14:1 15:0 16:0 17:7 
0.990234375 0.990234375 1 1 1 1 1 1 1 1:0 2:7 3:-38.339 4:0 5:0.988048 6:0.95 7:0.001093 8:0.237 9:67.454 10:100267 11:223774 12:1685 13:2110799 14:1 15:0 16:0 17:44 
0.990234375 0.990234375 1 1 1 1 1 1 1 1:0 2:3 3:-35.607 4:0.0386 5:0 6:0.969 7:0.001953 8:0.0541 9:135.483 10:122987 11:16119 12:145 13:2660875 14:1 15:0 16:0 17:11 
0.990234375 0.990234375 1 1 1 1 1 1 1 1:0.000734 2:1 3:-26.307 4:0.0428 5:0.331374 6:0.85 7:0.000413 8:0 9:71.062 10:463707 11:1484681 12:18857114 13:56268400 14:0 15:0 16:0 17:521 
0.990234375 0.990234375 1 1 1 1 1 1 1 1:0.000218 2:9 3:-25.767 4:0.0464 5:0.067917 6:0.922 7:0.001816 8:0.0362 9:330566 10:247333 11:5174960 12:31415 13:53587823 14:1 15:0 16:0 17:1501 
0.990234375 0.990234375 1 1 1 1 1 1 1 1:6.1e-05 2:5 3:-24.569 4:0.0395 5:0.636056 6:0.942 7:0.002248 8:0.0387 9:112.426 10:172520 11:-1.0509466e+08 12:1013 13:-46156456 14:1 15:0 16:0 17:28 
0.990234375 0.990234375 1 1 1 1 1 1 1 1:0.001093 2:1 3:-21.472 4:0 5:0 6:0.00129 7:0.001907 8:0.04 9:98.531 10:310733 11:103644 12:1160 13:37846515 14:1 15:0 16:0 17:30897010 
0.990234375 0.990234375 1 1 1 1 1 1 1 1:4.6e-05 2:14031 3:-28.056 4:0 5:0.105824 6:0.202 7:0.000497 8:0.0391 9:127.743 10:217400 11:-95136103 12:5766 13:11204687 14:1904 15:0 16:0 17:14 
0.990234375 0.990234375 1 1 1 1 1 1 1 1:1.1e-05 2:7 3:-27.684 4:0.0367 5:0.825294 6:0.848 7:0 8:0.0495 9:72.844 10:340400 11:3115735 12:28866 13:41883037 14:1 15:0 16:0 17:1194 
0.990234375 0.990234375 1 1 1 1 1 1 1 1:0.000614 2:14043 3:-22.069 4:0.0415 5:0.50817 6:0.446 7:0.000833 8:0.0392 9:331166 10:385720 11:124822 12:2891 13:29936883 14:1 15:0 16:0 17:30900539 
0.990234375 0.990234375 1 1 1 1 1 1 1 1:0.000151 2:0 3:-20087 4:0.0444 5:0.731433 6:2 7:0 8:0.0694 9:120.286 10:129600 11:410 12:4 13:5683925 14:1 15:0 16:0 17:0 
0.990234375 0.990234375 1 1 1 1 1 1 1 1:0.006859 2:9 3:-24.078 4:0.0434 5:0.032768 6:0.246 7:0.0004 8:0.0386 9:103.604 10:289960 11:903234 12:12179 13:-98299684 14:1907 15:0 16:0 17:41 
0.990234375 0.990234375 1 1 1 1 1 1 1 1:0.180362 2:0 3:-9.908 4:0.0759 5:0.000551 6:0 7:0.006128 8:0.382 9:74.874 10:-34555203 11:76238633 12:21682423 13:24425226 14:0 15:0 16:0 17:14360 
0.990234375 0.990234375 1 1 1 1 1 1 1 1:0 2:14086 3:-9 4:0.0351 5:0.178454 6:0 7:0.023394 8:0.366 9:203.722 10:-34280683 11:76238633 12:22179990 13:11634293 14:1 15:0 16:0 17:31040576 
0.990234375 0.990234375 1 1 1 1 1 1 1 1:0.932575 2:4 3:-5.165 4:0.0918 5:0 6:3e-06 7:0.799179 8:0.514 9:132.053 10:409611 11:76238633 12:663857 13:7568829 14:1 15:0 16:0 17:14360 
0.990234375 0.990234375 1 1 1 1 1 1 1 1:0.052314 2:9 3:-11.923 4:0.0408 5:0.202262 6:0 7:0.0098 8:0.867 9:182.719 10:129400 11:637365 12:6754 13:40581183 14:1 15:0 16:0 17:31138546 
0.990234375 0.990234375 1 1 1 1 1 1 1 1:0 2:9 3:-31.034 4:0.0442 5:0.958585 6:0.86 7:0.000522 8:0.0573 9:128.143 10:-29804847 11:14529764 12:25070868 13:1.0453026e+08 14:1923 15:0 16:0 17:5341 
0.990234375 0.990234375 1 1 1 1 1 1 1 1:0.000282 2:14200 3:-20286 4:0 5:0.976191 6:0.969 7:0.000342 8:0.0384 9:65.023 10:150147 11:6589395 12:102224 13:17079428 14:0 15:0 16:0 17:31159378 
0.990234375 0.990234375 1 1 1 1 1 1 1 1:0 2:7 3:-20292 4:0.0455 5:0.982108 6:0.89 7:0.000395 8:0.0391 9:118.247 10:184707 11:-5061761 12:6576 13:36586830 14:1 15:0 16:0 17:31164226 
0.990234375 0.990234375 1 1 1 1 1 1 1 1:0.003308 2:7 3:-18.173 4:0.0402 5:0.958585 6:0.94 7:0.000781 8:0.117 9:123.201 10:-29079749 11:14529764 12:221848 13:19194495 14:1 15:0 16:0 17:31168228 
0.990234375 0.990234375 1 1 1 1 1 1 1 1:3.6e-05 2:7 3:-28.228 4:0.0451 5:0.91833 6:0.926 7:0.000935 8:0.0366 9:84.819 10:208040 11:6589395 12:25530477 13:22475498 14:1 15:0 16:0 17:3823 
0.990234375 0.990234375 1 1 1 1 1 1 1 1:0.000205 2:7 3:-20313 4:0.0446 5:0.949862 6:0.913 7:0 8:0.0393 9:94.137 10:214987 11:6589395 12:102224 13:25065885 14:1 15:0 16:0 17:31173327 
0.990234375 0.990234375 1 1 1 1 1 1 1 1:0.002248 2:14228 3:-23.899 4:0 5:0.724151 6:0.925 7:0 8:0.0656 9:106.872 10:442693 11:70803461 12:842527 13:21693740 14:0 15:0 16:0 17:28224 
0.990234375 0.990234375 1 1 1 1 1 1 1 1:8e-06 2:7 3:-31.634 4:0 5:0.976191 6:2 7:0.000364 8:0.0431 9:129.916 10:165307 11:21716 12:26139631 13:12416118 14:1 15:0 16:0 17:31203325 
0.990234375 0.990234375 1 1 1 1 1 1 1 1:3e-06 2:9 3:-35.651 4:0.0443 5:0.935441 6:0.193 7:0.00027 8:0.0542 9:59.176 10:-27630896 11:6589395 12:102224 13:7637954 14:1 15:0 16:0 17:3823 
0.990234375 0.990234375 1 1 1 1 1 1 1 1:0.047832 2:10 3:-7.257 4:0.0423 5:0.712122 6:8e-06 7:0.00081 8:0.535 9:200.163 10:-14967670 11:38853686 12:33804591 13:16863840 14:1 15:0 16:0 17:11936 
0.990234375 0.990234375 1 1 1 1 1 1 1 1:0.006539 2:0 3:-13.497 4:0.0323 5:0.835897 6:0.139 7:0.004173 8:0.217 9:70.334 10:319733 11:451073 12:5213 13:67415920 14:1 15:0 16:0 17:172 
0.990234375 0.990234375 1 1 1 1 1 1 1 1:0.003512 2:5 3:-14.864 4:0.0401 5:0.788889 6:0.0771 7:0.002 8:0.145 9:345683 10:-9813359 11:144471 12:2367 13:8085757 14:1 15:0 16:0 17:31657744 
0.990234375 0.990234375 1 1 1 1 1 1 1 1:0.014172 2:4 3:-18.442 4:0.0342 5:0.334255 6:2 7:0 8:0.285 9:175.384 10:824133 11:89378436 12:94171 13:32102768 14:1 15:0 16:0 17:4974 
0.990234375 0.990234375 1 1 1 1 1 1 1 1:0.20123 2:5 3:-13.468 4:0.0581 5:0.114084 6:2e-06 7:0.042144 8:0.519 9:121.573 10:462867 11:1.0347431e+08 12:3007 13:16310369 14:1 15:0 16:0 17:208 
0.990234375 0.990234375 1 1 1 1 1 1 1 1:0 2:10 3:-21.638 4:0.0393 5:0 6:2 7:0.000537 8:0.133 9:346157 10:-8887284 11:239716 12:4523 13:52625617 14:1987 15:0 16:0 17:192 
0.990234375 0.990234375 1 1 1 1 1 1 1 1:0 2:9 3:-5.638 4:0.0435 5:0 6:0 7:0.000836 8:0.62 9:101.603 10:-8463135 11:32235698 12:178889 13:1.3190884e+08 14:1 15:0 16:0 17:31680382 
0.990234375 0.990234375 1 1 1 1 1 1 1 1:0.955672 2:8 3:-2.806 4:0.158 5:0 6:0 7:0.001521 8:0 9:75.013 10:180586 11:291269 12:3415 13:1407971 14:1 15:0 16:0 17:180 
0.990234375 0.990234375 1 1 1 1 1 1 1 1:0.011852 2:3 3:-19.981 4:0.0367 5:0 6:0.847 7:0 8:0 9:127.917 10:108800 11:81155 12:1442 13:4975756 14:1 15:0 16:0 17:63 
0.990234375 0.990234375 1 1 1 1 1 1 1 1:8.3e-05 2:6 3:-22.627 4:0 5:0.967362 6:2 7:0.009129 8:0.0625 9:100.827 10:192867 11:-41149779 12:137615 13:47190982 14:1 15:0 16:0 17:8275 
0.990234375 0.990234375 1 1 1 1 1 1 1 1:0.006029 2:1 3:-10.944 4:0.0298 5:0 6:0.00267 7:0 8:0.092 9:83.391 10:159640 11:36594933 12:144874 13:1.6238397e+08 14:1 15:0 16:0 17:32098363 
0.990234375 0.990234375 1 1 1 1 1 1 1 1:0.079507 2:2 3:-11.333 4:0.0629 5:0.023888 6:0.000994 7:0.000964 8:0.305 9:145.224 10:312173 11:25789509 12:54382097 13:1.4691483e+08 14:1 15:0 16:0 17:32102907 
0.990234375 0.990234375 1 1 1 1 1 1 1 1:0.315821 2:4 3:-6.388 4:0.0426 5:0.057512 6:0 7:0.389017 8:0.269 9:134.032 10:350867 11:29891350 12:449880 13:48806476 14:2055 15:0 16:0 17:16481 
0.990234375 0.990234375 1 1 1 1 1 1 1 1:0 2:4 3:-21839 4:0 5:0.010078 6:0.000173 7:0.003177 8:0.258 9:132.984 10:196600 11:3533612 12:12728 13:1278668 14:1 15:0 16:0 17:692 
0.990234375 0.990234375 1 1 1 1 1 1 1 1:0.061163 2:10 3:-14.002 4:0.0295 5:0.015253 6:0.000282 7:0.002048 8:0.181 9:96.433 10:269227 11:10193671 12:33510 13:4538843 14:2061 15:0 16:0 17:1626 
0.990234375 0.990234375 1 1 1 1 1 1 1 1:0.119095 2:9 3:-14.892 4:0 5:8.7e-05 6:8.1e-05 7:0.022665 8:0.722 9:173.975 10:209000 11:50438 12:60545212 13:6766138 14:1 15:0 16:0 17:35 
0.990234375 0.990234375 1 1 1 1 1 1 1 1:0.187149 2:1 3:-7.818 4:0.0377 5:0.263375 6:0 7:0.008 8:0.285 9:77.986 10:237467 11:-11737859 12:62396957 13:1.6976996e+08 14:0 15:0 16:0 17:32345397 
0.990234375 0.990234375 1 1 1 1 1 1 1 1:0.549353 2:0 3:-5.219 4:0.0348 5:0 6:0 7:0 8:0.265 9:93.49 10:326213 11:4463705 12:15306 13:49779714 14:1 15:0 16:0 17:412 
0.990234375 0.990234375 1 1 1 1 1 1 1 1:0.027271 2:2 3:-22778 4:0.0384 5:0.893056 6:2 7:0.002197 8:0.0798 9:84.025 10:177333 11:191813 12:3880 13:75381240 14:2145 15:0 16:0 17:2 
0.990234375 0.990234375 1 1 1 1 1 1 1 1:0.067917 2:4 3:-16.632 4:0.0693 5:0.519718 6:0.148 7:0.004492 8:0.164 9:150.454 10:237413 11:72098328 12:3870 13:50101776 14:1 15:0 16:0 17:123 
0.990234375 0.990234375 1 1 1 1 1 1 1 1:0.000982 2:15913 3:-24.845 4:0 5:0.483737 6:0.903 7:0.00103 8:0.0359 9:68.778 10:284853 11:51325 12:1015 13:8856597 14:2147 15:0 16:0 17:92 
0.990234375 0.990234375 1 1 1 1 1 1 1 1:0.016003 2:15919 3:-15.76 4:0.0394 5:0.941192 6:0.389 7:0.244141 8:0.0887 9:71.598 10:169880 11:545182 12:7073 13:14854476 14:0 15:0 16:0 17:28 
0.990234375 0.990234375 1 1 1 1 1 1 1 1:0.005359 2:15924 3:-18.829 4:0.0375 5:0.070445 6:0.856 7:0.001602 8:0 9:81.924 10:106453 11:4406074 12:41513 13:8813838 14:1 15:0 16:0 17:2938 
0.990234375 0.990234375 1 1 1 1 1 1 1 1:0.001643 2:2 3:-19.162 4:0.032 5:0.444195 6:0.655 7:0.000828 8:0.152 9:73.056 10:195200 11:18741 12:209 13:1.0147801e+08 14:2148 15:0 16:0 17:4 
0.990234375 0.990234375 1 1 1 1 1 1 1 1:0.000634 2:8 3:-22.854 4:0 5:0.915499 6:2 7:0.001685 8:0.0551 9:135.391 10:580253 11:888 12:24 13:3096863 14:2149 15:0 16:0 17:0 
0.990234375 0.990234375 1 1 1 1 1 1 1 1:0 2:2 3:-13.189 4:0.046 5:0.915499 6:0.0306 7:0.004173 8:0.152 9:89.202 10:402040 11:322712 12:3158 13:2369120 14:1 15:0 16:0 17:32902922 
0.990234375 0.990234375 1 1 1 1 1 1 1 1:0.001482 2:10 3:-16.828 4:0.041 5:0.91833 6:2 7:0.002515 8:0.0363 9:66.182 10:315791 11:86334841 12:1045 13:13279289 14:1 15:0 16:0 17:3 
0.990234375 0.990234375 1 1 1 1 1 1 1 1:0.513922 2:10 3:-5.736 4:0.115 5:0.004574 6:0 7:0 8:0.766 9:142.676 10:304225 11:968998 12:34772 13:-32821583 14:0 15:0 16:0 17:1557 
0.990234375 0.990234375 1 1 1 1 1 1 1 1:0.109215 2:0 3:-8.323 4:0.0334 5:0.18422 6:3e-06 7:0.007301 8:0.271 9:102.967 10:266920 11:77653564 12:394760 13:1.1380766e+08 14:1 15:0 16:0 17:9627 
0.990234375 0.990234375 1 1 1 1 1 1 1 1:0.799179 2:10 3:-6.886 4:0 5:0.033386 6:0.00197 7:0.952764 8:0.513 9:74.272 10:95747 11:12702074 12:56825 13:2057681 14:0 15:0 16:0 17:1219 
0.990234375 0.990234375 1 1 1 1 1 1 1 1:0 2:16086 3:-29.255 4:0.0456 5:0.946966 6:0.96 7:0.010794 8:0.0666 9:378386 10:172444 11:621891 12:7481 13:41878507 14:2168 15:0 16:0 17:33042132 
0.990234375 0.990234375 1 1 1 1 1 1 1 1:8e-05 2:16090 3:-28.726 4:0.0438 5:0.926859 6:0.402 7:0 8:0.11 9:118.456 10:165572 11:250753 12:82790403 13:18988638 14:1 15:0 16:0 17:11 
0.990234375 0.990234375 1 1 1 1 1 1 1 1:0.001225 2:9 3:-20.273 4:0.0471 5:0.640504 6:0.926 7:0.001225 8:0.146 9:129.368 10:50293004 11:62864 12:871 13:9495529 14:1 15:0 16:0 17:33042762 
0.990234375 0.990234375 1 1 1 1 1 1 1 1:0.00067 2:9 3:-24.711 4:0.0403 5:0.967362 6:0.873 7:0.00126 8:0.126 9:135.774 10:108969 11:84145 12:1416 13:13622628 14:2170 15:0 16:0 17:5 
0.990234375 0.990234375 1 1 1 1 1 1 1 1:0 2:9 3:-19.194 4:0 5:0.796598 6:0.961 7:0 8:0.0775 9:155.788 10:157222 11:253187 12:3656 13:21672580 14:1 15:0 16:0 17:7 
0.990234375 0.990234375 1 1 1 1 1 1 1 1:0.000623 2:0 3:-23142 4:0.0343 5:0.979147 6:0.737 7:0.001521 8:0 9:58.322 10:111836 11:78017 12:832 13:7434593 14:2172 15:0 16:0 17:33043608 
0.990234375 0.990234375 1 1 1 1 1 1 1 1:0 2:6 3:-23154 4:0.048 5:0.825294 6:2 7:0.001907 8:0.0501 9:139.128 10:147093 11:193503 12:82849238 13:14610120 14:1 15:0 16:0 17:16 
0.990234375 0.990234375 1 1 1 1 1 1 1 1:0.121287 2:8 3:-8.276 4:0 5:0.020346 6:0 7:0.004492 8:0 9:203.983 10:99583 11:488382 12:15204 13:9987028 14:0 15:0 16:0 17:496 
0.990234375 0.990234375 1 1 1 1 1 1 1 1:0 2:1 3:-4.989 4:0 5:0.066923 6:3e-06 7:0.060236 8:0.491 9:73.713 10:434595 11:-98902770 12:204361 13:5560596 14:1 15:0 16:0 17:9800 
0.990234375 0.990234375 1 1 1 1 1 1 1 1:0.738763 2:6 3:-5.686 4:0.164 5:0.129554 6:5.3e-05 7:0.167284 8:0 9:173.041 10:97467 11:1354631 12:4779 13:25550632 14:1 15:0 16:0 17:33245680 
0.990234375 0.990234375 1 1 1 1 1 1 1 1:0.801765 2:10 3:-3.873 4:0.295 5:0.060698 6:2e-06 7:0.008742 8:0.393 9:176.714 10:92053 11:186666 12:89329757 13:7242687 14:1 15:0 16:0 17:39 
0.990234375 0.990234375 1 1 1 1 1 1 1 1:0.148877 2:2 3:-13.688 4:0.036 5:0.030371 6:2 7:0.000165 8:0.66 9:158.997 10:194040 11:6058216 12:89897682 13:33644162 14:2201 15:0 16:0 17:726 
0.990234375 0.990234375 1 1 1 1 1 1 1 1:0.059319 2:8 3:-18.582 4:0.113 5:0.003375 6:0 7:0.313047 8:0.498 9:85.211 10:217867 11:14474486 12:81874 13:22570346 14:1 15:0 16:0 17:2791 
0.990234375 0.990234375 1 1 1 1 1 1 1 1:0.028653 2:0 3:-9.572 4:0.0323 5:0.78123 6:5.6e-05 7:0.001602 8:0.113 9:135.842 10:132307 11:1645096 12:17058 13:4261454 14:1 15:0 16:0 17:715 
0.990234375 0.990234375 1 1 1 1 1 1 1 1:0.002197 2:5 3:-23577 4:0.031 5:0.614125 6:1e-06 7:0.000576 8:0.162 9:87.418 10:222120 11:80757283 12:91844577 13:2.3363863e+08 14:0 15:0 16:0 17:0 
0.990234375 0.990234375 1 1 1 1 1 1 1 1:6.9e-05 2:0 3:-17.951 4:0.0498 5:0.451218 6:0.000259 7:0.000608 8:0.249 9:75.497 10:63213 11:5060715 12:33970 13:13408900 14:0 15:0 16:0 17:0 
0.990234375 0.990234375 1 1 1 1 1 1 1 1:0.006859 2:4 3:-13.548 4:0 5:0.731433 6:0.00119 7:0 8:0 9:108.769 10:126093 11:5060715 12:33970 13:17421408 14:2214 15:0 16:0 17:0 
0.990234375 0.990234375 1 1 1 1 1 1 1 1:0.096072 2:2 3:-7.012 4:0.0421 5:0 6:0 7:0.049431 8:0 9:125.36 10:187837 11:13152382 12:65701 13:2331173 14:1 15:0 16:0 17:33458063 
0.990234375 0.990234375 1 1 1 1 1 1 1 1:0.224756 2:5 3:-7.798 4:0.034 5:0.265848 6:0 7:0.258475 8:0.543 9:73.89 10:239760 11:3822367 12:35515 13:11308872 14:1 15:0 16:0 17:917 
0.990234375 0.990234375 1 1 1 1 1 1 1 1:0 2:2 3:-9.864 4:0 5:0.449455 6:2 7:0.002628 8:0.37 9:168.325 10:283214 11:8312874 12:37904 13:9166195 14:0 15:0 16:0 17:2662 
0.990234375 0.990234375 1 1 1 1 1 1 1 1:0 2:9 3:-7.12 4:0.0288 5:0.000129 6:2.7e-05 7:0.008242 8:0.475 9:391943 10:248291 11:15887036 12:57036 13:15601684 14:1 15:0 16:0 17:876 
0.990234375 0.990234375 1 1 1 1 1 1 1 1:0.085184 2:7 3:-7.575 4:0.0366 5:0.716917 6:0.0496 7:0.003652 8:0.173 9:138.145 10:77000 11:225941 12:4999 13:4251280 14:1 15:0 16:0 17:21 
0.990234375 0.990234375 1 1 1 1 1 1 1 1:0.069935 2:7 3:-11.226 4:0.0296 5:0.291434 6:0.000223 7:0.005 8:0.839 9:69.226 10:192440 11:579660 12:4408 13:24851845 14:1 15:0 16:0 17:33746159 
0.990234375 0.990234375 1 1 1 1 1 1 1 1:0.012978 2:4 3:-13.816 4:0.0411 5:0.707348 6:2 7:0.001225 8:0.252 9:82.511 10:82226553 11:77179288 12:623813 13:17060305 14:0 15:0 16:0 17:21091 
0.990234375 0.990234375 1 1 1 1 1 1 1 1:0.50817 2:10 3:-7.078 4:0.124 5:0 6:3 7:0.005452 8:0.74 9:84.696 10:209040 11:1095640 12:21264 13:1.4619662e+08 14:1 15:0 16:0 17:1410 
0.990234375 0.990234375 1 1 1 1 1 1 1 1:0.144703 2:2 3:-9.634 4:0.035 5:0 6:0.769 7:0.015813 8:0.258 9:78.339 10:291706 11:3740616 12:39702 13:22065716 14:1 15:0 16:0 17:1491 
0.990234375 0.990234375 1 1 1 1 1 1 1 1:0.85467 2:2 3:-3.315 4:0.0537 5:0 6:0.187 7:0 8:0.4 9:398595 10:271418 11:813407 12:21176 13:4101845 14:0 15:0 16:0 17:61 
0.990234375 0.990234375 1 1 1 1 1 1 1 1:0.881974 2:16992 3:-4.348 4:0.072 5:0 6:0.0563 7:0.026731 8:0.242 9:137.052 10:212653 11:18572939 12:186362 13:48379836 14:1 15:0 16:0 17:33918620 
0.990234375 0.990234375 1 1 1 1 1 1 1 1:0.791453 2:7 3:-3.75 4:0.0834 5:0 6:0.0379 7:0.006859 8:0.2 9:398839 10:87932904 11:50530 12:1391 13:1.0370057e+08 14:1 15:0 16:0 17:52 
0.990234375 0.990234375 1 1 1 1 1 1 1 1:0.868251 2:9 3:-24449 4:0.0417 5:0 6:0.776 7:0 8:0.513 9:181.933 10:300783 11:1.0354666e+08 12:202627 13:17848858 14:1 15:0 16:0 17:14069 
0.990234375 0.990234375 1 1 1 1 1 1 1 1:0.985075 2:8 3:-5.698 4:0 5:0 6:0.438 7:0.048229 8:0.079 9:87.803 10:257733 11:12795992 12:115635 13:35732510 14:1 15:0 16:0 17:4276 
0.990234375 0.990234375 1 1 1 1 1 1 1 1:0.912673 2:5 3:-2.518 4:0.0878 5:0 6:0.0415 7:0.022906 8:0.243 9:102.729 10:237840 11:16422 12:1.0532716e+08 13:16820162 14:1 15:0 16:0 17:43 
0.990234375 0.990234375 1 1 1 1 1 1 1 1:0.941192 2:8 3:-3.855 4:0.165 5:0 6:0.169 7:0 8:0.13 9:185.3 10:246680 11:-81916696 12:3489 13:55051336 14:1 15:0 16:0 17:33935004 
0.990234375 0.990234375 1 1 1 1 1 1 1 1:0.000518 2:17053 3:-20.518 4:0.0306 5:0.667628 6:0.000639 7:0.002048 8:0.184 9:150.503 10:217427 11:9080536 12:60229 13:59303214 14:2292 15:0 16:0 17:3746 
0.990234375 0.990234375 1 1 1 1 1 1 1 1:0.000249 2:1 3:-19.544 4:0.0338 5:0.726573 6:0.000631 7:0 8:0.203 9:124.422 10:90646243 11:55253 12:937 13:-83506086 14:0 15:0 16:0 17:27 
0.990234375 0.990234375 1 1 1 1 1 1 1 1:0.223649 2:17122 3:-11.141 4:0 5:0.500566 6:0.446 7:0.001561 8:0 9:187.101 10:422640 11:5154907 12:-1.0664839e+08 13:58438420 14:1 15:0 16:0 17:1907 
0.990234375 0.990234375 1 1 1 1 1 1 1 1:0.398688 2:17188 3:-9.438 4:0.0407 5:0 6:0.105 7:0.001225 8:0.796 9:182.672 10:342000 11:6974725 12:-1.0490536e+08 13:31439412 14:1 15:0 16:0 17:3170 
0.990234375 0.990234375 1 1 1 1 1 1 1 1:0.086938 2:17216 3:-7.972 4:0.0396 5:0.080063 6:0.0352 7:0.128024 8:0 9:103.262 10:259840 11:1643517 12:-1.0467638e+08 13:23729166 14:1 15:0 16:0 17:581 
0.990234375 0.990234375 1 1 1 1 1 1 1 1:0 2:10 3:-3.725 4:0.108 5:0 6:0.00447 7:0.090519 8:0 9:104.016 10:230127 11:21459553 12:169749 13:1.0766126e+08 14:2316 15:0 16:0 17:5944 
0.990234375 0.990234375 1 1 1 1 1 1 1 1:0 2:0 3:-3.828 4:0.131 5:0 6:0.00675 7:0.029504 8:0 9:110.629 10:311507 11:15923275 12:105115 13:76780918 14:1 15:0 16:0 17:5212 
0.990234375 0.990234375 1 1 1 1 1 1 1 1:0.955672 2:2 3:-4.588 4:0.101 5:0 6:3 7:0.002048 8:0.0483 9:123.008 10:348100 11:25010411 12:313496 13:30023222 14:1 15:0 16:0 17:14363 
0.990234375 0.990234375 1 1 1 1 1 1 1 1:0.946966 2:2 3:-3.399 4:0.128 5:0 6:0.0237 7:0.052734 8:0.146 9:115.64 10:240183 11:172536 12:600 13:20992137 14:1 15:0 16:0 17:82 
0.990234375 0.990234375 1 1 1 1 1 1 1 1:0.879218 2:7 3:-4.391 4:0.194 5:0 6:0.128 7:0.051065 8:0.11 9:198.151 10:99233662 11:16635838 12:104067 13:7167929 14:1 15:0 16:0 17:6164 
0.990234375 0.990234375 1 1 1 1 1 1 1 1:0.958585 2:2 3:-2.486 4:0.103 5:0 6:0.00109 7:0.002 8:0.217 9:92.334 10:219762 11:2456099 12:18612 13:29042336 14:1 15:0 16:0 17:955 
0.990234375 0.990234375 1 1 1 1 1 1 1 1:0.582183 2:10 3:-3.446 4:0 5:0.0023 6:0 7:0.354895 8:0 9:168.174 10:191400 11:6662743 12:41098 13:90064765 14:1 15:0 16:0 17:1572 
0.990234375 0.990234375 1 1 1 1 1 1 1 1:0.287496 2:17468 3:-25153 4:0.034 5:0.428661 6:0 7:0.000499 8:0 9:100.278 10:-1.0728274e+08 11:2787060 12:13382 13:45347629 14:1 15:0 16:0 17:837 
0.990234375 0.990234375 1 1 1 1 1 1 1 1:0 2:7 3:-9.051 4:0.035 5:0 6:0.0267 7:0.001061 8:0.453 9:66.214 10:220427 11:4176369 12:21821 13:95912116 14:1 15:0 16:0 17:1670 
0.990234375 0.990234375 1 1 1 1 1 1 1 1:0.002924 2:0 3:-16.452 4:0 5:0.295408 6:0.000251 7:0.015813 8:0.0722 9:83.201 10:267800 11:231376 12:2029 13:9275875 14:0 15:0 16:0 17:215 
0.990234375 0.990234375 1 1 1 1 1 1 1 1:0 2:10 3:-17.192 4:0.0427 5:0 6:0.000263 7:0.003652 8:0.357 9:168.045 10:-1.0346304e+08 11:118599 12:1285 13:8136528 14:1 15:0 16:0 17:130 
0.990234375 0.990234375 1 1 1 1 1 1 1 1:0.013998 2:4 3:-15.806 4:0.0385 5:0.096072 6:0.2 7:0.029218 8:0.0691 9:90.071 10:248707 11:6737560 12:69731 13:30897616 14:1 15:0 16:0 17:5556 
0.990234375 0.990234375 1 1 1 1 1 1 1 1:0 2:8 3:-25358 4:0.0348 5:0.535387 6:5.1e-05 7:0.000866 8:0.195 9:172.408 10:232613 11:24615977 12:123686 13:13617164 14:1 15:0 16:0 17:7594 
0.990234375 0.990234375 1 1 1 1 1 1 1 1:0.001482 2:3 3:-12.903 4:0.0342 5:0 6:0.0911 7:0.001125 8:0.0797 9:79.806 10:372667 11:5666623 12:68774 13:11363376 14:1 15:0 16:0 17:4343 
0.990234375 0.990234375 1 1 1 1 1 1 1 1:0.376367 2:17650 3:-5.963 4:0.034 5:0.00014 6:0 7:0.001602 8:0.41 9:413676 10:200293 11:57070842 12:373887 13:2.4535905e+08 14:1 15:0 16:0 17:13476 
0.990234375 0.990234375 1 1 1 1 1 1 1 1:0.43552 2:7 3:-5.679 4:0 5:0.000879 6:0 7:0.001561 8:0.452 9:77.81 10:239680 11:-91754086 12:-90410296 13:40074879 14:1 15:0 16:0 17:723 
0.990234375 0.990234375 1 1 1 1 1 1 1 1:0.719323 2:0 3:-5.931 4:0.049 5:0 6:0 7:0.003512 8:0.653 9:90.6 10:335827 11:5466841 12:31444 13:41755071 14:1 15:0 16:0 17:3227 
0.990234375 0.990234375 1 1 1 1 1 1 1 1:0.25484 2:5 3:-11.372 4:0.0371 5:0 6:3e-06 7:0.028094 8:0.679 9:176.516 10:274960 11:16388016 12:81637 13:16742502 14:2379 15:0 16:0 17:3867 
0.990234375 0.990234375 1 1 1 1 1 1 1 1:0.557442 2:7 3:-25583 4:0 5:2e-06 6:7.8e-05 7:0.003724 8:0.244 9:89.939 10:275395 11:1.163968e+08 12:653368 13:2.646208e+08 14:1 15:0 16:0 17:24945 
0.990234375 0.990234375 1 1 1 1 1 1 1 1:0.437245 2:17746 3:-7.288 4:0.0431 5:0.000171 6:0 7:0.012326 8:0 9:179.904 10:284496 11:58253 12:1322 13:2.3408798e+08 14:1 15:0 16:0 17:53 
0.990234375 0.990234375 1 1 1 1 1 1 1 1:0.622836 2:4 3:-7.531 4:0.0494 5:0 6:0.00114 7:0 8:0 9:100.175 10:397768 11:1829837 12:28168 13:78358269 14:1 15:0 16:0 17:34989603 
0.990234375 0.990234375 1 1 1 1 1 1 1 1:0 2:17768 3:-14.184 4:0.0502 5:0.000944 6:0.000318 7:0.001521 8:0.281 9:125.823 10:253573 11:11320583 12:74323 13:5713305 14:1 15:0 16:0 17:2225 
0.990234375 0.990234375 1 1 1 1 1 1 1 1:0.820026 2:9 3:-6.401 4:0.113 5:0 6:0.000109 7:0.000566 8:0.152 9:102.731 10:208133 11:7042604 12:32755 13:7824638 14:1 15:0 16:0 17:1191 
0.990234375 0.990234375 1 1 1 1 1 1 1 1:0.024642 2:7 3:-9.93 4:0.0368 5:0.525558 6:0 7:0.042875 8:0.305 9:73.638 10:242960 11:1440157 12:-73895530 13:-59140102 14:2415 15:0 16:0 17:419 
0.990234375 0.990234375 1 1 1 1 1 1 1 1:0.2823 2:2 3:-6.034 4:0.0419 5:0 6:0 7:0.000539 8:0.401 9:160.612 10:233787 11:-73510153 12:319839 13:-29533518 14:1 15:0 16:0 17:35230154 
0.990234375 0.990234375 1 1 1 1 1 1 1 1:0 2:9 3:-39.245 4:0.0493 5:0.982108 6:0.913 7:0.000629 8:0.174 9:91.621 10:193320 11:15122 12:193 13:28023768 14:2426 15:0 16:0 17:18 
0.990234375 0.990234375 1 1 1 1 1 1 1 1:0 2:8 3:-36.351 4:0.036 5:0.979147 6:0.912 7:0.00387 8:0 9:70.684 10:216284 11:5244 12:80 13:14087745 14:1 15:0 16:0 17:2 
0.990234375 0.990234375 1 1 1 1 1 1 1 1:0 2:2 3:-33.974 4:0.0491 5:0 6:0.955 7:0.001125 8:0.039 9:66.685 10:-81122527 11:84507 12:1549 13:19045470 14:1 15:0 16:0 17:77 
0.990234375 0.990234375 1 1 1 1 1 1 1 1:0 2:9 3:-26133 4:0.0409 5:0.976191 6:3 7:0.000362 8:0.117 9:133.325 10:-80922299 11:90 12:1 13:2219658 14:1 15:0 16:0 17:0 
0.990234375 0.990234375 1 1 1 1 1 1 1 1:4.5e-05 2:0 3:-26143 4:0.0393 5:0.851971 6:0.965 7:0.000874 8:0.039 9:91.169 10:263493 11:371908 12:5270 13:15131689 14:0 15:0 16:0 17:501 
0.990234375 0.990234375 1 1 1 1 1 1 1 1:4.9e-05 2:7 3:-27.021 4:0.0451 5:0.941192 6:3 7:0.000749 8:0.17 9:84.642 10:143267 11:12979 12:185 13:11366336 14:0 15:0 16:0 17:3 
0.990234375 0.990234375 1 1 1 1 1 1 1 1:9e-06 2:18108 3:-27.015 4:0.0398 5:0.961505 6:0.922 7:0.002 8:0.0393 9:125.242 10:497773 11:45058 12:474 13:29170056 14:1 15:0 16:0 17:0 
0.990234375 0.990234375 1 1 1 1 1 1 1 1:4.5e-05 2:2 3:-24.281 4:0.0453 5:0.941192 6:0.905 7:0 8:0.0555 9:178.716 10:260000 11:-64550907 12:18 13:-61570857 14:1 15:0 16:0 17:35234979 
0.990234375 0.990234375 1 1 1 1 1 1 1 1:8e-06 2:2 3:-27.86 4:0.046 5:0.982108 6:0.738 7:0.000276 8:0.181 9:167.025 10:189307 11:3845939 12:74542 13:-13533007 14:1 15:0 16:0 17:1699 
0.990234375 0.990234375 1 1 1 1 1 1 1 1:0.187149 2:18126 3:-7.818 4:0.0377 5:0.263375 6:0 7:0 8:0.285 9:77.986 10:-79426614 11:73003841 12:-69849547 13:1.6976996e+08 14:0 15:0 16:0 17:472 
0.990234375 0.990234375 1 1 1 1 1 1 1 1:0.088121 2:4 3:-7.926 4:0.0305 5:0 6:0.000325 7:0.334255 8:0.17 9:112.532 10:328907 11:2942 12:102 13:80931522 14:1 15:0 16:0 17:5 
0.990234375 0.990234375 1 1 1 1 1 1 1 1:0.032768 2:9 3:-26285 4:0.0325 5:0.693154 6:0.00141 7:0.002406 8:0.171 9:138.108 10:-76898841 11:7495646 12:72047 13:55074119 14:1 15:0 16:0 17:2772 
0.990234375 0.990234375 1 1 1 1 1 1 1 1:0 2:9 3:-10.943 4:0 5:0.809558 6:0.0271 7:0.000746 8:0.186 9:114.224 10:184800 11:959955 12:4191 13:61244186 14:2442 15:0 16:0 17:274 
0.990234375 0.990234375 1 1 1 1 1 1 1 1:0 2:4 3:-9.148 4:0.0491 5:0.241804 6:0 7:0.001158 8:0.0793 9:74.463 10:291160 11:49738566 12:360910 13:35975116 14:1 15:0 16:0 17:14513 
0.990234375 0.990234375 1 1 1 1 1 1 1 1:0.001861 2:0 3:-18.111 4:0.04 5:0.676836 6:2.2e-05 7:0.00387 8:0.239 9:426472 10:195400 11:806216 12:-67775914 13:27582760 14:1 15:0 16:0 17:339 
0.990234375 0.990234375 1 1 1 1 1 1 1 1:0.013824 2:18202 3:-14.889 4:0.0399 5:0.071473 6:0.0007 7:0.001158 8:0.11 9:79.471 10:235160 11:24216375 12:236480 13:35568373 14:1 15:0 16:0 17:35330904 
0.990234375 0.990234375 1 1 1 1 1 1 1 1:0.374805 2:3 3:-10.311 4:0.0801 5:0.002248 6:0.00029 7:0.010078 8:0.237 9:126.351 10:199800 11:299161 12:4679 13:55821447 14:0 15:0 16:0 17:199 
0.990234375 0.990234375 1 1 1 1 1 1 1 1:8.2e-05 2:0 3:-29.73 4:0.0411 5:0.961505 6:0.857 7:0.000486 8:0.0302 9:72.282 10:220773 11:207635 12:1669 13:-82924090 14:1 15:0 16:0 17:35381531 
0.990234375 0.990234375 1 1 1 1 1 1 1 1:0 2:10 3:-38.801 4:0 5:0 6:0.868 7:0 8:0.194 9:75.387 10:-74052027 11:479077 12:3463 13:8894224 14:1 15:0 16:0 17:128 
0.990234375 0.990234375 1 1 1 1 1 1 1 1:7e-06 2:4 3:-35.626 4:0.0394 5:0.985075 6:0.874 7:0.000471 8:0.197 9:427906 10:131667 11:41452 12:269 13:20735924 14:2451 15:0 16:0 17:7 
0.990234375 0.990234375 1 1 1 1 1 1 1 1:3e-06 2:1 3:-27.988 4:0.0424 5:0.944076 6:0.902 7:0.000397 8:0.0348 9:144.414 10:398240 11:35246 12:562 13:18513273 14:1 15:0 16:0 17:26 
0.990234375 0.990234375 1 1 1 1 1 1 1 1:0 2:3 3:-35.489 4:0.0567 5:0.982108 6:0.934 7:0.000422 8:0 9:66.308 10:70667 11:479077 12:3463 13:-29905586 14:2451 15:0 16:0 17:128 
0.990234375 0.990234375 1 1 1 1 1 1 1 1:0.001685 2:9 3:-18.059 4:0.0386 5:0.926859 6:0.887 7:0.001331 8:0.0381 9:94.4 10:-73059330 11:94466444 12:38733 13:16021304 14:1 15:0 16:0 17:1892 
0.990234375 0.990234375 1 1 1 1 1 1 1 1:0.0001 2:9 3:-26.438 4:0.0373 5:0.944076 6:0.901 7:0.000665 8:0.0369 9:105.541 10:766213 11:3398660 12:38733 13:6301529 14:2454 15:0 16:0 17:1892 
0.990234375 0.990234375 1 1 1 1 1 1 1 1:0.200202 2:5 3:-8.894 4:0.0336 5:0.049028 6:3 7:0.014172 8:0.579 9:430111 10:179867 11:57063820 12:-58249559 13:23791920 14:1 15:0 16:0 17:10028 
0.990234375 0.990234375 1 1 1 1 1 1 1 1:0.428661 2:5 3:-10.339 4:0 5:0 6:8e-06 7:0.00126 8:0.808 9:87.275 10:-68467883 11:7109089 12:297216 13:14270750 14:1 15:0 16:0 17:16067 
0.990234375 0.990234375 1 1 1 1 1 1 1 1:0.148877 2:4 3:-8.059 4:0.032 5:0 6:0 7:0.949862 8:0.275 9:142.331 10:-68246773 11:476049 12:3647 13:15306852 14:1 15:0 16:0 17:64 
0.990234375 0.990234375 1 1 1 1 1 1 1 1:0.044739 2:5 3:-26713 4:0.0345 5:0.000178 6:0 7:0.397065 8:0.262 9:165.961 10:218267 11:153206 12:1298 13:1.5100182e+08 14:1 15:0 16:0 17:35884486 
0.990234375 0.990234375 1 1 1 1 1 1 1 1:0 2:18654 3:-26969 4:0.0389 5:0.649462 6:6.2e-05 7:0.017174 8:0.287 9:186.614 10:177013 11:70670821 12:245242 13:-40842398 14:2503 15:0 16:0 17:36140891 
0.990234375 0.990234375 1 1 1 1 1 1 1 1:0.002863 2:7 3:-18.651 4:0 5:0.799179 6:0.0112 7:0.062099 8:0.336 9:78.1 10:150333 11:9207172 12:-42339805 13:22100676 14:1 15:0 16:0 17:36158742 
0.990234375 0.990234375 1 1 1 1 1 1 1 1:0.031855 2:0 3:-9.113 4:0.0373 5:0 6:2.4e-05 7:0.014706 8:0.51 9:134.957 10:177467 11:45762163 12:130488 13:23555913 14:1 15:0 16:0 17:5501 
0.990234375 0.990234375 1 1 1 1 1 1 1 1:0.519718 2:10 3:-5.559 4:0 5:0.005359 6:0 7:0.00593 8:0.709 9:186.752 10:194307 11:16377637 12:93063 13:1.2868047e+08 14:1 15:0 16:0 17:3772 
0.990234375 0.990234375 1 1 1 1 1 1 1 1:0.036926 2:10 3:-9.876 4:0.031 5:0.205379 6:0 7:0.001772 8:0.0796 9:109.479 10:247040 11:4090225 12:35158 13:40872084 14:0 15:0 16:0 17:1908 
0.990234375 0.990234375 1 1 1 1 1 1 1 1:0.031554 2:3 3:-9.604 4:0.0369 5:0.062099 6:0 7:0.002248 8:0.264 9:71.205 10:267427 11:58742760 12:189855 13:14050953 14:1 15:0 16:0 17:5528 
0.990234375 0.990234375 1 1 1 1 1 1 1 1:0.101848 2:5 3:-11.763 4:0.0284 5:0.027818 6:0.0186 7:0.001907 8:0.525 9:75.601 10:445187 11:6301625 12:-28516929 13:82530156 14:1 15:0 16:0 17:1254 
0.990234375 0.990234375 1 1 1 1 1 1 1 1:0.469097 2:1 3:-10.167 4:0.0705 5:0 6:0.78 7:0.000944 8:0.235 9:145.733 10:433573 11:5217525 12:43040 13:42500875 14:1 15:0 16:0 17:36716671 
0.990234375 0.990234375 1 1 1 1 1 1 1 1:0.002097 2:9 3:-15.443 4:0.034 5:0.693154 6:0.352 7:0.001158 8:0.0774 9:148.499 10:370667 11:89199387 12:929397 13:4.6864274e+08 14:1 15:0 16:0 17:18778 
0.990234375 0.990234375 1 1 1 1 1 1 1 1:0.002924 2:3 3:-27671 4:0.0412 5:0.822657 6:0.933 7:0.000766 8:0.0662 9:173.33 10:-34281172 11:30912886 12:356092 13:-19328929 14:2570 15:0 16:0 17:6157 
0.990234375 0.990234375 1 1 1 1 1 1 1 1:0.000896 2:4 3:-27682 4:0.0337 5:0.377933 6:0.204 7:0.010218 8:0.0522 9:448983 10:327787 11:922380 12:12278 13:14605197 14:2570 15:0 16:0 17:467 
0.990234375 0.990234375 1 1 1 1 1 1 1 1:0.01036 2:6 3:-15.911 4:0.0345 5:0.812166 6:0.934 7:0.001295 8:0.0392 9:86.64 10:316000 11:51400775 12:356092 13:11138920 14:2571 15:0 16:0 17:6157 
0.990234375 0.990234375 1 1 1 1 1 1 1 1:0.022906 2:3 3:-27697 4:0.0326 5:0.557442 6:0.425 7:0 8:0.128 9:130.574 10:410839 11:37258 12:615 13:1904719 14:1 15:0 16:0 17:24 
0.990234375 0.990234375 1 1 1 1 1 1 1 1:0.004331 2:19207 3:-14.789 4:0.0316 5:0.258475 6:0.0267 7:0.00048 8:0.0545 9:74.483 10:195840 11:-1.0735887e+08 12:929397 13:3002413 14:0 15:0 16:0 17:18778 
0.990234375 0.990234375 1 1 1 1 1 1 1 1:0 2:6 3:-5.085 4:0.0362 5:0 6:0.000944 7:0.000547 8:0.341 9:450977 10:282093 11:10129276 12:-23111672 13:99161879 14:1 15:0 16:0 17:2424 
0.990234375 0.990234375 1 1 1 1 1 1 1 1:0.879218 2:19293 3:-2.683 4:0.442 5:0.000219 6:5e-06 7:0.000944 8:0.3 9:163.089 10:206200 11:5998155 12:52074 13:36327437 14:1 15:0 16:0 17:1459 
0.990234375 0.990234375 1 1 1 1 1 1 1 1:0.067917 2:9 3:-28152 4:0.0273 5:0.006332 6:3e-06 7:0.001443 8:0.271 9:87.335 10:181280 11:11630350 12:38822 13:27314019 14:1 15:0 16:0 17:3014 
0.990234375 0.990234375 1 1 1 1 1 1 1 1:0.048627 2:1 3:-8.393 4:0.0313 5:0.000807 6:0.0721 7:0.001061 8:0.039 9:181.345 10:-19095330 11:7598180 12:43987 13:-90183694 14:1 15:0 16:0 17:1670 
0.990234375 0.990234375 1 1 1 1 1 1 1 1:0.85467 2:1 3:-3.552 4:0.11 5:0.055306 6:0 7:0 8:0.467 9:164.979 10:263600 11:1.1737875e+08 12:384366 13:34851121 14:1 15:0 16:0 17:19727 
0.990234375 0.990234375 1 1 1 1 1 1 1 1:0.748613 2:2 3:-5.509 4:0.109 5:3.5e-05 6:9e-06 7:0.005832 8:0.26 9:118.698 10:-13051267 11:2.6455159e+08 12:1231520 13:3.2812434e+08 14:1 15:0 16:0 17:38209 
0.990234375 0.990234375 1 1 1 1 1 1 1 1:0 2:5 3:-28395 4:0.0461 5:0.000125 6:0.125 7:0.308916 8:0.347 9:134.364 10:210107 11:11039254 12:74335 13:1.319571e+08 14:1 15:0 16:0 17:2913 
0.990234375 0.990234375 1 1 1 1 1 1 1 1:0.50817 2:19712 3:-13.952 4:0.0671 5:0 6:0.376 7:0 8:0 9:460790 10:-12257207 11:32655 12:905 13:8601497 14:1 15:0 16:0 17:60 
0.990234375 0.990234375 1 1 1 1 1 1 1 1:0.915499 2:10 3:-5.597 4:0.1 5:0 6:5e-05 7:0.147198 8:0.305 9:137.497 10:259987 11:4937851 12:44197 13:9313402 14:1 15:0 16:0 17:1407 
0.990234375 0.990234375 1 1 1 1 1 1 1 1:0.10785 2:7 3:-8.497 4:0 5:0.15313 6:0.019 7:0.021485 8:0.189 9:147.532 10:210933 11:2155514 12:17596 13:8923768 14:1 15:0 16:0 17:943 
0.990234375 0.990234375 1 1 1 1 1 1 1 1:0.663055 2:2 3:-7.602 4:0.122 5:0.0098 6:0 7:0.097972 8:0.492 9:173.381 10:-11012235 11:76651511 12:337632 13:1.4288412e+08 14:2645 15:0 16:0 17:24455 
0.990234375 0.990234375 1 1 1 1 1 1 1 1:0.586376 2:5 3:-7.618 4:0.0676 5:0.022188 6:0.00405 7:0.024642 8:0.392 9:461922 10:590000 11:37034731 12:165107 13:77552106 14:1 15:0 16:0 17:37610737 
0.990234375 0.990234375 1 1 1 1 1 1 1 1:0.176558 2:2 3:-10.383 4:0.0857 5:0.100545 6:4e-06 7:0.002744 8:0.363 9:150.425 10:718600 11:2.3895688e+08 12:1087412 13:31524233 14:1 15:0 16:0 17:37662469 
0.990234375 0.990234375 1 1 1 1 1 1 1 1:0.047832 2:7 3:-11.745 4:0.0297 5:0 6:0.00161 7:0 8:0.228 9:120.546 10:280533 11:164681 12:2846 13:14640899 14:1 15:0 16:0 17:443 
