svm_type c_svc
kernel_type rbf
gamma 0.03125
nr_class 10
total_sv 16549
rho 4.7207967393511803 -106.63659372028231 -121.69558606100777 -118.53123570228183 -46.891356869582985 -17.127818275543142 -176.6073427464552 -123.33855253316429 -118.08037588930004 -99.84730822538944 -109.2707627132355 -140.5949512036112 -47.267557881844738 -40.470608025056109 -212.55891753237927 -144.40108018922456 -150.30008551378594 -10.871164065881802 -25.16759751137349 85.145359197896042 62.798382257645315 -164.33319933587913 -118.87393281382559 -64.191768873243518 25.094227490648095 76.334701940498704 73.825242748107357 -184.81952957716385 -100.95373550837472 -74.439427319648615 97.878412618575041 85.374566011398812 -155.14399110250119 -105.00234182524191 -39.732015320474687 11.697939515442084 -187.34378965247345 -149.26175779438026 -105.91154757898273 -167.86675986147685 -146.78072752797428 -120.18473228901831 62.135175118730743 130.90353047020665 57.121322933091513
label 0 1 4 6 5 3 2 9 8 7
nr_sv 1277 1629 1635 1852 1699 1674 1657 1463 1851 1812
SV
32768 0 0 0 29825.317669705695 32768 0 0 0 1:0.000273 2:0.3 3:0.447642 4:0.045954 5:0.732911 6:6.2e-05 7:0.000804 8:0.342397 9:0.342677 10:0.019102 11:0.002204 12:0.003428 13:0.007583 14:1 15:0 16:0 17:0.000336 
7166.6642148446899 15723.415175311957 0 0 32768 32768 0 2498.9028065280486 0 1:0.18422 2:0.7 3:0.405922 4:0.093257 5:0.680353 6:0.91 7:0.034963 8:0.751259 9:0.610966 10:0.031303 11:3.2e-05 12:0.000129 13:0.045693 14:1 15:0 16:0 17:1.3e-05 
32768 0 722.18619233552158 0 32768 32768 0 0 0 1:0.022364 2:0.6 3:0.651126 4:0.093859 5:0.675704 6:0.867 7:0.001769 8:0.382679 9:0.348845 10:0.026301 11:3.2e-05 12:0.000129 13:0.007333 14:1 15:0 16:0 17:1.3e-05 
32768 32768 32768 32768 32768 32768 0 0 32768 1:0.225867 2:1 3:0.847111 4:0.033506 5:0.29496 6:1.1e-05 7:0.010791 8:0.619134 9:0.684828 10:0.049894 11:0.013294 12:0.006286 13:0.051756 14:1 15:1 16:1 17:0.000751 
32768 0 0 1865.266171052755 32768 0 0 0 25393.933343000812 1:0.006539 2:0.2 3:0.74263 4:0.034419 5:0.979063 6:0.058252 7:0.001027 8:0.214502 9:0.545383 10:0.041795 11:0.015326 12:0.048306 13:0.162307 14:0 15:1 16:1 17:0.000357 
7278.9179518826086 0 0 0 0 0 0 0 0 1:0.00387 2:0.4 3:0.627379 4:0.034336 5:0.952577 6:0.0103 7:0.000583 8:0.321249 9:0.318373 10:0.03179 11:0.000394 12:0.001381 13:0.01011 14:0.6 15:1 16:1 17:0.00014 
12445.135226392955 5809.4334707034623 5182.8462880208017 32768 32768 32768 21457.838995138718 32768 32768 1:0.036926 2:0.3 3:0.706011 4:0.054938 5:0.361787 6:0.594 7:0.020568 8:0.273917 9:0.593959 10:0.053067 11:0.000446 12:0.005999 13:0.008785 14:0 15:0.8 16:1 17:0.000125 
0 21119.82842506333 0 0 30229.852751044571 32768 0 0 11512.511759805129 1:0.036265 2:0.8 3:0.707264 4:0.06722 5:0.854117 6:0.0263 7:0.046265 8:0.58006 9:0.701482 10:0.028854 11:3e-06 12:2.8e-05 13:0.003611 14:0 15:0 16:0 17:6e-06 
20661.666599756423 0 0 0 3101.4808177683999 0 0 0 0 1:0.092345 2:1 3:0.761024 4:0.031846 5:0.352601 6:0.00228 7:0.327081 8:0.190332 9:0.464581 10:0.064641 11:0.041572 12:0.031859 13:0.142332 14:1 15:0 16:0 17:0.006548 
21148.526742322043 0 0 0 0 0 0 0 0 1:0.804357 2:1 3:0.857672 4:0.129668 5:7e-06 6:0.0022 7:0.001188 8:0.378651 9:0.804591 10:0.054723 11:0.00435 12:0.004907 13:0.03409 14:1 15:1 16:1 17:0.000819 
32768 0 0 0 0 0 0 0 0 1:0.047046 2:0.9 3:0.676572 4:0.051763 5:0.244729 6:0.00119 7:0.003649 8:0.616314 9:0.771293 10:0.026784 11:0.000215 12:0.000227 13:0.054271 14:1 15:0 16:0 17:2.5e-05 
32768 32768 32768 23013.064936843832 32768 32768 0 0 10107.108818589837 1:0.108531 2:0.4 3:0.764337 4:0.06278 5:0.021279 6:0.0139 7:0.002512 8:0.183283 9:0.589764 10:0.050413 11:0.001907 12:0.011138 13:0.040404 14:1 15:1 16:1 17:0.001389 
0 0 0 32768 32768 0 0 0 0 1:0.187149 2:0.1 3:0.816334 4:0.084875 5:0.266561 6:0 7:0.007997 8:0.287009 9:0.320439 10:0.045376 11:2.2e-05 12:2.4e-05 13:0.064451 14:0 15:0 16:0 17:1.2e-05 
32768 32768 31228.11791850991 32768 32768 32768 0 32768 32768 1:0.072537 2:0 3:0.682052 4:0.032573 5:0.201964 6:3e-06 7:0.000695 8:0.41281 9:0.426594 10:0.040928 11:0.004493 12:0.002457 13:0.020471 14:0 15:1 16:1 17:0 
32768 32768 32768 32768 32768 32768 0 32768 0 1:0.053157 2:0.1 3:0.764138 4:0.032469 5:0.095336 6:0 7:0.00144 8:0.256798 9:0.399845 10:0.031332 11:0.000674 12:0.000677 13:0.012378 14:1 15:0 16:0 17:0.000551 
0 20007.245609348251 0 32768 0 0 0 0 0 1:0.187149 2:0.84 3:0.816334 4:0.039108 5:0.266561 6:0 7:0.007997 8:0.287009 9:0.320439 10:0.045376 11:0.001194 12:0.000169 13:0.009847 14:0 15:0 16:0 17:1.2e-05 
32768 32768 32768 32768 32768 32768 32768 32768 32768 1:0.084028 2:0.66 3:0.844605 4:0.109087 5:0.050439 6:0 7:0.006226 8:0.154079 9:0.496466 10:0.048921 11:0.001245 12:0.001688 13:0.020912 14:1 15:0 16:0 17:0.000225 
32768 0 0 0 0 32768 0 0 0 1:0.145532 2:0.2 3:0.734813 4:0.042635 5:0.668769 6:2e-06 7:0.0572 8:0.653575 9:0.828933 10:0.026374 11:0.000525 12:0.000537 13:0.251265 14:1 15:0 16:0 17:0.000118 
32768 0 0 0 0 0 0 0 0 1:0.009528 2:0.6 3:0.652889 4:0.032158 5:0.64375 6:7.7e-05 7:0.001682 8:0.196375 9:0.392629 10:0.044376 11:2.5e-05 12:0.000529 13:0.030726 14:1 15:0 16:0.2 17:1e-06 
32768 32768 32768 32768 32768 32768 843.81049359397343 32768 32768 1:0.006751 2:0.8 3:0.605565 4:0.0361 5:0.634809 6:4e-06 7:0.014604 8:0.495468 9:0.548917 10:0.026594 11:0.000198 12:1e-06 13:0.00704 14:1 15:0 16:0 17:0 
32768 32768 32768 32768 32768 32768 32768 32768 32768 1:0.105824 2:0.3 3:0.766015 4:0.03361 5:0.135841 6:0.000526 7:0.063997 8:0.53857 9:0.348836 10:0.034739 11:0.000233 12:0.000445 13:0.009329 14:1 15:1 16:1 17:0.00034 
32768 32768 32768 32768 32768 32768 0 0 32768 1:0.013652 2:0.7 3:0.654184 4:0.028423 5:0.35651 6:1e-06 7:0.000177 8:0.475327 9:0.371394 10:0.027224 11:0.00068 12:0.000441 13:0.007035 14:1 15:0 16:0 17:0.000131 
32768 32768 32768 32768 32768 32768 0 0 32768 1:0.47638 2:0.4 3:0.866228 4:0.057261 5:0.281813 6:0.000118 7:0.01968 8:0.531722 9:0.325715 10:0.060055 11:0.00284 12:0.001772 13:0.006422 14:1 15:1 16:1 17:0.000289 
32768 32768 0 0 32768 32768 0 0 0 1:0.307547 2:0.1 3:0.852132 4:0.048963 5:0.276666 6:0 7:0.00089 8:0.499496 9:0.727499 10:0.050187 11:0.009179 12:0.005878 13:0.015618 14:1 15:0.8 16:1 17:0.001418 
32768 32768 32768 32768 32768 32768 32768 32768 32768 1:0.286191 2:0.7 3:0.853016 4:0.035996 5:2.4e-05 6:1.5e-05 7:0.007678 8:0.603223 9:0.464396 10:0.034429 11:0.002047 12:0.002121 13:0.018049 14:1 15:1 16:1 17:0.000507 
32768 0 0 0 0 0 0 0 0 1:0.024389 2:0.7 3:0.788339 4:0.039938 5:0.170231 6:4e-06 7:0.157461 8:0.298087 9:0.7387 10:0.04793 11:0.011691 12:0.015502 13:0.005476 14:1 15:1 16:1 17:0.002433 
32768 32768 32368.770821185917 32768 32768 32768 0 0 0 1:0.663055 2:0.2 3:0.81593 4:0.070539 5:0 6:0.00975 7:0.000988 8:0.611279 9:0.683316 10:0.035747 11:0.025385 12:0.024404 13:0.149694 14:1 15:1 16:1 17:0.004526 
32768 32768 32768 32768 32768 32768 32768 32768 32768 1:0.101195 2:0.2 3:0.817294 4:0.043361 5:0.004224 6:7e-06 7:0.001188 8:0.490433 9:0.391019 10:0.048408 11:0.007781 12:0.00635 13:0.033524 14:1 15:1 16:1 17:0.000949 
32768 0 0 0 0 5826.1810681642401 0 0 0 1:0.873723 2:1 3:0.887804 4:0.191909 5:4e-06 6:0.0161 7:0.150566 8:0.27291 9:0.550938 10:0.033078 11:0.005168 12:0.004988 13:0.012365 14:1 15:1 16:1 17:0.000991 
32768 32768 32768 3614.7937008672288 32768 26576.961934015562 0 0 32768 1:0.038614 2:1 3:0.821627 4:0.171763 5:0.280521 6:0.001525 7:0.01525 8:0.48137 9:0.730425 10:0.059859 11:0.009785 12:0.018886 13:0.291169 14:1 15:1 16:1 17:0.003289 
32768 0 0 29573.998369671001 29784.397176109764 0 0 0 0 1:0.452985 2:0.9 3:0.861427 4:0.12666 5:0 6:0.38 7:1.1e-05 8:0.53575 9:0.696432 10:0.039375 11:0.005916 12:0.006831 13:0.093139 14:1 15:1 16:1 17:0.000858 
32768 32768 32768 32768 32768 32768 0 32768 32768 1:0.8174 2:0.8 3:0.864953 4:0.084751 5:0 6:0.0141 7:0.043241 8:0.662638 9:0.622108 10:0.036811 11:0.009749 12:0.006473 13:0.059781 14:1 15:1 16:1 17:0.00248 
21024.336281806613 0 0 0 0 0 0 0 0 1:0.616295 2:0.4 3:0.896602 4:0.043672 5:2e-06 6:0 7:0.039721 8:0.110775 9:0.720814 10:0.057219 11:0.012089 12:0.009991 13:0.036547 14:1 15:1 16:1 17:0.001784 
32768 0 0 0 32768 32768 0 0 0 1:0.726573 2:0.68 3:0.8952 4:0.050934 5:0.001016 6:0 7:0.030661 8:0.543807 9:0.722869 10:0.034387 11:0.002115 12:0.002982 13:0.015926 14:1 15:1 16:1 17:0.000552 
32768 0 0 0 0 32438.068596020144 0 0 0 1:0.96443 2:0.9 3:0.919116 4:0.131743 5:0 6:0 7:0.001027 8:0.770393 9:0.78864 10:0.035139 11:0.003806 12:0.009096 13:0.01631 14:1 15:1 16:1 17:0.002942 
32768 0 0 0 0 0 0 0 0 1:0.955672 2:1 3:0.898683 4:0.156639 5:0 6:0.107 7:0.039678 8:0.222558 9:0.514878 10:0.079467 11:0.008526 12:0.010528 13:0.042532 14:1 15:1 16:1 17:0.002464 
15751.619785246054 0 0 0 0 0 0 0 0 1:0.339745 2:0.5 3:0.879163 4:0.041598 5:0 6:4e-05 7:0.004093 8:0.256798 9:0.833198 10:0.050796 11:0.003937 12:0.005221 13:0.028087 14:1 15:1 16:1 17:0.000889 
32768 0 0 0 0 0 0 0 0 1:0.921167 2:0.4 3:0.833624 4:0.073651 5:0 6:0.154 7:0.00286 8:0.632427 9:0.769953 10:0.026726 11:3e-06 12:4e-06 13:0.007898 14:1 15:0 16:0 17:5.4e-05 
24898.907227207954 0 0 0 0 0 0 0 0 1:0.809558 2:0.4 3:0.892077 4:0.169087 5:0 6:0.817 7:0.025553 8:0.378651 9:0.567206 10:0.046847 11:0.000755 12:0.001758 13:0.018322 14:1 15:1 16:1 17:0.000425 
32768 25803.366479094231 32768 32768 32768 32768 0 18364.340735841721 32768 1:0.627222 2:0.4 3:0.843331 4:0.195021 5:0 6:0.00708 7:0.016972 8:0.656596 9:0.287441 10:0.06506 11:0.004705 12:0.00619 13:0.014756 14:1 15:1 16:1 17:0.001409 
32768 32768 32768 32768 32768 32768 0 32768 32768 1:0.007762 2:0.44 3:0.77034 4:0.036722 5:0.295606 6:0.0698 7:0.0007 8:0.291037 9:0.478163 10:0.045121 11:0.02011 12:0.007893 13:0.041061 14:1 15:1 16:1 17:0.001522 
32768 32768 32768 32768 32768 32768 32768 32768 32768 1:0.512 2:1 3:0.89675 4:0.039004 5:0 6:5.2e-05 7:0.00286 8:0.330312 9:0.512158 10:0.040327 11:0.000672 12:0.00127 13:0.001553 14:0.4 15:0 16:1 17:0.000178 
32768 32768 32768 32768 30257.693631192382 32768 0 0 25189.903151620627 1:0.743677 2:1 3:0.821805 4:0.081017 5:0.0001 6:5.1e-05 7:0.063042 8:0.336354 9:0.587738 10:0.037434 11:0.000672 12:0.00127 13:0.073633 14:0 15:0 16:1 17:0.000178 
32768 32768 0 32768 32768 32768 0 0 0 1:0.028934 2:0.7 3:0.702867 4:0.038485 5:0.275389 6:2.4e-05 7:0.022185 8:0.551662 9:0.665574 10:0.044974 11:0.00012 12:8.9e-05 13:0.069268 14:1 15:0 16:0 17:3e-05 
32768 6490.2008613369744 0 0 32768 32768 0 0 0 1:0.00887 2:0 3:0.702974 4:0.039253 5:0.28243 6:3.1e-05 7:0.001558 8:0.269889 9:0.703787 10:0.043207 11:0.072119 12:0.073606 13:0.187642 14:1 15:1 16:1 17:0.002985 
32768 0 0 0 0 0 0 0 0 1:0.667628 2:0 3:0.915251 4:0.080602 5:0.000602 6:0 7:0.002144 8:0.270896 9:0.763802 10:0.05043 11:0.033631 12:0.017241 13:0.088793 14:1 15:1 16:1 17:0.002309 
32768 32768 0 32768 32768 32768 0 0 0 1:0.049431 2:0.7 3:0.81353 4:0.032261 5:0.608484 6:0.00279 7:0.000662 8:0.291843 9:0.397826 10:0.048346 11:0.009882 12:0.014986 13:0.043536 14:1 15:1 16:1 17:0.000257 
32768 32768 32768 32768 32768 32768 0 0 0 1:0.033076 2:1 3:0.801572 4:0.035062 5:0.560082 6:4e-06 7:0.001582 8:0.452568 9:0.336584 10:0.052291 11:0.032393 12:0.029072 13:0.034475 14:1 15:1 16:1 17:0.003438 
32768 32768 32768 32768 32768 32768 0 3773.3070111821926 9879.403574566928 1:0.10785 2:0.7 3:0.801308 4:0.033817 5:0.680353 6:0.00217 7:0.000887 8:0.454179 9:0.433657 10:0.047169 11:0.001054 12:0.020298 13:0.048394 14:1 15:1 16:1 17:0.000265 
32768 32768 32768 32768 32768 32768 0 0 0 1:0.065939 2:0 3:0.823556 4:0.037137 5:0.576615 6:0 7:0.073277 8:0.444109 9:0.331912 10:0.034281 11:0.000843 12:0.000551 13:0.011346 14:1 15:0.8 16:1 17:4.4e-05 
16507.750530209923 0 28776.139103738042 32768 0 32768 0 4743.97884481029 0 1:0.315821 2:0.48 3:0.846708 4:0.044191 5:0.058208 6:0 7:0.389015 8:0.270896 9:0.550729 10:0.070296 11:0.005177 12:0.010211 13:0.018527 14:0 15:0 16:0 17:0.001805 
0 32768 0 32768 32768 32768 0 0 0 1:0.080978 2:0.92 3:0.816334 4:0.051411 5:0.266561 6:0 7:0.011412 8:0.287009 9:0.320439 10:0.045376 11:0.000132 12:0.000143 13:0.064451 14:0 15:0 16:0 17:5.2e-05 
32768 32768 32768 32768 32768 32768 32768 32768 32768 1:0.105824 2:0.66 3:0.750616 4:0.04834 5:0.145618 6:0.0457 7:0.010938 8:0.500826 9:0.529999 10:0.055587 11:0.003523 12:0.003702 13:0.018065 14:0 15:0 16:0 17:0.000419 
32768 32768 32768 32768 32768 32768 25662.899872824648 32768 32768 1:0.168825 2:0.1 3:0.822294 4:0.053734 5:0.226571 6:0.0163 7:0.000372 8:0.039376 9:0.443819 10:0.024332 11:1.1e-05 12:4.3e-05 13:0.005505 14:1 15:1 16:1 17:1e-06 
9247.7215003804649 0 9317.2918785496167 0 0 0 0 0 0 1:0.002097 2:0 3:0.630756 4:0.067739 5:0.742748 6:0.360874 7:0.0199 8:0.224572 9:0.310915 10:0.025829 11:0.000387 12:0.000744 13:0.0085 14:1 15:1 16:1 17:5.9e-05 
32768 32768 32768 24522.866867817542 32768 32768 0 8669.6920019941681 32768 1:0.045499 2:1 3:0.84229 4:0.032676 5:0.253072 6:0 7:0.007367 8:0.175227 9:0.46936 10:0.046167 11:0.020116 12:0.016356 13:0.049228 14:1 15:0.4 16:0.4 17:0.002879 
32768 0 0 0 32768 0 0 0 0 1:0.442451 2:0.9 3:0.859155 4:0.059959 5:0.166557 6:0 7:0.000588 8:0.784693 9:0.833851 10:0.035672 11:0.000287 12:0.000205 13:0.004815 14:1 15:0 16:1 17:3.1e-05 
32768 0 0 0 32768 32768 0 0 0 1:0.10629 2:0.7 3:0.758496 4:0.032946 5:0.054663 6:0.00332 7:0.002484 8:0.164149 9:0.635443 10:0.045291 11:0.006461 12:0.005149 13:0.031975 14:1 15:1 16:1 17:0.000591 
24975.001027290506 0 0 0 0 0 0 0 0 1:0 2:0.3 3:0.17054 4:0.045124 5:0.996991 6:0.844 7:0.00116 8:0.215791 9:0.297158 10:0.026251 11:7e-06 12:1.1e-05 13:0.004809 14:0 15:1 16:0.8 17:0 
32768 32768 32768 32768 32768 32768 0 0 0 1:0.110592 2:0.44 3:0.806712 4:0.029253 5:0.288693 6:2e-06 7:0.001725 8:0.137966 9:0.414822 10:0.040948 11:0.024207 12:0.016873 13:0.076431 14:1 15:1 16:1 17:0.003108 
32768 32768 32768 32768 32768 32768 32768 32768 32768 1:0.170954 2:1 3:0.764363 4:0.133817 5:0.009108 6:0.00437 7:0.034325 8:0.399799 9:0.394536 10:0.022231 11:0.006246 12:0.000655 13:0.030541 14:1 15:1 16:1 17:3.5e-05 
32768 32768 0 0 32768 32768 0 0 0 1:0.02499 2:0.2 3:0.819031 4:0.032469 5:0.61282 6:3.2e-05 7:0.004248 8:0.344411 9:0.615896 10:0.051016 11:0.032916 12:0.017201 13:0.071041 14:1 15:1 16:1 17:0.001651 
0 0 0 0 24244.389640791342 0 0 0 0 1:0.187149 2:0.1 3:0.816334 4:0.039108 5:0.266561 6:0 7:0.007997 8:0.287009 9:0.320439 10:0.045376 11:0.002063 12:2e-06 13:0.064451 14:0 15:0 16:0 17:1e-06 
32768 13368.00826886355 32768 32768 32768 32768 14010.353856541533 22696.360409061443 14191.026077898561 1:0.384107 2:0 3:0.854363 4:0.033817 5:0.095966 6:0.0024 7:0.527513 8:0.50433 9:0.529081 10:0.046481 11:0.000278 12:0.018034 13:0.041492 14:1 15:0 16:0 17:0.003053 
32768 0 0 0 10810.979900041111 0 0 0 0 1:0.05401 2:0.1 3:0.748577 4:0.034129 5:0.316834 6:0 7:0.000751 8:0.30002 9:0.401526 10:0.096586 11:0.057818 12:0.067725 13:0.028029 14:1 15:0.6 16:1 17:0.01039 
32768 32768 32768 32768 32768 32768 0 0 1560.7256046648008 1:0.170791 2:0.7 3:0.805132 4:0.16805 5:0.054663 6:0.000254 7:0.001478 8:0.187311 9:0.728017 10:0.030418 11:0.003529 12:0.003483 13:0.002902 14:0 15:0 16:1 17:7.3e-05 
32768 32768 32768 32768 32768 32768 0 32768 32768 1:0.109902 2:0.4 3:0.857519 4:0.029668 5:0.389828 6:0.000105 7:0.08231 8:0.36717 9:0.50251 10:0.060755 11:0.012516 12:0.01758 13:0.008872 14:0 15:1 16:1 17:0.001678 
32768 32768 32768 32768 32768 32768 32768 32768 32768 1:0.25484 2:0 3:0.814019 4:0.034751 5:0 6:0 7:0.015066 8:0.333333 9:0.389252 10:0.04619 11:0.003736 12:0.004058 13:0.08509 14:1 15:0.8 16:1 17:0.000483 
32768 0 0 0 23655.410459097664 32768 0 0 0 1:0.976191 2:0.4 3:0.899554 4:0.10249 5:3e-06 6:0.113 7:0.578008 8:0.376636 9:0.557961 10:0.034312 11:0.012897 12:0.009647 13:0.055866 14:1 15:1 16:1 17:0.001471 
32768 32768 32768 32768 32768 32768 32768 32768 32768 1:0.881974 2:0.1 3:0.919605 4:0.065041 5:1e-06 6:0.000953 7:0.069424 8:0.933535 9:0.664814 10:0.031434 11:0.007565 12:0.004443 13:0.032751 14:1 15:1 16:1 17:0.000767 
32768 32768 32768 32768 32768 32768 32768 32768 32768 1:0.370576 2:0.9 3:0.842077 4:0.095747 5:0.008719 6:0 7:0.001858 8:0.593152 9:0.477823 10:0.047975 11:0.00254 12:0.002206 13:0.023115 14:1 15:1 16:1 17:0.000437 
0 0 0 0 0 0 0 0 4802.7977608088449 1:0.000224 2:0.4 3:0.504545 4:0.043257 5:0.970181 6:0.685 7:0.00144 8:0.037462 9:0.397255 10:0.007352 11:0 12:0.000407 13:0.002634 14:1 15:1 16:1 17:0 
32768 0 0 0 0 0 0 0 0 1:0.000404 2:0.4 3:0.505374 4:0.045332 5:0.777872 6:0.947 7:0.000884 8:0.146868 9:0.581513 10:0.031502 11:8e-06 12:2.6e-05 13:0.007285 14:1 15:1 16:1 17:2.1e-05 
32768 32768 24733.636976594444 32768 32768 32768 0 0 32768 1:0.382657 2:0.9 3:0.737256 4:0.046577 5:0 6:0.0113 7:0.000976 8:0.429003 9:0.547743 10:0.086133 11:0.008651 12:0.009241 13:0.046923 14:0.8 15:1 16:1 17:0.00184 
32768 32768 32768 32768 32768 32768 32768 32768 32768 1:0.700227 2:0.2 3:0.857498 4:0.097822 5:0 6:0.00442 7:0.001518 8:0.558912 9:0.580897 10:0.060281 11:0.00661 12:0.004626 13:0.025066 14:1 15:1 16:1 17:0.002104 
32768 32768 0 32768 32768 32768 0 0 0 1:0.868251 2:0.7 3:0.833581 4:0.074896 5:0 6:0.000614 7:0.00013 8:0.63142 9:0.644688 10:0.045349 11:0.004008 12:0.004554 13:0.018579 14:0.8 15:1 16:1 17:0.001039 
32768 32768 32768 32768 32768 32768 32768 32768 32768 1:0.533412 2:1 3:0.828675 4:0.064419 5:0 6:0.00102 7:0.001188 8:0.483182 9:0.496187 10:0.033862 11:1e-06 12:0.003613 13:0.008514 14:1 15:0 16:0 17:2e-06 
32768 32768 32768 32768 32768 32768 32768 32768 32768 1:0.079507 2:0.9 3:0.715527 4:0.029876 5:0.16474 6:0.001726 7:0.006642 8:0.550856 9:0.480349 10:0.036661 11:0.00806 12:0.008764 13:0.178646 14:1 15:1 16:1 17:0.001244 
32768 32768 32768 32768 32768 32768 0 0 32768 1:0.028373 2:0.2 3:0.751317 4:0.030913 5:0.668769 6:0.00368 7:0.049428 8:0.467271 9:0.600176 10:0.032899 11:0.001644 12:0.001687 13:0.063687 14:1 15:1 16:1 17:0.000387 
32768 0 0 0 0 32768 0 0 0 1:0.004742 2:1 3:0.687298 4:0.034855 5:0.775328 6:0.000223 7:0.001599 8:0.260826 9:0.602699 10:0.061731 11:0.002608 12:0.002832 13:0.017411 14:1 15:1 16:1 17:0.000467 
32768 32768 32768 32768 32768 32768 0 0 0 1:0.000668 2:0.7 3:0.579227 4:0.042946 5:0.7477 6:3e-06 7:0.00144 8:0.48137 9:0.365753 10:0.018287 11:0.000646 12:0.000426 13:0.001821 14:1 15:0 16:0 17:5.6e-05 
32768 32768 32768 32768 32768 32768 0 21725.358750620147 32768 1:0.006128 2:0.3 3:0.779694 4:0.042137 5:0.645998 6:0.000234 7:0.000807 8:0.566364 9:0.56147 10:0.044145 11:0.014738 12:0.011436 13:0.025445 14:0 15:0 16:0 17:0.000243 
32768 32768 32768 32768 32768 32768 0 0 0 1:0.070445 2:0.22 3:0.717481 4:0.032573 5:0.114751 6:5e-06 7:0.041419 8:0.315206 9:0.586612 10:0.050046 11:0.000438 12:0.000545 13:0.023589 14:1 15:1 16:1 17:8.2e-05 
32768 0 0 0 0 0 0 0 0 1:0.138479 2:0.7 3:0.824868 4:0.035373 5:0.293627 6:0 7:0.001027 8:0.154079 9:0.70898 10:0.041127 11:0.002106 12:0.003913 13:0.015616 14:1 15:0 16:0 17:0.000182 
32768 32768 32768 0 32768 32768 0 0 0 1:0.187149 2:0.48 3:0.816334 4:0.039108 5:0.266561 6:0.214803 7:0.007997 8:0.287009 9:0.320439 10:0.048614 11:0.000132 12:0.000143 13:0.064451 14:0.6 15:0 16:0 17:5.2e-05 
32768 0 0 0 0 0 0 0 0 1:0.001405 2:1 3:0.657222 4:0.037552 5:0.892643 6:0.000104 7:0.000303 8:0.154079 9:0.554267 10:0.043151 11:0.000497 12:0.003117 13:0.005188 14:1 15:1 16:1 17:0.000178 
32768 0 0 0 0 32768 0 0 0 1:0.008615 2:0.7 3:0.657094 4:0.031432 5:0.604169 6:0 7:0.001027 8:0.16717 9:0.335232 10:0.034279 11:2e-06 12:0.004921 13:0.039554 14:1 15:1 16:1 17:0 
32768 0 0 0 32768 21849.738179652508 0 0 0 1:0.040354 2:1 3:0.706415 4:0.039938 5:0.52994 6:0 7:0.016201 8:0.618731 9:0.757281 10:0.032565 11:0.006044 12:0.003438 13:0.040773 14:1 15:0 16:0.4 17:0.000851 
32768 0 0 0 0 32768 0 0 0 1:0.054872 2:0.48 3:0.689146 4:0.034959 5:0.307135 6:0 7:0.054437 8:0.410876 9:0.692339 10:0.040866 11:0.000299 12:0.000188 13:0.03781 14:0.8 15:0 16:0 17:7.8e-05 
32768 0 0 0 0 32768 0 0 0 1:0.003944 2:0.4 3:0.621071 4:0.036618 5:0.859552 6:0.00106 7:0.000598 8:0.401007 9:0.349975 10:0.037371 11:0.001777 12:1.4e-05 13:0.025569 14:1 15:1 16:1 17:0 
32768 0 0 0 0 30028.379190618027 0 0 0 1:0.012978 2:0.58 3:0.73785 4:0.033506 5:0.625952 6:0.084685 7:0.000323 8:0.265861 9:0.30702 10:0.041294 11:0.009147 12:0.006568 13:0.018003 14:1 15:1 16:1 17:0.002473 
32768 32768 32768 32768 32768 32768 32768 32768 32768 1:0.143878 2:0.2 3:0.807829 4:0.030394 5:0.112631 6:0.00116 7:0.001292 8:0.599194 9:0.676873 10:0.037318 11:0.012218 12:0.005458 13:0.036607 14:0.6 15:1 16:1 17:0.000549 
32768 32768 32768 32768 32768 32768 0 1412.550308441542 32768 1:0.208528 2:0.7 3:0.813084 4:0.040456 5:0.180612 6:0.0235 7:0.002045 8:0.276939 9:0.367836 10:0.035165 11:0.004439 12:0.004482 13:0.054551 14:1 15:0 16:0 17:0.000654 
32768 0 0 0 0 10736.869401699547 0 0 0 1:0.003308 2:0.9 3:0.703483 4:0.034855 5:0.713497 6:0.0271 7:0.001558 8:0.10574 9:0.425961 10:0.038291 11:5.8e-05 12:0.000125 13:0.009638 14:1 15:1 16:1 17:6e-06 
5937.9922089265219 0 0 0 0 0 0 0 0 1:0.087528 2:0.2 3:0.77534 4:0.0389 5:0.666469 6:0.00548 7:0.007075 8:0.136959 9:0.276252 10:0.036834 11:8e-05 12:9.8e-05 13:0.007841 14:1 15:0 16:0 17:1.9e-05 
32768 0 0 0 0 0 0 0 0 1:0.134218 2:0.7 3:0.736512 4:0.035581 5:0.835277 6:0.888 7:0.001997 8:0.151923 9:0.452591 10:0.072137 11:2.5e-05 12:3e-05 13:0.001577 14:1 15:1 16:1 17:7e-06 
32768 0 0 0 0 0 0 0 0 1:0.000417 2:0 3:0.468352 4:0.045332 5:0.867746 6:0.935 7:0.000932 8:0.126888 9:0.483564 10:0.052952 11:8e-06 12:1.5e-05 13:0.000718 14:1 15:1 16:1 17:2e-06 
32768 32768 0 11611.023991480015 32768 32768 0 0 0 1:0.187149 2:0.1 3:0.816334 4:0.039108 5:0.266561 6:0 7:0.007997 8:0.287009 9:0.320439 10:0.045376 11:0.006705 12:0.000143 13:0.064451 14:1 15:0 16:0.8 17:5.2e-05 
32768 32768 32768 32768 32768 32768 32768 32768 32768 1:0.187149 2:0.1 3:0.816334 4:0.076494 5:0.266561 6:0 7:0.007997 8:0.716415 9:0.320439 10:0.045376 11:2.2e-05 12:2.4e-05 13:0.064451 14:0 15:0 16:0 17:1.2e-05 
32768 32768 0 0 32768 32768 0 0 0 1:0.275894 2:0.4 3:0.847557 4:0.042946 5:0.000718 6:0 7:0.005317 8:0.397784 9:0.707193 10:0.040377 11:0.003695 12:0.002572 13:0.020114 14:1 15:1 16:1 17:0.000524 
32768 32768 32768 32768 32768 32768 32768 32768 32768 1:0.334854 2:0 3:0.872005 4:0.060892 5:0.321052 6:6e-06 7:0.026997 8:0.705337 9:0.382086 10:0.084442 11:0.0007 12:0.001128 13:0.003594 14:1 15:0 16:0 17:0.00014 
32768 32768 32768 32768 32768 17530.251010426105 32768 32768 0 1:0.702595 2:0.1 3:0.811512 4:0.34751 5:0.019049 6:1.5e-05 7:0.005085 8:0.670695 9:0.351766 10:0.021865 11:0.001462 12:0.004445 13:0.035066 14:1 15:0 16:0 17:0.000277 
32768 32768 32768 32768 32768 32768 0 32768 32768 1:0.043987 2:0.8 3:0.824979 4:0.029876 5:0.025198 6:0 7:0.022591 8:0.680765 9:0.695351 10:0.036482 11:0.009921 12:0.005532 13:0.021205 14:1 15:1 16:1 17:0.000612 
32768 32768 32768 32768 32768 32768 4369.1045140141123 32768 32768 1:0.470911 2:1 3:0.878929 4:0.093257 5:0.00739 6:2.6e-05 7:0.000844 8:0.344411 9:0.345286 10:0.056557 11:0.000464 12:0.000671 13:0.001964 14:0.4 15:1 16:1 17:0.000126 
32768 32768 32768 32768 32768 32768 25991.665915378617 32768 32768 1:0.092345 2:0.7 3:0.795285 4:0.033817 5:0.1739 6:0 7:0.010626 8:0.309164 9:0.424305 10:0.032469 11:0.054076 12:0.041806 13:0.019362 14:1 15:0 16:0.4 17:0.007066 
32768 0 0 0 0 0 0 0 0 1:0.172809 2:0.7 3:0.768585 4:0.034232 5:0.013473 6:1.9e-05 7:0.03793 8:0.639476 9:0.862683 10:0.043141 11:0.002072 12:0.041806 13:0.003291 14:1 15:0 16:0.2 17:0.007066 
32768 32768 32768 32768 32768 32768 32768 32768 32768 1:0.240642 2:0.4 3:0.806988 4:0.034855 5:0.00978 6:4.5e-05 7:0.000707 8:0.613696 9:0.606673 10:0.041851 11:0.001626 12:0.002762 13:0.08202 14:1 15:0 16:0 17:0.000483 
32768 32768 32768 0 32768 32768 0 0 9618.8579650619049 1:0.283593 2:0.2 3:0.842986 4:0.037137 5:0.001043 6:3e-06 7:0.002983 8:0.500906 9:0.729242 10:0.035026 11:0.003511 12:0.000291 13:0.020104 14:0 15:0 16:0.6 17:5.5e-05 
32768 0 0 0 32768 32768 0 0 0 1:0.452985 2:0.38 3:0.823513 4:0.040145 5:0 6:0.301 7:0.001058 8:0.352467 9:0.697997 10:0.05547 11:0.013642 12:0.009742 13:0.070404 14:0.8 15:1 16:1 17:0.001257 
32768 32768 32768 32768 32768 32768 0 32768 32768 1:0.262144 2:0.9 3:0.854524 4:0.031224 5:0 6:4.4e-05 7:0.004739 8:0.635448 9:0.306268 10:0.071105 11:0.008945 12:0.005754 13:0.047619 14:1 15:1 16:1 17:0.001383 
32768 32768 32768 32768 32768 32768 0 32768 32768 1:0.034646 2:0.7 3:0.786151 4:0.040041 5:0.652775 6:0 7:0.006965 8:0.549849 9:0.373908 10:0.031428 11:0.002703 12:0.003394 13:0.033117 14:1 15:1 16:1 17:0.000431 
32768 32768 32768 32768 32768 32768 0 32768 32768 1:0.125752 2:1 3:0.74246 4:0.07583 5:0.476607 6:0 7:0.007282 8:0.536556 9:0.650642 10:0.029714 11:0.005736 12:0.009175 13:0.093534 14:1 15:0 16:0 17:0.000928 
32768 22707.807210163784 2097.8453341789132 11777.084496539988 32768 32768 3036.5034014495886 25615.018613948992 1586.096733286571 1:0.017985 2:1 3:0.710556 4:0.035477 5:0.814087 6:0.842 7:0.003595 8:0.379658 9:0.490558 10:0.022817 11:3e-06 12:1.3e-05 13:0.005675 14:1 15:0 16:0 17:0.000792 
32768 32768 32768 32768 32768 32768 17050.414466695333 32768 32768 1:0.194105 2:0.44 3:0.83407 4:0.029668 5:0.106426 6:0.00055 7:0.0105 8:0.383686 9:0.487251 10:0.058034 11:0.004097 12:0.002779 13:0.024453 14:1 15:0.8 16:1 17:0.000926 
32768 32768 32768 32768 32768 32768 0 6191.3085938961267 32768 1:0.109215 2:0.7 3:0.783369 4:0.09222 5:0.070142 6:7.2e-05 7:0.000536 8:0.187311 9:0.387074 10:0.066018 11:0.005876 12:0.004016 13:0.055168 14:1 15:1 16:1 17:0.000826 
32768 4056.7290288645863 0 0 32768 32768 0 0 0 1:0.056182 2:1 3:0.768479 4:0.035996 5:0.382505 6:0 7:0.026728 8:0.455186 9:0.714092 10:0.035199 11:0.011785 12:0.017719 13:0.056434 14:1 15:1 16:1 17:0.000324 
32768 0 0 22607.503127330718 32768 32768 0 0 0 1:0.027271 2:0.9 3:0.730841 4:0.031701 5:0.460258 6:0 7:0.016372 8:0.439074 9:0.269086 10:0.028062 11:0.001133 12:0.00129 13:0.017341 14:1 15:0 16:0 17:0.00021 
32768 32768 32768 32768 32768 32768 0 32768 32768 1:0.042144 2:0.5 3:0.799065 4:0.030394 5:0.165647 6:0.0133 7:0.037257 8:0.330312 9:0.359244 10:0.03268 11:0.009367 12:0.0106 13:0.140149 14:1 15:0 16:0 17:0.001291 
32768 0 0 0 32768 32768 0 0 0 1:0.045118 2:0 3:0.81181 4:0.031432 5:0.306841 6:0 7:0.005934 8:0.429003 9:0.715678 10:0.034432 11:0.000412 12:0.000544 13:0.022578 14:1 15:0 16:0 17:5.3e-05 
32768 0 0 0 0 31673.644980332836 0 0 0 1:0.014527 2:0.8 3:0.712222 4:0.031432 5:0.385688 6:0.053643 7:0.094816 8:0.515609 9:0.712937 10:0.031786 11:0.000411 12:0.000389 13:0.015802 14:1 15:0 16:0 17:4.6e-05 
32768 0 0 0 32768 32768 0 0 0 1:0.086351 2:0.4 3:0.728059 4:0.037033 5:0.089187 6:1e-05 7:0.003305 8:0.511581 9:0.723929 10:0.026198 11:2e-06 12:4e-06 13:0.001609 14:1 15:0 16:0 17:1e-06 
32768 0 0 0 0 0 0 0 0 1:0.001295 2:0.7 3:0.528781 4:0.061929 5:0.737818 6:0.867 7:0.000439 8:0.309164 9:0.308252 10:0.02648 11:0.002541 12:0.006278 13:0.086552 14:1 15:1 16:1 17:0.000665 
1602.4240809432899 0 0 0 0 0 0 0 0 1:0.00074 2:0 3:0.350276 4:0.046162 5:0.990991 6:0.888 7:0.000181 8:0.089265 9:0.335355 10:0.02907 11:0.001303 12:1e-05 13:0.02611 14:1 15:1 16:1 17:0.000156 
32768 0 0 0 9739.7921128851103 32768 0 0 0 1:0.00301 2:0.7 3:0.504567 4:0.074689 5:0.976097 6:0.916 7:0.001116 8:0.41994 9:0.402992 10:0.026368 11:0.002541 12:0.006278 13:0.01378 14:1 15:1 16:1 17:0.000665 
32768 32768 32768 32768 32768 32768 32768 32768 32768 1:0.373248 2:0.8 3:0.864698 4:0.034232 5:0.000658 6:0.000288 7:0.022662 8:0.557905 9:0.580523 10:0.068292 11:0.046556 12:0.038523 13:0.015688 14:1 15:1 16:1 17:0.004016 
32768 32768 32768 32768 32768 32768 32768 32768 32768 1:0.131872 2:0.5 3:0.845901 4:0.075581 5:0.106871 6:0.000964 7:0.055303 8:0.293051 9:0.528483 10:0.047453 11:0.000535 12:0.000827 13:0.023791 14:1 15:0 16:0 17:0.000176 
32768 13175.968528406958 0 0 0 32768 0 0 0 1:0.101195 2:0 3:0.802846 4:0.036743 5:0.154115 6:1.6e-05 7:0.184218 8:0.132931 9:0.566926 10:0.043823 11:0.002348 12:0.001348 13:0.017621 14:1 15:1 16:1 17:0.000169 
32768 32768 0 0 0 32768 0 0 0 1:0.030371 2:0.9 3:0.623046 4:0.037967 5:0.495686 6:0 7:0.014764 8:0.364552 9:0.642477 10:0.039252 11:0.00017 12:0.000273 13:0.019894 14:0.6 15:0 16:0 17:5.8e-05 
32768 32768 32768 32768 32768 32768 0 32768 32768 1:0.097406 2:0.5 3:0.810939 4:0.027801 5:0.390496 6:1e-05 7:0.001058 8:0.434038 9:0.451872 10:0.042269 11:0.003175 12:0.002513 13:0.017111 14:1 15:1 16:1 17:0.000344 
32768 0 0 0 32768 32768 0 0 0 1:0.124251 2:0.2 3:0.749342 4:0.071058 5:0.000455 6:1.4e-05 7:0.006657 8:0.369587 9:0.702903 10:0.065139 11:0.007628 12:0.006308 13:0.050453 14:1 15:1 16:1 17:0.001096 
32768 32768 32768 32768 32768 32768 0 0 0 1:0.25124 2:0.2 3:0.860574 4:0.040062 5:0.114751 6:0 7:0.030831 8:0.344411 9:0.32929 10:0.05295 11:0.004036 12:0.002524 13:0.010262 14:1 15:1 16:1 17:0.000674 
32768 32768 32768 32768 32768 32768 32768 32768 32768 1:0.052734 2:0.16 3:0.676338 4:0.028216 5:0.002837 6:0.000269 7:0.001292 8:0.514602 9:0.470342 10:0.043981 11:2.6e-05 12:6.5e-05 13:0.023751 14:1 15:0 16:0 17:1.5e-05 
32768 32768 32768 32768 32768 32768 32768 32768 32768 1:0.146363 2:1 3:0.803505 4:0.052593 5:0.091614 6:0 7:0.02837 8:0.305136 9:0.457761 10:0.04626 11:0.004142 12:2.7e-05 13:0.016515 14:1 15:1 16:1 17:0 
24537.719268255085 0 22111.072259723333 0 32768 32768 0 32768 20023.375392738024 1:0.57593 2:0 3:0.73955 4:0.41805 5:0.000628 6:0 7:0.032595 8:0.355488 9:0.601359 10:0.065028 11:0.04279 12:0.03574 13:0.108259 14:0.4 15:1 16:1 17:4e-06 
32768 0 0 0 0 17159.421359073436 0 0 0 1:0.032157 2:0 3:0.650935 4:0.042635 5:0.884292 6:0.897 7:0.000927 8:0.189325 9:0.403378 10:0.090323 11:0.000104 12:0.00016 13:0.018352 14:1 15:0 16:0 17:4e-05 
32768 0 0 0 0 0 0 0 0 1:0.048627 2:0.7 3:0.687935 4:0.036929 5:0.806234 6:0.907 7:0.00491 8:0.126888 9:0.374682 10:0.033553 11:4e-06 12:3.1e-05 13:0.008836 14:1 15:1 16:1 17:0 
32768 32768 0 0 32768 32768 0 0 0 1:0.026198 2:0.7 3:0.665123 4:0.038382 5:0.798432 6:0.17503 7:0.030956 8:0.280967 9:0.574655 10:0.0934 11:0 12:0.005746 13:0.001672 14:1 15:0 16:0 17:1e-06 
2410.6197663060093 0 0 0 0 0 0 0 0 1:0.004657 2:0.7 3:0.537086 4:0.057573 5:0.912333 6:0.818 7:0.000688 8:0.255791 9:0.419517 10:0.130758 11:4.9e-05 12:9e-05 13:0.000988 14:1 15:1 16:1 17:2.6e-05 
32768 32768 23627.96219480181 32768 32768 32768 0 0 9223.0651162842369 1:0.091125 2:1 3:0.816317 4:0.035062 5:0.713497 6:0.14 7:0.034643 8:0.588318 9:0.438132 10:0.040689 11:0.002643 12:0.002112 13:0.005072 14:1 15:0 16:1 17:0.000257 
32768 32768 32768 32768 32768 32768 32768 32768 32768 1:0.273359 2:0 3:0.872005 4:0.060892 5:0.038997 6:7e-06 7:0.026997 8:0.785498 9:0.382086 10:0.084442 11:0.0007 12:0.001128 13:0.003594 14:1 15:0 16:0 17:0.00014 
32768 32768 32768 32768 32768 32768 0 0 0 1:0.013652 2:0.7 3:0.653059 4:0.035892 5:0.755168 6:0.000213 7:0.002109 8:0.29708 9:0.405379 10:0.016617 11:0.000952 12:0.000199 13:0.009428 14:0.8 15:1 16:1 17:2e-06 
32768 32768 32768 32768 32768 32768 0 0 32768 1:0.188015 2:0 3:0.65788 4:0.030913 5:0.207406 6:7.1e-05 7:0.011388 8:0.298087 9:0.387666 10:0.025788 11:5.5e-05 12:6.3e-05 13:0.024612 14:1 15:1 16:1 17:1e-06 
32768 32768 0 0 32768 32768 0 0 0 1:0.069321 2:0.32 3:0.694541 4:0.03195 5:0.153845 6:0 7:0.032154 8:0.379658 9:0.326237 10:0.049475 11:0.002019 12:0.001583 13:0.018729 14:1 15:0 16:0.4 17:0.000423 
32768 32768 32768 32768 32768 32768 0 0 0 1:0.20433 2:0.7 3:0.718904 4:0.031432 5:0.248282 6:2e-06 7:0.005449 8:0.282981 9:0.387637 10:0.054613 11:0.000121 12:0.000297 13:0.032063 14:1 15:0 16:1 17:3e-05 
0 0 0 32768 0 32768 0 0 0 1:0.010078 2:0.3 3:0.709813 4:0.035581 5:0.456676 6:3e-06 7:0.149719 8:0.284995 9:0.491305 10:0.042138 11:0.00034 12:0.000277 13:0.008404 14:1 15:0 16:0 17:3.7e-05 
32768 32768 32768 32768 32768 32768 0 32768 32768 1:0.887504 2:0.2 3:0.862086 4:0.072842 5:1.4e-05 6:9e-06 7:0.001948 8:0.494461 9:0.559567 10:0.026998 11:0.002795 12:0.002931 13:0.076238 14:1 15:1 16:1 17:0.001715 
32768 32768 32768 32768 32768 32768 32768 32768 32768 1:0.367062 2:0.68 3:0.862319 4:0.069585 5:5.6e-05 6:3.2e-05 7:0.004408 8:0.547835 9:0.581872 10:0.083247 11:0.000217 12:0.000412 13:0.015979 14:1 15:1 16:1 17:0.000109 
10502.51721162307 0 0 0 0 0 0 0 0 1:0.034966 2:0.52 3:0.776249 4:0.032158 5:1e-06 6:0.86 7:0.000376 8:0.4572 9:0.722754 10:0.049859 11:0.01783 12:0.013276 13:0.018831 14:1 15:1 16:1 17:0.001947 
32768 0 0 0 0 32768 0 0 0 1:0.000355 2:0 3:0.364359 4:0.038817 5:0.952577 6:0.927 7:0.001292 8:0.189325 9:0.53613 10:0.028316 11:0.000252 12:0.000662 13:0.002372 14:0 15:1 16:1 17:3e-06 
0 0 0 0 21954.848284026044 0 0 0 0 1:0 2:0 3:0.752587 4:0.04668 5:0.81935 6:0.0318 7:0.003683 8:0.049849 9:0.432654 10:0.037723 11:0 12:0 13:0.003229 14:1 15:0 16:0 17:0 
32768 32768 32768 32768 32768 32768 32768 32768 32768 1:0.310289 2:0.2 3:0.85856 4:0.035892 5:1e-06 6:0.00366 7:0.019483 8:0.196375 9:0.425043 10:0.045546 11:0.050686 12:0.036562 13:0.077222 14:1 15:1 16:1 17:0.005213 
32768 11288.278031147827 0 32768 32768 32768 0 0 0 1:0.681472 2:0.54 3:0.854206 4:0.052282 5:2e-06 6:4e-06 7:0.000436 8:0.258812 9:0.560234 10:0.057931 11:0.042133 12:0.005453 13:0.03376 14:1 15:1 16:1 17:0.003539 
32768 32768 32768 32768 32768 32768 30828.438132686893 32768 30777.521856816493 1:0.335702 2:0 3:0.860132 4:0.040249 5:3.3e-05 6:0.000209 7:0.00329 8:0.166163 9:0.405919 10:0.044892 11:2.7e-05 12:5e-05 13:0.021831 14:1 15:0 16:1 17:0.000781 
32768 30165.446604125518 0 0 30975.670468668701 32768 0 0 0 1:0.191103 2:0.7 3:0.88254 4:0.033402 5:0 6:4e-06 7:0.039999 8:0.13998 9:0.56548 10:0.053155 11:0.00591 12:0.007496 13:0.016871 14:1 15:1 16:1 17:0.000715 
32768 32768 0 32768 32768 32768 0 0 0 1:0.778688 2:0.8 3:0.882897 4:0.084958 5:0 6:0 7:0.030811 8:0.378651 9:0.574916 10:0.043079 11:0.034441 12:0.026665 13:0.084426 14:1 15:1 16:1 17:0.001232 
32768 32768 32768 32768 32768 32768 32768 32768 32768 1:0.432081 2:0.4 3:0.894881 4:0.056432 5:0 6:2.1e-05 7:0.032459 8:0.478348 9:0.460579 10:0.060079 11:0.009646 12:0.006476 13:0.010851 14:1 15:1 16:1 17:0.000831 
32768 32768 32768 32768 32768 32768 0 32768 32768 1:0.753571 2:0.5 3:0.912978 4:0.137967 5:0 6:0.000955 7:0.003793 8:0.64854 9:0.666687 10:0.032098 11:0.010661 12:0.007335 13:0.043159 14:1 15:1 16:1 17:0.000862 
32768 0 0 0 0 0 0 0 0 1:0.756058 2:0.9 3:0.884269 4:0.113257 5:0 6:3e-06 7:0.006125 8:0.473313 9:0.754134 10:0.062514 11:0.002519 12:0.003709 13:0.024863 14:1 15:1 16:1 17:5.7e-05 
32768 32768 32768 32768 32768 32768 32768 32768 32768 1:0.445944 2:1 3:0.89418 4:0.041701 5:0.000185 6:4.4e-05 7:0.001813 8:0.220544 9:0.49505 10:0.042733 11:0.014549 12:0.012447 13:0.048041 14:1 15:1 16:1 17:0.001845 
32768 32768 32768 32768 32768 32768 32453.833788357548 32768 32768 1:0.185193 2:0.3 3:0.736852 4:0.045747 5:0.124248 6:0.0124 7:0.002094 8:0.521853 9:0.333974 10:0.040591 11:0.001042 12:0.001271 13:0.01796 14:1 15:1 16:1 17:0.000322 
32768 32768 0 4801.8339703748488 32768 32768 0 0 0 1:0.278445 2:0.7 3:0.820157 4:0.027386 5:0 6:0.106 7:0.010215 8:0.287009 9:0.301567 10:0.052088 11:0.000741 12:0.000978 13:0.007329 14:1 15:1 16:1 17:9.3e-05 
32768 32768 32768 32768 32768 32768 32768 32768 32768 1:0.020124 2:0.2 3:0.690956 4:0.038174 5:0.132682 6:2e-05 7:0.018188 8:0.512588 9:0.488146 10:0.039984 11:2.4e-05 12:6.6e-05 13:0.004305 14:1 15:0 16:0 17:7e-06 
32768 0 0 0 32768 32768 0 0 0 1:0.047046 2:0.9 3:0.676572 4:0.051763 5:0.244729 6:0.00119 7:0.003649 8:0.616314 9:0.771293 10:0.026784 11:0.001411 12:0.002251 13:0.054271 14:1 15:1 16:1 17:3.1e-05 
32768 0 0 0 32768 32768 0 0 0 1:0.013909 2:0.58 3:0.608921 4:0.03444 5:0.395683 6:4e-06 7:0.004824 8:0.125881 9:0.526211 10:0.03076 11:0.000489 12:0.002592 13:0.02587 14:1 15:1 16:1 17:7.2e-05 
32768 32768 0 0 32768 32768 0 0 0 1:0.015438 2:0.1 3:0.7315 4:0.028734 5:0.666469 6:5.1e-05 7:0.003509 8:0.204431 9:0.538461 10:0.037271 11:0.007928 12:0.008365 13:0.029063 14:1 15:1 16:1 17:0.001665 
31415.112134960211 0 0 0 0 0 0 0 0 1:0.029791 2:0.8 3:0.762935 4:0.030394 5:0.526005 6:1.8e-05 7:0.001328 8:0.094864 9:0.559029 10:0.049551 11:4e-06 12:0.003792 13:0.002207 14:1 15:1 16:1 17:3e-06 
32768 32768 32768 32768 32768 32768 32768 32768 32768 1:0.442451 2:0.6 3:0.884796 4:0.275934 5:0.005123 6:0 7:0.002921 8:0.411883 9:0.333239 10:0.032218 11:0.010412 12:0.009349 13:0.009742 14:0 15:1 16:1 17:0.001076 
32768 18948.430554046718 20119.784446896923 32768 32768 32768 0 0 9612.1848637825206 1:0.080833 2:0.9 3:0.669541 4:0.040975 5:0.884292 6:1.8e-05 7:0.000646 8:0.348157 9:0.513084 10:0.05052 11:0.000115 12:0.000286 13:0.011896 14:0 15:1 16:1 17:1.6e-05 
32768 0 0 0 0 0 0 0 0 1:0 2:0.9 3:0.325573 4:0.049585 5:0.993988 6:0.560692 7:0.00129 8:0.063847 9:0.283693 10:0.07642 11:0.000145 12:0.000161 13:0.011789 14:1 15:0 16:0 17:4e-05 
32768 12409.052756311876 0 13388.530428273787 27364.399012321403 32768 21094.834151327719 0 1625.0063366074028 1:0 2:0.9 3:0.540816 4:0.045021 5:0.996991 6:0.836 7:0.000556 8:0.159114 9:0.516485 10:0.011167 11:0.007103 12:0 13:0.003886 14:1 15:1 16:1 17:0.002683 
32768 0 0 32768 32768 32768 32640.184746189483 6644.2717176032475 0 1:0.004657 2:0.7 3:0.642545 4:0.036722 5:0.735362 6:0.96 7:0.002305 8:0.605237 9:0.593992 10:0.023673 11:0.007221 12:0.008081 13:0.015022 14:1 15:0 16:0 17:0.001384 
32768 0 0 0 16363.964835595159 10540.3481587272 12313.976853228038 0 0 1:0 2:0.8 3:0.09675 4:0.053734 5:0.996991 6:0.909 7:0.000988 8:0.697885 9:0.510511 10:0.004662 11:1.2e-05 12:2e-05 13:0.002098 14:1 15:0 16:0 17:3e-06 
32768 0 0 0 0 32768 0 0 0 1:0.000295 2:0.7 3:0.519945 4:0.041805 5:0.580798 6:0.392 7:0.000569 8:0.257805 9:0.339267 10:0.031396 11:0.00104 12:0.008081 13:0.001267 14:1 15:0 16:0 17:0.001384 
32768 0 15190.094070173051 5470.2004934149545 5554.9934447099004 21853.008801258631 0 0 7083.591558436724 1:0.003375 2:0.2 3:0.609537 4:0.03805 5:0.878754 6:0.863 7:0.001478 8:0.314199 9:0.344144 10:0.014648 11:0 12:0.000748 13:0.000641 14:0 15:1 16:1 17:0 
32768 32768 32768 19533.794537112455 32768 32768 0 5824.5446107926837 26304.625551423029 1:0.008742 2:0.7 3:0.776168 4:0.0361 5:0.973136 6:0.00666 7:0.011236 8:0.778449 9:0.388194 10:0.013051 11:1e-06 12:1e-06 13:0.001072 14:1 15:0.8 16:1 17:0 
0 0 6160.4159065430367 0 32768 0 0 0 0 1:4.8e-05 2:1 3:0.412681 4:0.046265 5:0.915224 6:0.922 7:0.000683 8:0.178228 9:0.34707 10:0.029107 11:3.9e-05 12:6.1e-05 13:0.002493 14:1 15:0 16:0 17:1.1e-05 
32768 0 0 0 0 0 0 0 0 1:1.3e-05 2:0.9 3:0.561088 4:0.047614 5:0.93231 6:0.936 7:0.001518 8:0.066163 9:0.46925 10:0.030989 11:0.007119 12:1e-06 13:0.03691 14:1 15:1 16:1 17:0 
32768 32768 32768 32768 32768 32768 32768 32768 32768 1:0.187149 2:0.1 3:0.816334 4:0.10917 5:0.266561 6:0 7:0.007997 8:0.287009 9:0.458726 10:0.045376 11:0.011253 12:0.005958 13:0.064451 14:0.8 15:0 16:1 17:0.00062 
32768 32768 32768 32768 32768 32768 0 32768 32768 1:0.337562 2:1 3:0.858747 4:0.096369 5:0.081298 6:0 7:0.036262 8:0.817724 9:0.712732 10:0.063691 11:0.000482 12:0.001246 13:0.003259 14:1 15:1 16:1 17:0.000269 
32768 0 0 0 0 0 0 0 0 1:0.026464 2:0 3:0.766398 4:0.030705 5:0.474772 6:1e-06 7:0.000748 8:0.237664 9:0.732771 10:0.057166 11:0.00146 12:0.002039 13:0.025431 14:1 15:1 16:1 17:0.000124 
32768 32768 32768 32768 32768 32768 0 20340.673425873461 32768 1:0.01536 2:0 3:0.756585 4:0.034336 5:0.821991 6:0.134 7:0.008371 8:0.458268 9:0.517746 10:0.033881 11:0.00415 12:0.003531 13:0.038425 14:1 15:1 16:1 17:0.000473 
32768 0 0 0 12182.671349756723 8888.4482418488878 0 0 0 1:0.180362 2:0 3:0.771941 4:0.078734 5:0.000558 6:0 7:0.007151 8:0.384693 9:0.307652 10:0.06904 11:0.004483 12:0.007334 13:0.009271 14:0 15:1 16:1 17:0.00054 
32768 32768 32768 32768 32768 32768 0 0 32768 1:0.204336 2:1 3:0.84384 4:0.041598 5:0.051266 6:0 7:0.00491 8:0.305136 9:0.32447 10:0.047257 11:0.004483 12:0.004242 13:0.007963 14:1 15:0.8 16:1 17:0.00054 
32768 32768 32768 32768 32768 32768 0 32768 32768 1:0.359425 2:0.6 3:0.758071 4:0.071888 5:0.012154 6:0 7:0.000215 8:0.273917 9:0.370458 10:0.042029 11:0.006026 12:0.003129 13:0.016648 14:0.6 15:1 16:1 17:0.000346 
32768 0 0 0 0 32768 0 0 0 1:0.056623 2:0.5 3:0.779737 4:0.029979 5:0.451338 6:0 7:0.001769 8:0.114804 9:0.428267 10:0.051866 11:0.005176 12:0.00182 13:0.043117 14:1 15:1 16:1 17:0.000245 
32768 32768 32768 32768 32768 32768 32768 32768 32768 1:0.470911 2:1 3:0.878929 4:0.093257 5:0.00739 6:2.6e-05 7:0.000844 8:0.344411 9:0.345286 10:0.04322 11:0.000464 12:0.014309 13:0.078661 14:1 15:1 16:1 17:0.000126 
32768 32768 32768 32768 32768 32768 0 18272.074763569741 32768 1:0.393833 2:0.9 3:0.81559 4:0.040353 5:0.41346 6:0.0022 7:0.034009 8:0.688822 9:0.643517 10:0.063163 11:1.2e-05 12:1.6e-05 13:0.004197 14:1 15:1 16:1 17:2e-06 
32768 32768 32768 32768 32768 32768 32768 32768 32768 1:0.090519 2:0.32 3:0.695306 4:0.036929 5:0.293627 6:2e-06 7:0.000688 8:0.559919 9:0.425862 10:0.070419 11:0.022264 12:0.016827 13:0.004416 14:1 15:1 16:1 17:0.002982 
32768 32768 0 32768 32768 32768 0 0 0 1:0.146363 2:1 3:0.798492 4:0.045124 5:0.094367 6:0.000306 7:0.004571 8:0.166163 9:0.505433 10:0.058133 11:0.004564 12:0.002808 13:0.025526 14:1 15:1 16:1 17:0.001099 
32768 32768 32768 32768 32768 32768 32768 32768 32768 1:0.324243 2:0 3:0.813169 4:0.059232 5:0.285715 6:0.000125 7:0.005356 8:0.667674 9:0.661572 10:0.049287 11:0.018893 12:0.012076 13:0.00628 14:1 15:1 16:1 17:0.001516 
32768 0 0 0 0 32768 0 0 0 1:0.835897 2:0.1 3:0.928653 4:0.090145 5:0 6:0.24 7:0.002741 8:0.35851 9:0.653292 10:0.044242 11:0.001496 12:0.001187 13:0.026734 14:1 15:1 16:1 17:0.000147 
32768 0 0 0 32768 32768 0 0 0 1:0.257259 2:0.5 3:0.848513 4:0.031224 5:0 6:0.00757 7:0.042506 8:0.194361 9:0.6388 10:0.042539 11:2.6e-05 12:5.2e-05 13:0.016065 14:0.6 15:1 16:1 17:3e-06 
32768 0 0 0 17945.471342903922 32768 0 0 0 1:0.61196 2:0.6 3:0.898025 4:0.096266 5:0 6:0 7:0.006748 8:0.397784 9:0.723337 10:0.039905 11:0.000403 12:0.004187 13:0.021607 14:1 15:1 16:1 17:0.000156 
32768 0 0 0 0 32768 0 0 0 1:0.700227 2:0.6 3:0.926296 4:0.100622 5:0 6:2e-06 7:0.048624 8:0.269889 9:0.642038 10:0.042173 11:4.8e-05 12:0.003401 13:0.002696 14:1 15:1 16:1 17:2.8e-05 
23036.238035627543 0 0 0 0 22116.203394077544 0 0 0 1:0.551368 2:0 3:0.804248 4:0.224066 5:0.029861 6:1.6e-05 7:0.926859 8:0.570393 9:0.712136 10:0.058063 11:0.003426 12:0.004367 13:0.002273 14:0 15:1 16:1 17:1e-06 
32768 32768 32768 32768 32768 32768 0 0 32768 1:0.768575 2:0.8 3:0.879545 4:0.087241 5:0 6:0 7:0.026646 8:0.582075 9:0.657122 10:0.035859 11:0.004792 12:0.010743 13:0.030595 14:1 15:0.8 16:1 17:0.002072 
32768 32768 0 32768 32768 32768 0 0 0 1:0.707348 2:0.62 3:0.857732 4:0.122407 5:0 6:0.0016 7:0.003941 8:0.501511 9:0.67405 10:0.043152 11:0.006918 12:0.005149 13:0.025283 14:1 15:0 16:0 17:0.000988 
32768 0 0 0 0 0 0 0 0 1:0.43552 2:0.3 3:0.851529 4:0.063071 5:0.002718 6:2.7e-05 7:0.049833 8:0.384693 9:0.773166 10:0.060442 11:0.011318 12:0.005798 13:0.013979 14:1 15:1 16:1 17:0.001538 
32768 32768 32768 32768 32768 32768 0 32768 32768 1:0.475298 2:0.3 3:0.893394 4:0.081639 5:0 6:0.000316 7:0.003372 8:0.825176 9:0.739995 10:0.042668 11:0.000919 12:0.000887 13:0.01635 14:1 15:0 16:0.4 17:0.000217 
32768 32768 32768 32768 32768 32768 32768 32768 32768 1:0.614125 2:0.4 3:0.870013 4:0.041909 5:0.000748 6:0 7:0.001558 8:0.730514 9:0.516888 10:0.04883 11:0.03265 12:0.015569 13:0.054904 14:1 15:1 16:1 17:0.001837 
16374.542793310635 0 0 0 0 32768 0 0 0 1:0.014887 2:0 3:0.527782 4:0.05083 5:0.740281 6:0.297 7:0.193098 8:0.643505 9:0.255173 10:0.02268 11:2e-06 12:2e-06 13:0.045174 14:1 15:1 16:1 17:0 
19659.025660746272 32763.554262348269 9218.1612392280185 18150.061993616157 13637.719610186849 20110.902618655924 6450.9728573147004 13371.847780645481 0 1:0.045731 2:0.7 3:0.643076 4:0.045851 5:0.78554 6:0.667 7:0.001815 8:0.856999 9:0.645904 10:0.037738 11:7e-06 12:1.3e-05 13:0.002855 14:1 15:1 16:1 17:1e-06 
32768 9491.0364126250352 0 0 32768 32768 0 0 0 1:0.019249 2:0.6 3:0.81763 4:0.04139 5:0.760175 6:0 7:0.003372 8:0.396777 9:0.336571 10:0.046627 11:0.001881 12:0.005768 13:0.017952 14:1 15:1 16:1 17:0.001004 
32768 32768 32768 32768 32768 32768 0 16396.335447196438 32768 1:0.315821 2:0.7 3:0.81164 4:0.030913 5:0 6:0.001852 7:0.001802 8:0.287009 9:0.447007 10:0.055851 11:0.004522 12:0.005971 13:0.240042 14:1 15:1 16:1 17:0.001067 
32768 0 0 0 0 1370.8902212153448 0 0 0 1:0.504358 2:0.2 3:0.826593 4:0.034606 5:0 6:0.417 7:0.006536 8:0.52568 9:0.719146 10:0.050632 11:4.4e-05 12:0.000109 13:0.025938 14:1 15:0.8 16:0.8 17:1.5e-05 
32768 32768 32768 32768 32768 32768 0 32768 32768 1:0.368602 2:0.2 3:0.763424 4:0.042012 5:3e-06 6:0.00365 7:0.046653 8:0.473313 9:0.500789 10:0.072376 11:0.001723 12:0.021117 13:0.077302 14:1 15:1 16:1 17:0.000519 
32768 32768 32768 32768 32768 32768 32768 32768 32768 1:0.539353 2:0.42 3:0.828823 4:0.042012 5:0 6:4.6e-05 7:0.001027 8:0.573011 9:0.478502 10:0.042678 11:0.000414 12:0.000449 13:0.009313 14:1 15:1 16:1 17:0.000173 
32768 32768 32768 32768 32768 32768 32768 32768 32768 1:0.421875 2:0.6 3:0.826529 4:0.046473 5:0.027003 6:0.000185 7:0.000907 8:0.366566 9:0.540177 10:0.04183 11:2.5e-05 12:5.5e-05 13:0.004159 14:1 15:1 16:1 17:1.1e-05 
32768 0 0 0 0 0 0 0 0 1:0.556304 2:0.1 3:0.912362 4:0.068568 5:3.2e-05 6:0.081 7:0.019031 8:0.2286 9:0.739243 10:0.059203 11:0.002372 12:0.001427 13:0.00354 14:1 15:1 16:1 17:0.000546 
32768 0 0 0 0 0 0 0 0 1:0.292755 2:1 3:0.856797 4:0.034647 5:0.000296 6:9e-06 7:0.001518 8:0.197382 9:0.703479 10:0.056466 11:0.000235 12:0.000193 13:0.047569 14:1 15:0 16:0 17:0.000117 
32768 32768 32768 32768 32768 32768 0 32243.426652952792 24199.189389137478 1:0.090519 2:0.52 3:0.715102 4:0.091286 5:0.08799 6:0 7:0.018607 8:0.696878 9:0.738174 10:0.028947 11:0.00273 12:0.003196 13:0.010449 14:1 15:0 16:0 17:0.000487 
32768 32768 32768 32768 32768 32768 32768 32768 32768 1:0.383835 2:0.2 3:0.832285 4:0.039108 5:0.025983 6:0 7:0.033073 8:0.302115 9:0.489737 10:0.04687 11:0.009518 12:0.007904 13:0.018779 14:1 15:1 16:1 17:0.000681 
5717.2105224831184 15928.08442577367 478.07599805306347 3382.4143335163776 0 0 0 953.65643577312733 0 1:0.131097 2:0.7 3:0.737638 4:0.062344 5:0.010777 6:0.00174 7:0.949862 8:0.310171 9:0.471979 10:0.049366 11:0.017648 12:0.021636 13:0.007647 14:0 15:0 16:0 17:0.005531 
32768 32768 32768 32768 32768 32768 0 22482.319136384926 32768 1:0.489304 2:0.6 3:0.870603 4:0.041805 5:0.125616 6:0 7:0.353391 8:0.432024 9:0.331665 10:0.043451 11:0.01456 12:0.011613 13:0.023539 14:1 15:1 16:1 17:0.001149 
32768 0 32768 32768 32768 32768 0 0 0 1:0.392223 2:0.28 3:0.875017 4:0.045228 5:0.076644 6:0 7:0.284888 8:0.20141 9:0.329516 10:0.044708 11:0.000404 12:0.000276 13:0.014387 14:1 15:1 16:1 17:6.3e-05 
32768 32768 32768 32768 32768 32768 32768 32768 32768 1:0.282651 2:0.7 3:0.783347 4:0.037656 5:0.005903 6:3.4e-05 7:0.020343 8:0.24572 9:0.464302 10:0.040016 11:0.001303 12:0.004264 13:0.001506 14:0 15:0 16:0 17:0.000781 
32768 13485.642326629642 0 32768 32768 32768 0 7447.6316919783649 0 1:0.074088 2:0 3:0.756011 4:0.032988 5:0.171158 6:0.002 7:0.062577 8:0.288016 9:0.574602 10:0.038129 11:2e-05 12:0.000771 13:0.009225 14:1 15:0 16:0 17:0.000222 
32768 32768 32768 32768 32768 32768 32768 32768 32768 1:0.232608 2:0.6 3:0.829248 4:0.032573 5:0.094709 6:0 7:0.000105 8:0.607251 9:0.563705 10:0.038771 11:0.003651 12:0.00493 13:0.005927 14:1 15:0 16:0.8 17:0.000725 
32768 0 0 0 0 0 0 0 0 1:0.00074 2:0.1 3:0.556924 4:0.053631 5:0.949664 6:0.926 7:0.001328 8:0.089265 9:0.344875 10:0.043539 11:8e-06 12:0.000348 13:0.022833 14:1 15:1 16:1 17:4e-06 
2054.4481307807309 0 0 0 0 11432.45227849543 0 0 0 1:0.119095 2:0.5 3:0.706882 4:0.056432 5:0.04722 6:0.905 7:0.008239 8:0.036757 9:0.345989 10:0.071732 11:6.8e-05 12:0.000126 13:0.009478 14:1 15:0 16:0.2 17:4.2e-05 
0 24057.306856487656 0 30984.999169601691 32768 620.29641139941384 17313.86614355749 26306.783663949307 32768 1:0.063521 2:0.4 3:0.666653 4:0.051971 5:0.107104 6:0.959 7:0.000507 8:0.069486 9:0.496943 10:0.048139 11:0.000504 12:0.000751 13:0.004941 14:0 15:1 16:1 17:1.8e-05 
32768 32768 32768 32768 32768 32768 0 0 32768 1:0.303464 2:0.8 3:0.859303 4:0.041494 5:0.03224 6:3e-05 7:0.013558 8:0.526687 9:0.69153 10:0.052446 11:0.001848 12:0.014294 13:0.016234 14:1 15:1 16:1 17:0.005416 
32768 32768 32768 32768 32768 32768 0 0 0 1:0.338778 2:0.5 3:0.858241 4:0.032469 5:0.000115 6:0 7:0.005098 8:0.380665 9:0.668668 10:0.05157 11:0.002871 12:0.000988 13:0.006913 14:1 15:0 16:0 17:0.000964 
32768 32768 32768 32768 32768 32768 14710.739155847443 32768 32768 1:0.118371 2:0.6 3:0.832944 4:0.058506 5:0.219708 6:0.00863 7:0.000262 8:0.530715 9:0.644117 10:0.058186 11:0.012054 12:0.007305 13:0.008479 14:1 15:1 16:1 17:0.002079 
32768 0 0 0 0 0 0 0 0 1:0.188133 2:0.1 3:0.803539 4:0.03361 5:0.00124 6:1.4e-05 7:0.00062 8:0.077039 9:0.641216 10:0.06031 11:0.005191 12:0.004849 13:0.03129 14:1 15:1 16:1 17:0.000626 
32768 0 0 0 0 0 0 0 0 1:0.015253 2:1 3:0.758241 4:0.031743 5:0.296159 6:0 7:0.001188 8:0.119839 9:0.566704 10:0.064657 11:0.004851 12:0.004422 13:0.006862 14:1 15:1 16:1 17:0.000561 
32768 0 0 0 0 32768 0 0 0 1:0.15313 2:0.8 3:0.81977 4:0.030187 5:0 6:0 7:0.008612 8:0.127895 9:0.599646 10:0.048268 11:0.002508 12:0.0021 13:0.016703 14:1 15:1 16:1 17:0.000268 
0 0 0 5035.1591901315578 0 0 0 0 0 1:0.003035 2:0.9 3:0.394945 4:0.044751 5:0.996991 6:0.959 7:0.001518 8:0.047835 9:0.46925 10:0.038223 11:1e-06 12:0.016619 13:0.000105 14:1 15:1 16:1 17:0.002701 
32768 11783.237567234184 19224.045040368852 0 0 32768 0 0 32768 1:0.002048 2:0.2 3:0.512489 4:0.031224 5:0.892643 6:0.000684 7:0.00235 8:0.510574 9:0.440275 10:0.028267 11:0.005394 12:0.012904 13:3.4e-05 14:1 15:1 16:1 17:0.000152 
32768 32768 0 0 0 32768 0 0 0 1:0.00103 2:0.2 3:0.643373 4:0.040664 5:0.979063 6:0.0025 7:0.007075 8:0.325277 9:0.480716 10:0.042317 11:0 12:0 13:9.4e-05 14:1 15:1 16:1 17:0 
18298.301583337558 0 0 0 5048.543044567873 13470.471629387413 0 0 0 1:0.052796 2:0.9 3:0.361024 4:0.047718 5:0.985015 6:0 7:0.003649 8:0.356495 9:0.345557 10:0.016254 11:2.3e-05 12:2.9e-05 13:1.2e-05 14:0 15:0 16:0 17:0 
32768 0 0 0 0 0 0 0 0 1:0.007415 2:0.2 3:0.617014 4:0.047822 5:0.895438 6:0.914 7:0.000496 8:0.067976 9:0.343159 10:0.022667 11:0.001456 12:0.001571 13:0.003155 14:1 15:1 16:1 17:0.000289 
32768 0 32768 32768 0 22764.194652984621 32768 32768 0 1:0.283593 2:0 3:0.694223 4:0.085477 5:0.49334 6:0.243669 7:0.00144 8:0.102719 9:0.494461 10:0.028821 11:4.8e-05 12:0.000128 13:0.01241 14:1 15:0 16:0 17:1.2e-05 
3965.2175134305417 0 0 0 0 0 0 0 0 1:0.000799 2:0.7 3:0.489996 4:0.045954 5:0.976097 6:0.871 7:0.000389 8:0.155569 9:0.315299 10:0.030382 11:0.001456 12:0.001571 13:0.004016 14:1 15:1 16:1 17:0.000289 
32768 0 0 0 0 29435.651925422073 0 0 0 1:0.003242 2:0.4 3:0.625234 4:0.038071 5:0.979063 6:0.889 7:0.001769 8:0.189325 9:0.523162 10:0.032454 11:0.004949 12:0.003599 13:0.034069 14:1 15:1 16:1 17:0.000659 
0 0 0 0 0 0 0 0 9739.4974230489261 1:0.716917 2:0.2 3:0.876466 4:0.144191 5:0.248282 6:0.843 7:0.022549 8:0.068379 9:0.442175 10:0.028876 11:0.000382 12:0.000609 13:0.010388 14:1 15:0.8 16:1 17:0.000415 
32768 32768 0 15015.756500390229 32768 32768 0 0 0 1:0.033076 2:0.8 3:0.795837 4:0.030394 5:0.262835 6:0 7:0.849278 8:0.620342 9:0.440207 10:0.063079 11:0.023822 12:0.01849 13:0.015697 14:1 15:1 16:1 17:0.002514 
32768 0 0 0 0 0 0 0 0 1:0.040708 2:0 3:0.715251 4:0.04861 5:0.369948 6:0.021219 7:0.00235 8:0.233635 9:0.703216 10:0.054098 11:0.039036 12:0.028025 13:0.041528 14:1 15:0.6 16:0.8 17:0.006139 
32768 32768 32768 32768 32768 32768 0 32768 5753.1947824425652 1:0.753571 2:0.4 3:0.817821 4:0.078631 5:0 6:0.000121 7:0.203823 8:0.622356 9:0.577108 10:0.029749 11:0.003956 12:0.006579 13:0.135272 14:1 15:0 16:0 17:0.000797 
32768 32768 32768 32768 32768 24724.122551394707 32768 32768 13986.792219861703 1:0.649462 2:1 3:0.867591 4:0.215643 5:0 6:0.001018 7:0.000884 8:0.212487 9:0.490648 10:0.061564 11:0.000781 12:0.003125 13:0.022401 14:1 15:0 16:0 17:0.000494 
32768 0 0 0 0 0 0 0 0 1:0.935441 2:0.8 3:0.937298 4:0.126556 5:0 6:0 7:0.000876 8:0.281974 9:0.699694 10:0.039319 11:0.004606 12:0.004019 13:0.025537 14:1 15:0 16:0 17:0.00122 
32768 0 0 0 0 32768 0 0 0 1:0.835897 2:0.2 3:0.811364 4:0.045851 5:1e-06 6:0.000437 7:0.118368 8:0.252769 9:0.55289 10:0.042968 11:0.00101 12:0.000536 13:0.028246 14:1 15:0 16:0 17:0.000179 
32768 0 0 0 0 4708.4573385233753 0 0 0 1:0.697864 2:0.3 3:0.88407 4:0.090975 5:0.004224 6:0.00715 7:0.00109 8:0.18429 9:0.722848 10:0.037225 11:0.000257 12:0.000759 13:0.008975 14:0.4 15:0 16:0 17:0.000179 
32768 32768 32768 32768 32768 32768 32768 32768 32768 1:0.351896 2:0.1 3:0.824257 4:0.132967 5:0.097872 6:0.0147 7:0.136097 8:0.485821 9:0.516469 10:0.065171 11:0.000342 12:0.000534 13:0.005533 14:1 15:0 16:0 17:6.7e-05 
32768 32768 32768 32768 32768 32768 32768 32768 32768 1:0.342796 2:0.4 3:0.912319 4:0.072199 5:0 6:0.000285 7:0.000766 8:0.383686 9:0.41815 10:0.059616 11:0.00549 12:0.004961 13:0.016081 14:1 15:1 16:1 17:0.000497 
32768 32768 32768 32768 32768 32768 0 0 0 1:0.025154 2:0.2 3:0.780565 4:0.026763 5:0.440788 6:8e-06 7:0.001122 8:0.163142 9:0.504969 10:0.029773 11:0.001182 12:0.00122 13:0.018641 14:1 15:1 16:1 17:0.000254 
32768 32768 32768 32768 32768 32768 0 32768 32768 1:0.6098 2:0.5 3:0.87158 4:0.054564 5:0.092227 6:4e-05 7:0.013141 8:0.548842 9:0.285025 10:0.042973 11:0.005108 12:0.00514 13:0.016379 14:0.6 15:1 16:1 17:0.001003 
32768 0 0 0 2521.6961332226774 32768 0 0 0 1:0.022188 2:0.4 3:0.74435 4:0.033921 5:0.006833 6:0.000298 7:0.007527 8:0.197382 9:0.515552 10:0.070882 11:3.6e-05 12:9.5e-05 13:0.053859 14:1 15:1 16:1 17:4e-06 
32768 0 0 0 0 0 0 0 0 1:0.019249 2:0.7 3:0.668628 4:0.033299 5:0.821991 6:0.904 7:0.000808 8:0.141571 9:0.383795 10:0.043016 11:3e-06 12:0.000543 13:0.010961 14:1 15:0 16:0 17:0.000107 
32768 0 0 0 0 2959.4373080859336 0 0 0 1:0.000506 2:0.2 3:0.454715 4:0.054253 5:0.62375 6:9.4e-05 7:0.003109 8:0.372608 9:0.263297 10:0.041733 11:2e-06 12:4e-06 13:0.001612 14:1 15:1 16:1 17:0 
32768 0 0 0 0 32768 0 0 0 1:0.002744 2:0.4 3:0.541716 4:0.050726 5:0.752673 6:0.759 7:0.00195 8:0.287009 9:0.41778 10:0.086587 11:0.001458 12:0.000118 13:0.004639 14:1 15:0 16:0 17:0.000136 
0 0 0 0 26816.358745869653 0 0 0 0 1:0.025402 2:0.2 3:0.390399 4:0.048651 5:0.964289 6:0.356676 7:0.000283 8:0.276415 9:0.343988 10:0.030549 11:0 12:1e-06 13:0.001085 14:0 15:0 16:0 17:0.000182 
16588.174972892029 0 0 0 0 0 0 0 0 1:0.663055 2:0.5 3:0.765421 4:0.040871 5:0.036971 6:0.000316 7:0.352238 8:0.463243 9:0.734772 10:0.021583 11:0.000117 12:0.000135 13:0.00329 14:1 15:0 16:0 17:3.1e-05 
32768 13706.923366104911 0 32768 32768 32768 0 0 32768 1:0.741218 2:0.52 3:0.875896 4:0.085996 5:0 6:0.000744 7:0.021671 8:0.173212 9:0.498757 10:0.052625 11:0.000117 12:0.010581 13:0.0009 14:0 15:1 16:1 17:7.2e-05 
32768 32768 9636.0281707019294 32768 9945.9872431454296 32768 18132.007768566811 5174.2939648062429 32768 1:0.585068 2:1 3:0.893203 4:0.118257 5:0 6:0.549 7:0.016384 8:0.280967 9:0.698384 10:0.03736 11:0.005182 12:0.000227 13:0.011076 14:0 15:1 16:1 17:0.000456 
32768 32768 32768 32768 32768 32768 0 32768 32768 1:0.168982 2:0.74 3:0.816334 4:0.039108 5:0.266561 6:0 7:0.007997 8:0.287009 9:0.437087 10:0.045376 11:5e-05 12:3.7e-05 13:0.064451 14:0 15:0 16:0 17:3e-05 
32768 32768 32768 32768 32768 32768 0 0 4942.0698018388066 1:0.233745 2:0.3 3:0.78271 4:0.039523 5:0.11193 6:1.3e-05 7:0.000154 8:0.410876 9:0.319819 10:0.048868 11:1e-06 12:5e-06 13:0.002501 14:0 15:0 16:0.8 17:0.000136 
32768 0 0 0 29951.056039710835 32768 0 0 0 1:0.00887 2:0.36 3:0.669775 4:0.031743 5:0.285715 6:0.186776 7:0.000665 8:0.238429 9:0.555041 10:0.062643 11:0.000917 12:0.000805 13:0.007782 14:1 15:0 16:0 17:0.000152 
32768 32768 32768 32768 32768 32768 14968.453290051246 32768 32768 1:0.709732 2:0.6 3:0.918437 4:0.364108 5:0.001422 6:0 7:0.009525 8:0.854985 9:0.709363 10:0.033557 11:0.001329 12:0.002742 13:0.003033 14:0 15:0 16:0 17:0.000397 
32768 32768 32768 32768 32768 32768 32768 32768 32768 1:0.665339 2:0.7 3:0.860981 4:0.127593 5:0.022697 6:0 7:0.019652 8:0.510574 9:0.431377 10:0.063889 11:0.000868 12:0.000587 13:0.00133 14:0 15:1 16:1 17:2.3e-05 
32768 32768 32768 32768 32768 32768 32768 32768 32768 1:0.603351 2:0.58 3:0.833475 4:0.064834 5:0.154983 6:6e-06 7:0.116927 8:0.67573 9:0.353549 10:0.036363 11:0.000128 12:4.2e-05 13:0.000189 14:0 15:1 16:1 17:4e-06 
32768 32768 0 32768 32768 32768 0 0 0 1:0.014706 2:0 3:0.731478 4:0.032573 5:0.158485 6:0 7:0.003569 8:0.243706 9:0.444361 10:0.052745 11:3e-05 12:3.9e-05 13:0.006347 14:1 15:0 16:0 17:1.9e-05 
32768 32768 0 0 32768 0 0 0 0 1:0.02364 2:0.5 3:0.758696 4:0.031432 5:0.694429 6:0.00607 7:0.006432 8:0.190332 9:0.534716 10:0.043105 11:0.000895 12:0.010603 13:0.014628 14:1 15:1 16:1 17:0.001289 
32768 32768 32768 32768 32768 32768 32768 32768 32768 1:0.126506 2:0.7 3:0.853632 4:0.058506 5:0.082165 6:7.2e-05 7:0.012303 8:0.207452 9:0.492542 10:0.035094 11:0.012951 12:0.008946 13:0.012406 14:1 15:1 16:1 17:0.000974 
23203.993852198972 0 0 0 0 0 0 0 0 1:0 2:0.7 3:0.091737 4:0.053423 5:1 6:0.914 7:0.000241 8:0.326284 9:0.5255 10:0.018076 11:3.9e-05 12:4.2e-05 13:0.003688 14:1 15:0 16:0 17:5e-06 
32768 0 3611.8050134214932 5979.8369186211967 0 13762.374619944474 0 0 5868.0384231241378 1:0.000218 2:0.9 3:0.435089 4:0.048133 5:0.068739 6:0.922 7:0.001813 8:0.036455 9:0.396774 10:0.047544 11:0.000896 12:0.000782 13:0.020342 14:1 15:0 16:0 17:0.000164 
0 0 0 0 0 0 0 0 6233.1562391886109 1:0.000151 2:0 3:0.66907 4:0.046058 5:0.740281 6:0.572011 7:0.001421 8:0.069889 9:0.494247 10:0.021671 11:0 12:0 13:0.002155 14:1 15:0 16:0 17:0 
32768 32768 32768 32768 32768 32768 0 32768 32768 1:0.180362 2:0 3:0.771941 4:0.078734 5:0.000558 6:0 7:0.006125 8:0.384693 9:0.307652 10:0.038252 11:0.013204 12:0.007225 13:0.009271 14:0 15:1 16:1 17:0.001573 
32768 0 0 0 0 0 0 0 0 1:0.131206 2:0.6 3:0.791228 4:0.036411 5:0.180612 6:0 7:0.023391 8:0.36858 9:0.837081 10:0.042017 11:0.013204 12:0.012333 13:0.004414 14:1 15:1 16:1 17:0.001067 
5937.930734448194 0 0 0 32768 32768 0 0 0 1:0.932575 2:0.4 3:0.872685 4:0.095228 5:0 6:3e-06 7:0.799178 8:0.517623 9:0.542597 10:0.083205 11:0.013204 12:0.016535 13:0.036565 14:1 15:1 16:1 17:0.001573 
32768 32768 0 32768 32768 32768 0 0 0 1:0.052314 2:0.9 3:0.729142 4:0.042324 5:0.204709 6:0 7:0.009797 8:0.873112 9:0.750781 10:0.021627 11:0.00011 12:0.000168 13:0.015404 14:1 15:0 16:0 17:0.001609 
4276.117431839667 0 0 0 0 0 0 0 0 1:0.003246 2:0.7 3:0.529299 4:0.047199 5:0.993988 6:0.89 7:0.000392 8:0.039376 9:0.485869 10:0.033781 11:0.006073 12:0.000164 13:0.013888 14:1 15:1 16:1 17:0.0022 
32768 25073.295729443107 0 9988.4147657314188 10097.175464488704 0 0 0 0 1:0.002248 2:0.2 3:0.474766 4:0.089336 5:0.732911 6:0.925 7:0.001248 8:0.066062 9:0.43913 10:0.090475 11:0.012263 12:0.020986 13:0.008234 14:0 15:0 16:0 17:0.003091 
32768 0 0 0 0 0 0 0 0 1:0.047832 2:1 3:0.82825 4:0.04388 5:0.720736 6:8e-06 7:0.000807 8:0.538771 9:0.822457 10:0.049716 11:0.006729 12:0.003156 13:0.0064 14:1 15:1 16:1 17:0.001307 
32768 0 0 0 0 0 0 0 0 1:0.006539 2:0 3:0.695709 4:0.033506 5:0.846008 6:0.139 7:0.00417 8:0.21853 9:0.288998 10:0.063454 11:7.8e-05 12:0.00013 13:0.025592 14:1 15:0 16:0 17:1.9e-05 
32768 16271.9952811899 0 0 0 0 0 0 0 1:0.003512 2:0.5 3:0.666674 4:0.041598 5:0.798432 6:0.0771 7:0.001997 8:0.146022 9:0.447079 10:0.028799 11:2.5e-05 12:5.9e-05 13:0.003067 14:1 15:1 16:1 17:0.000276 
32768 32768 32768 32768 32768 32768 32768 32768 32768 1:0.20123 2:0.5 3:0.696325 4:0.06027 5:0.115464 6:2e-06 7:0.042141 8:0.522659 9:0.499536 10:0.094909 11:0.002751 12:7.5e-05 13:0.00619 14:1 15:0 16:0 17:2.3e-05 
32768 0 0 27972.339152625347 0 0 0 0 11138.625111699968 1:0.288971 2:1 3:0.522791 4:0.040768 5:0.000513 6:0.12931 7:0.000534 8:0.133938 9:0.4446 10:0.044998 11:4.2e-05 12:0.000113 13:0.019977 14:0.2 15:0 16:1 17:2.1e-05 
32768 32768 32768 32768 32768 32768 32768 32768 32768 1:0.270094 2:0.9 3:0.862638 4:0.045124 5:0.102364 6:0 7:0.000833 8:0.624371 9:0.41748 10:0.039763 11:0.005583 12:0.004456 13:0.050077 14:1 15:1 16:1 17:0.000544 
32768 32768 0 24346.160145850736 32768 17418.166824876145 0 0 0 1:0.955672 2:0.8 3:0.922791 4:0.1639 5:0 6:0 7:0.001518 8:0.573817 9:0.308224 10:0.032876 11:5e-05 12:8.5e-05 13:0.000532 14:1 15:0 16:0 17:2e-05 
10925.197412040579 0 0 16653.933688229685 0 6405.027235515292 0 86.37286598393635 0 1:0.011852 2:0.3 3:0.557986 4:0.038071 5:0.348133 6:0.847 7:0.027875 8:0.348842 9:0.525603 10:0.0171 11:1.4e-05 12:3.6e-05 13:0.001887 14:1 15:0 16:1 17:7e-06 
0 0 0 0 0 8860.408369336792 0 0 0 1:0.006029 2:0.1 3:0.749936 4:0.030913 5:0.518539 6:0.00267 7:0.015568 8:0.092649 9:0.342648 10:0.028273 11:0.006338 12:0.003609 13:0.061647 14:1 15:0 16:0 17:6.1e-05 
32768 32768 32768 32768 32768 32768 32768 11018.345535028628 32768 1:0.079507 2:0.2 3:0.741674 4:0.065249 5:0.024177 6:0.000994 7:0.000961 8:0.30715 9:0.596716 10:0.061793 11:0.004467 12:0.012265 13:0.055774 14:1 15:1 16:1 17:0.001384 
32768 0 32768 21066.296245566482 32768 32768 0 0 0 1:0.315821 2:0.4 3:0.846708 4:0.044191 5:0.058208 6:0 7:0.389015 8:0.270896 9:0.550729 10:0.070296 11:0.005177 12:0.011206 13:0.018527 14:0.4 15:0 16:0 17:0.001805 
32768 32768 32768 32768 32768 32768 32768 32768 32768 1:0.190215 2:0.4 3:0.792736 4:0.0939 5:0.0102 6:0.000173 7:0.003173 8:0.259819 9:0.546423 10:0.036395 11:0.000612 12:0.000317 13:0.000483 14:1 15:0 16:0 17:7.6e-05 
32768 32768 0 32768 32768 32768 0 0 0 1:0.061163 2:1 3:0.684983 4:0.030602 5:0.015438 6:0.000282 7:0.002045 8:0.182276 9:0.396237 10:0.052355 11:0.001766 12:0.000835 13:0.001721 14:0.4 15:0.4 16:1 17:0.000178 
32768 32768 32768 32768 32768 32768 32768 32768 32768 1:0.119095 2:0.9 3:0.666079 4:0.24805 5:8.8e-05 6:8.1e-05 7:0.022662 8:0.72709 9:0.714852 10:0.03912 11:9e-06 12:0.000113 13:0.002566 14:1 15:0 16:0 17:4e-06 
32768 0 32768 32768 25568.327671120984 32768 0 0 0 1:0.187149 2:0.1 3:0.816334 4:0.039108 5:0.266561 6:0 7:0.007997 8:0.287009 9:0.320439 10:0.045376 11:0.013656 12:0.012046 13:0.064451 14:0 15:0 16:1 17:0.001267 
32768 32768 0 32768 32768 32768 0 0 0 1:0.549353 2:0 3:0.871538 4:0.0361 5:0.071386 6:0 7:0.002063 8:0.266868 9:0.384144 10:0.064878 11:0.000773 12:0.000381 13:0.018896 14:1 15:1 16:1 17:4.5e-05 
32768 0 0 0 0 0 0 0 0 1:0.067917 2:0.4 3:0.629121 4:0.071888 5:0.526005 6:0.148 7:0.004489 8:0.165156 9:0.618206 10:0.045364 11:0.000763 12:9.6e-05 13:0.019019 14:1 15:0 16:0 17:1.3e-05 
32768 0 22735.804991787063 32768 28015.534302633303 0 0 0 0 1:0.005359 2:0.24 3:0.582455 4:0.0389 5:0.071297 6:0.856 7:0.001599 8:0.333535 9:0.33662 10:0.016585 11:0.000763 12:0.001034 13:0.003344 14:1 15:0 16:0 17:0.000322 
32768 0 0 0 32768 0 0 0 0 1:0.02244 2:0.2 3:0.702251 4:0.047718 5:0.926573 6:0.0306 7:0.00417 8:0.153072 9:0.366525 10:0.081542 11:5.6e-05 12:7.9e-05 13:0.000897 14:1 15:0 16:0 17:0.000186 
32768 32768 32768 32768 32768 32768 32768 32768 32768 1:0.513922 2:1 3:0.860556 4:0.119295 5:0.00463 6:0 7:0.045346 8:0.7714 9:0.586247 10:0.060046 11:0.000168 12:0.000866 13:0.025005 14:0 15:1 16:1 17:0.000171 
32768 32768 32768 32768 32768 32768 0 0 0 1:0.109215 2:0 3:0.805607 4:0.034647 5:0.186448 6:3e-06 7:0.007298 8:0.27291 9:0.423085 10:0.051848 11:0.013449 12:0.009833 13:0.043205 14:1 15:1 16:1 17:0.001054 
6281.5841162106308 0 0 0 19728.070470801944 10776.3439818959 8195.2490849366477 10823.035416874132 0 1:0.799179 2:1 3:0.83613 4:0.097199 5:0.03379 6:0.00197 7:0.952764 8:0.516616 9:0.305179 10:0.014232 11:0.0022 12:0.001415 13:0.000779 14:0 15:1 16:1 17:0.000133 
32768 0 0 0 0 0 0 0 0 1:0.00067 2:0.9 3:0.457519 4:0.041805 5:0.979063 6:0.873 7:0.001257 8:0.126888 9:0.557887 10:0.017137 11:1.5e-05 12:3.5e-05 13:0.005169 14:1 15:1 16:1 17:1e-06 
32768 32768 32768 32768 32768 32768 0 0 27231.194620983755 1:0.121287 2:0.8 3:0.806606 4:0.121494 5:0.020593 6:0 7:0.004489 8:0.686607 9:0.838153 10:0.015075 11:8.5e-05 12:0.000379 13:0.003789 14:0 15:0.8 16:1 17:5.4e-05 
32768 32768 32768 32768 32768 32768 0 8579.5659634386011 32768 1:0.283136 2:0.1 3:0.876423 4:0.145539 5:0.067733 6:3e-06 7:0.060233 8:0.494461 9:0.302882 10:0.088696 11:0.001361 12:0.00509 13:0.002109 14:1 15:1 16:1 17:0.001073 
32768 5360.4105281991287 32768 32768 32768 32768 0 0 0 1:0.738763 2:0.6 3:0.861619 4:0.170124 5:0.131121 6:5.3e-05 7:0.167282 8:0.610675 9:0.711014 10:0.01461 11:0.000235 12:0.000119 13:0.009698 14:1 15:0.8 16:1 17:0.00053 
32768 0 0 0 0 0 0 0 0 1:0.801765 2:1 3:0.900127 4:0.306017 5:0.061433 6:2e-06 7:0.008739 8:0.39577 9:0.726107 10:0.01342 11:3.2e-05 12:0.000839 13:0.002747 14:1 15:0 16:0 17:4e-06 
32768 32768 32768 32768 32768 32768 32768 32768 32768 1:0.148877 2:0.2 3:0.691653 4:0.037344 5:0.030739 6:5e-06 7:0.000162 8:0.664653 9:0.653309 10:0.035832 11:0.001049 12:0.002787 13:0.012771 14:0.6 15:1 16:1 17:8e-05 
32768 32768 32768 32768 32768 32768 30289.236997423766 21730.37157313741 32768 1:0.059319 2:0.8 3:0.587702 4:0.11722 5:0.003416 6:0 7:0.313045 8:0.501511 9:0.350127 10:0.041068 11:0.002507 12:0.002039 13:0.008566 14:1 15:1 16:1 17:0.000306 
32768 20210.324330972086 0 0 0 13542.028601084205 0 0 0 1:0.028653 2:0 3:0.779078 4:0.033506 5:0.79068 6:5.6e-05 7:0.001599 8:0.113797 9:0.558166 10:0.022266 11:0.000285 12:0.000425 13:0.001615 14:1 15:0 16:0 17:7.8e-05 
32768 0 0 0 32768 0 0 0 0 1:0.002197 2:0.5 3:0.820429 4:0.032158 5:0.621554 6:1e-06 7:0.000573 8:0.163142 9:0.359195 10:0.042003 11:0.013987 12:0.005116 13:0.088698 14:0 15:1 16:1 17:0 
32768 0 0 6216.6766169643633 15249.322187949754 0 0 0 0 1:6.9e-05 2:0 3:0.601105 4:0.05166 5:0.456676 6:0.000259 7:0.000605 8:0.250755 9:0.310212 10:0.007082 11:0.000876 12:0.000846 13:0.005088 14:0 15:1 16:1 17:0 
32768 32768 32768 32768 32768 32768 0 0 24709.687582672243 1:0.006859 2:0.4 3:0.694626 4:0.033942 5:0.740281 6:0.00119 7:0.006225 8:0.227392 9:0.446925 10:0.020901 11:0.000876 12:0.000846 13:0.006612 14:0.8 15:1 16:1 17:0 
32768 32768 32768 32768 32768 32768 32768 32768 32768 1:0.096072 2:0.2 3:0.833454 4:0.043672 5:0.187718 6:0 7:0.049428 8:0.391138 9:0.515096 10:0.034469 11:0.002278 12:0.001636 13:0.000883 14:1 15:1 16:1 17:0.00024 
32768 32768 32768 32768 32768 32768 0 0 32768 1:0.224756 2:0.5 3:0.816759 4:0.03527 5:0.269064 6:0 7:0.258473 8:0.546828 9:0.303609 10:0.04588 11:0.000662 12:0.000885 13:0.004291 14:1 15:1 16:1 17:0.0001 
32768 0 0 0 32768 32768 0 0 0 1:0.170794 2:0.2 3:0.772876 4:0.048651 5:0.454892 6:0.000117 7:0.002625 8:0.372608 9:0.691637 10:0.055429 11:0.00144 12:0.000944 13:0.003477 14:0 15:1 16:1 17:0.000292 
32768 32768 32768 32768 32768 32768 32768 32768 32768 1:0.545039 2:0.9 3:0.83116 4:0.029876 5:0.00013 6:2.7e-05 7:0.008239 8:0.478348 9:0.505676 10:0.047754 11:0.002752 12:0.001421 13:0.005921 14:1 15:0 16:1 17:9.6e-05 
32768 32768 0 26613.851369497108 32768 32768 0 0 0 1:0.085184 2:0.7 3:0.821495 4:0.037967 5:0.72559 6:0.0496 7:0.003649 8:0.17422 9:0.567629 10:0.010112 11:3.9e-05 12:0.000125 13:0.001612 14:1 15:1 16:1 17:2e-06 
32768 32768 32768 32768 32768 32768 0 0 32768 1:0.069935 2:0.7 3:0.743946 4:0.030705 5:0.29496 6:0.000223 7:0.004997 8:0.844914 9:0.284445 10:0.035481 11:0.0001 12:0.00011 13:0.009433 14:1 15:0 16:0 17:0.001438 
32768 0 0 4812.3357406338882 32768 0 0 0 0 1:0.012978 2:0.4 3:0.688934 4:0.042635 5:0.715905 6:0.05806 7:0.001222 8:0.253776 9:0.339032 10:0.03523 11:0.013367 12:0.015538 13:0.006474 14:0 15:1 16:1 17:0.00231 
32768 32768 32768 32768 32768 32768 32768 32768 32768 1:0.50817 2:1 3:0.832052 4:0.128631 5:0 6:0 7:0.005449 8:0.745217 9:0.34801 10:0.039129 11:0.00019 12:0.00053 13:0.055501 14:1 15:1 16:1 17:0.000154 
32768 0 0 0 0 32768 0 0 0 1:0.144703 2:0.2 3:0.777761 4:0.036307 5:0 6:0.769 7:0.01581 8:0.259819 9:0.32189 10:0.057295 11:0.000648 12:0.000989 13:0.008375 14:1 15:0 16:0 17:0.000163 
32768 32768 32768 32768 32768 32768 0 32768 32768 1:0.85467 2:0.2 3:0.91198 4:0.055705 5:0 6:0.187 7:0.009473 8:0.40282 9:0.462627 10:0.052837 11:0.000141 12:0.000527 13:0.001555 14:0 15:1 16:1 17:7e-06 
32768 0 0 0 0 32768 0 0 0 1:0.881974 2:0.36 3:0.890038 4:0.074689 5:0 6:0.0563 7:0.026728 8:0.243706 9:0.563138 10:0.039923 11:0.003217 12:0.004642 13:0.018365 14:1 15:1 16:1 17:0.000863 
32768 0 0 0 0 32768 0 0 0 1:0.791453 2:0.7 3:0.90274 4:0.086515 5:0 6:0.0379 7:0.006856 8:0.20141 9:0.513447 10:0.043143 11:9e-06 12:3.5e-05 13:0.026776 14:1 15:1 16:1 17:6e-06 
32768 0 0 0 0 6547.4254492735608 0 0 0 1:0.868251 2:0.9 3:0.873071 4:0.043257 5:0 6:0.776 7:0.031249 8:0.516616 9:0.747551 10:0.05929 11:0.007851 12:0.005047 13:0.006774 14:1 15:0.6 16:1 17:0.001541 
0 0 0 0 0 5618.5498268530555 0 0 0 1:0.985075 2:0.8 3:0.861364 4:0.090788 5:0 6:0.438 7:0.048226 8:0.079557 9:0.360777 10:0.049829 11:0.002216 12:0.00288 13:0.013563 14:1 15:1 16:1 17:0.000468 
32768 1440.7331306560418 0 0 32768 32768 0 0 0 1:0.912673 2:0.5 3:0.928908 4:0.091079 5:0 6:0.0415 7:0.022903 8:0.244713 9:0.422107 10:0.045458 11:3e-06 12:0.000295 13:0.006383 14:1 15:0 16:0 17:5e-06 
32768 0 0 0 0 0 0 0 0 1:0.000249 2:0.1 3:0.567268 4:0.035062 5:0.735362 6:0.000631 7:0.003293 8:0.204431 9:0.511242 10:0.048329 11:1e-05 12:2.3e-05 13:0.060123 14:0 15:0.8 16:1 17:3e-06 
10654.351075519486 0 0 0 0 0 0 0 0 1:0.223649 2:0.6 3:0.745752 4:0.047261 5:0.506621 6:0.446 7:0.001558 8:0.315287 9:0.768786 10:0.086069 11:0.000893 12:0.005844 13:0.022184 14:1 15:0 16:0 17:0.000209 
32768 32768 0 32768 32768 32768 0 0 0 1:0.398688 2:0.68 3:0.781924 4:0.04222 5:0.010927 6:0.105 7:0.001222 8:0.801611 9:0.750588 10:0.068347 11:0.001208 12:0.002412 13:0.011933 14:1 15:0 16:0 17:0.000347 
32768 32768 32768 32768 32768 32768 0 32768 32768 1:0.086938 2:0.48 3:0.813063 4:0.041079 5:0.081031 6:0.0352 7:0.128021 8:0.431218 9:0.424297 10:0.050292 11:0.000285 12:0.000467 13:0.009006 14:1 15:0 16:0 17:6.4e-05 
32768 32768 32768 32768 32768 32768 32768 32768 32768 1:0.531765 2:1 3:0.903271 4:0.112033 5:0 6:0.00447 7:0.090516 8:0.577039 9:0.427395 10:0.043763 11:0.003717 12:0.004228 13:0.040871 14:0.6 15:1 16:1 17:0.000651 
32768 32768 32768 32768 32768 32768 32768 32768 32768 1:0.569918 2:0 3:0.901083 4:0.135892 5:0 6:0.00675 7:0.029501 8:0.53857 9:0.454567 10:0.061646 11:0.002758 12:0.002618 13:0.013865 14:1 15:1 16:1 17:0.000571 
32768 0 0 0 0 32768 0 0 0 1:0.946966 2:0.2 3:0.910195 4:0.13278 5:0 6:0.0237 7:0.052731 8:0.147029 9:0.475157 10:0.045973 11:3e-05 12:1.5e-05 13:0.007967 14:1 15:0 16:0 17:9e-06 
32768 0 0 0 0 32768 0 0 0 1:0.958585 2:0.2 3:0.929588 4:0.106846 5:0.003079 6:0.00109 7:0.001997 8:0.21853 9:0.379395 10:0.041485 11:0.000425 12:0.000464 13:0.011023 14:1 15:0 16:0 17:0.000105 
32768 21463.439537198068 32768 32768 32768 32768 0 32768 0 1:0.582183 2:1 3:0.909197 4:0.094938 5:0.002328 6:0 7:0.354893 8:0.684592 9:0.691016 10:0.035252 11:0.001154 12:0.001024 13:0.043235 14:1 15:1 16:1 17:0.000172 
32768 32768 32768 32768 32768 32768 32768 32768 32768 1:0.287496 2:0.78 3:0.782124 4:0.03527 5:0.433846 6:0 7:0.000496 8:0.592548 9:0.412036 10:0.036386 11:0.000483 12:0.000333 13:0.015122 14:1 15:0 16:0 17:9.2e-05 
32768 32768 32768 32768 32768 32768 0 0 32768 1:0.232433 2:0.7 3:0.790144 4:0.036307 5:0 6:0.0267 7:0.001058 8:0.456193 9:0.272069 10:0.041631 11:0.000723 12:0.000544 13:0.036411 14:1 15:1 16:1 17:0.000183 
32768 0 0 0 0 0 0 0 0 1:0.375159 2:1 3:0.617226 4:0.044295 5:0.351053 6:0.000263 7:0.003649 8:0.359517 9:0.690486 10:0.042529 11:2.1e-05 12:3.2e-05 13:0.003087 14:1 15:0 16:0 17:1.4e-05 
32768 0 0 0 0 0 0 0 0 1:0.092971 2:0.8 3:0.752213 4:0.0361 5:0.541864 6:5.1e-05 7:0.000862 8:0.196375 9:0.708413 10:0.044309 11:0.004263 12:0.003081 13:0.005167 14:1 15:0 16:0 17:0.000832 
32768 32768 32768 32768 32768 32768 32768 32768 32768 1:0.376367 2:0.66 3:0.855735 4:0.03527 5:0.000141 6:0 7:0.001599 8:0.41289 9:0.502295 10:0.037206 11:0.009884 12:0.009313 13:0.093148 14:1 15:1 16:1 17:0.001476 
32768 32768 32768 32768 32768 32768 32768 32768 32768 1:0.43552 2:0.7 3:0.861767 4:0.156992 5:0.00089 6:0 7:0.001558 8:0.455186 9:0.319716 10:0.045862 11:0.018959 12:0.020411 13:0.053044 14:1 15:1 16:1 17:7.9e-05 
32768 32768 32768 32768 32768 32768 0 32768 32768 1:0.719323 2:0 3:0.856415 4:0.05083 5:0 6:0 7:0.003509 8:0.657603 9:0.37227 10:0.066991 11:0.000947 12:0.000783 13:0.01585 14:1 15:1 16:1 17:0.000353 
32768 32768 0 32768 32768 32768 0 0 0 1:0.25484 2:0.5 3:0.740845 4:0.038485 5:0.031333 6:3e-06 7:0.028092 8:0.683787 9:0.725293 10:0.053615 11:0.002838 12:0.002033 13:0.006354 14:0.8 15:1 16:1 17:0.000423 
32768 32768 32768 32768 32768 32768 32768 32768 32768 1:0.557442 2:0.7 3:0.858789 4:0.172116 5:2e-06 6:7.8e-05 7:0.003721 8:0.24572 9:0.369554 10:0.053711 11:0.020159 12:0.016274 13:0.100461 14:1 15:1 16:1 17:0.002732 
32768 0 0 32768 32768 32768 0 0 0 1:0.437245 2:0.52 3:0.827591 4:0.04471 5:0.000173 6:0 7:0.012323 8:0.660423 9:0.739214 10:0.055711 11:1e-05 12:3.3e-05 13:0.088869 14:1 15:0 16:0 17:6e-06 
32768 32768 32768 32768 32768 32768 32768 32768 32768 1:0.622836 2:0.4 3:0.82243 4:0.051245 5:0 6:0.00114 7:0.05805 8:0.743404 9:0.411613 10:0.080603 11:0.000317 12:0.000702 13:0.029746 14:1 15:1 16:1 17:0.001538 
32768 32768 32768 32768 32768 32768 0 32768 32768 1:0.278319 2:0.66 3:0.681117 4:0.052075 5:0.000955 6:0.000318 7:0.001518 8:0.282981 9:0.516999 10:0.048915 11:0.001961 12:0.001851 13:0.002167 14:1 15:1 16:1 17:0.000244 
32768 0 0 26231.73775851601 0 32768 0 0 0 1:0.820026 2:0.9 3:0.846432 4:0.11722 5:0 6:0.000109 7:0.000563 8:0.153072 9:0.422115 10:0.038929 11:0.00122 12:0.000816 13:0.002968 14:1 15:1 16:1 17:0.00013 
32768 0 0 0 32768 32768 0 0 0 1:0.024642 2:0.7 3:0.771474 4:0.038174 5:0.531915 6:0 7:0.042872 8:0.30715 9:0.302574 10:0.046583 11:0.000249 12:8.3e-05 13:0.011255 14:0.8 15:0 16:0 17:4.6e-05 
32768 32768 32768 32768 32768 32768 0 0 32768 1:0.2823 2:0.2 3:0.854227 4:0.043465 5:0.019752 6:0 7:0.000536 8:0.403827 9:0.659944 10:0.044567 11:0.00996 12:0.007967 13:0.039539 14:1 15:1 16:1 17:0.001547 
32768 0 0 0 0 0 0 0 0 1:0 2:0.8 3:0.21028 4:0.037344 5:0.990991 6:0.912 7:0.003867 8:0.214622 9:0.290436 10:0.040721 11:1e-06 12:2e-06 13:0.005346 14:1 15:1 16:1 17:0 
1924.8886336468727 0 0 0 0 0 0 0 0 1:4.9e-05 2:0.7 3:0.408454 4:0.046784 5:0.952577 6:0.058204 7:0.000746 8:0.171198 9:0.347789 10:0.024675 11:2e-06 12:5e-06 13:0.004313 14:0 15:1 16:1 17:0 
0 0 26598.659673890361 32768 29576.706425403972 30331.619549642179 0 0 0 1:0.187149 2:0.84 3:0.816334 4:0.039108 5:0.266561 6:0 7:0.010673 8:0.287009 9:0.320439 10:0.045217 11:0.001194 12:0.002665 13:0.064451 14:0 15:0 16:0 17:5.2e-05 
3126.5241059735413 0 0 0 0 14003.695275940197 0 0 0 1:0.088121 2:0.4 3:0.81404 4:0.031639 5:0.160087 6:0.000325 7:0.334253 8:0.171198 9:0.462387 10:0.06547 11:1e-06 12:3e-06 13:0.030723 14:1 15:0 16:0 17:1e-06 
32768 0 0 0 0 0 0 0 0 1:0.032768 2:0.9 3:0.722018 4:0.033714 5:0.701539 6:0.00141 7:0.002403 8:0.172205 9:0.567477 10:0.059716 11:0.001298 12:0.001795 13:0.020906 14:1 15:0 16:0 17:0.000304 
32768 32768 0 0 27056.534082561277 32768 0 0 0 1:0.036365 2:0.9 3:0.749958 4:0.033983 5:0.81935 6:0.0271 7:0.000743 8:0.187311 9:0.469339 10:0.033802 11:0.000166 12:0.000104 13:0.023249 14:1 15:1 16:1 17:3e-05 
32768 0 0 0 32768 32768 0 0 0 1:0.001861 2:0 3:0.597706 4:0.041494 5:0.685024 6:2.2e-05 7:0.003867 8:0.240685 9:0.499099 10:0.036131 11:0.00014 12:0.000855 13:0.010469 14:1 15:0 16:0 17:3.7e-05 
32768 0 0 32768 0 32768 0 0 0 1:0.013824 2:0.58 3:0.666143 4:0.04139 5:0.072338 6:0.0007 7:0.001155 8:0.110775 9:0.326541 10:0.044869 11:0.004194 12:0.00589 13:0.013501 14:1 15:1 16:1 17:0.000473 
32768 32768 32768 32768 32768 32768 32768 11248.088466459911 32768 1:0.374805 2:0.3 3:0.763381 4:0.083091 5:0.002275 6:0.00029 7:0.010075 8:0.238671 9:0.519168 10:0.037098 11:5.2e-05 12:0.000117 13:0.02119 14:0 15:0 16:0 17:2.2e-05 
11825.94040402449 0 0 0 0 0 0 0 0 1:7e-06 2:0.4 3:0.22568 4:0.040871 5:0.996991 6:0.874 7:0.000468 8:0.198389 9:0.39364 10:0.022125 11:7e-06 12:7e-06 13:0.00787 14:0.8 15:0 16:0 17:1e-06 
17382.039090980437 0 4118.61634958992 0 0 0 0 0 0 1:0.001685 2:0.9 3:0.598811 4:0.040041 5:0.938071 6:0.887 7:0.001328 8:0.038369 9:0.387884 10:0.029107 11:0.000829 12:0.000965 13:0.00608 14:1 15:0 16:0 17:0.000207 
9213.5947142615678 0 0 0 2090.1084749898323 6769.3999811991771 0 0 0 1:0.0001 2:0.9 3:0.420837 4:0.038693 5:0.955496 6:0.901 7:0.000662 8:0.03716 9:0.433661 10:0.161571 11:0.000589 12:0.000965 13:0.00239 14:1 15:0 16:0 17:0.000207 
32768 32768 32768 32768 32768 32768 32768 32768 32768 1:0.200202 2:0.5 3:0.793479 4:0.034855 5:0.049621 6:0.000828 7:0.014169 8:0.583082 9:0.425022 10:0.032718 11:0.009883 12:0.004298 13:0.00903 14:1 15:1 16:1 17:0.001098 
32768 32768 32768 32768 32768 32768 32768 32768 32768 1:0.428661 2:0.5 3:0.762787 4:0.134191 5:0.068482 6:8e-06 7:0.001257 8:0.813696 9:0.358607 10:0.045607 11:0.016207 12:0.007403 13:0.005415 14:1 15:1 16:1 17:0.001759 
32768 0 0 0 0 0 0 0 0 1:0.148877 2:0.4 3:0.811215 4:0.033195 5:0.176398 6:0 7:0.949862 8:0.276939 9:0.584829 10:0.074052 11:8.2e-05 12:9.1e-05 13:0.005809 14:1 15:1 16:1 17:7e-06 
32768 0 0 0 32768 32768 0 0 0 1:0.002863 2:0.7 3:0.586236 4:0.035851 5:0.808846 6:0.0112 7:0.062096 8:0.338369 9:0.320908 10:0.026227 11:0.001595 12:0.0006 13:0.008388 14:1 15:0 16:0 17:0.000153 
32768 32768 32768 32768 32768 32768 32768 32768 32768 1:0.031855 2:0 3:0.788828 4:0.038693 5:0.101494 6:2.4e-05 7:0.014703 8:0.513595 9:0.55453 10:0.03219 11:0.007926 12:0.00325 13:0.008941 14:1 15:0 16:1 17:0.000602 
32768 0 0 32768 32768 32768 0 0 0 1:0.519718 2:1 3:0.864316 4:0.116639 5:0.005424 6:0 7:0.005927 8:0.713998 9:0.767352 10:0.035891 11:0.002837 12:0.002318 13:0.048851 14:1 15:1 16:1 17:0.000413 
76.102765343709066 0 0 0 0 30571.788869204276 0 0 0 1:0.036926 2:1 3:0.772621 4:0.032158 5:0.207863 6:0 7:0.001769 8:0.080161 9:0.449842 10:0.047479 11:0.000708 12:0.000876 13:0.015515 14:0 15:0 16:0 17:0.000209 
32768 32768 0 0 32768 32768 0 0 0 1:0.031554 2:0.3 3:0.778398 4:0.038278 5:0.06285 6:0 7:0.002245 8:0.265861 9:0.292577 10:0.05196 11:0.010174 12:0.004729 13:0.005332 14:1 15:1 16:1 17:0.000605 
32768 29210.319756819834 0 32768 32768 32768 0 0 0 1:0.101848 2:0.5 3:0.73254 4:0.029461 5:0.028155 6:0.0186 7:0.001904 8:0.528701 9:0.31064 10:0.091023 11:0.001091 12:0.011457 13:0.03133 14:1 15:1 16:1 17:0.000137 
5655.3977955278915 0 0 0 0 32768 0 0 0 1:0.469097 2:0.1 3:0.76644 4:0.073133 5:0.22232 6:0.78 7:0.000941 8:0.236657 9:0.598808 10:0.088471 11:0.000904 12:0.001072 13:0.016133 14:1 15:0 16:0 17:5.5e-05 
32768 0 0 0 0 0 0 0 0 1:0.002097 2:0.9 3:0.654376 4:0.03527 5:0.701539 6:0.352 7:0.001155 8:0.077946 9:0.610173 10:0.074647 11:0.015449 12:0.023149 13:0.177918 14:1 15:0 16:0 17:0.002056 
32768 32768 32768 32768 32768 32768 0 0 32768 1:0.424438 2:0.6 3:0.874384 4:0.037552 5:0 6:0.000944 7:0.000544 8:0.343404 9:0.580935 10:0.055183 11:0.001754 12:0.005096 13:0.037644 14:1 15:1 16:1 17:0.000265 
32768 0 0 0 0 0 0 0 0 1:0.879218 2:0.36 3:0.925404 4:0.458506 5:0.000222 6:5e-06 7:0.000941 8:0.302115 9:0.670122 10:0.038505 11:0.001039 12:0.001297 13:0.013789 14:1 15:1 16:1 17:0.00016 
32768 32768 32768 32768 32768 32768 0 0 32768 1:0.067917 2:0.9 3:0.786164 4:0.02832 5:0.006408 6:3e-06 7:0.00144 8:0.27291 9:0.358854 10:0.033028 11:0.002014 12:0.000967 13:0.010367 14:1 15:0 16:0 17:0.00033 
32768 0 0 0 32768 32768 0 0 0 1:0.85467 2:0.1 3:0.906946 4:0.114108 5:0.055975 6:0 7:0.135381 8:0.470292 9:0.677888 10:0.051119 11:0.02033 12:0.009574 13:0.013229 14:1 15:1 16:1 17:0.00216 
32768 32768 32768 32768 32768 32768 0 0 14273.88950086862 1:0.748613 2:0.2 3:0.865378 4:0.113071 5:3.5e-05 6:9e-06 7:0.005829 8:0.261833 9:0.487722 10:0.047934 11:0.045819 12:0.030675 13:0.12457 14:1 15:1 16:1 17:0.004184 
32768 32768 32768 32768 32768 32768 0 32768 32768 1:0.455062 2:0.5 3:0.875909 4:0.047822 5:0.000127 6:0.125 7:0.308914 8:0.349446 9:0.552093 10:0.039363 11:0.001912 12:0.001852 13:0.050095 14:1 15:1 16:1 17:0.000319 
32768 32768 32768 32768 32768 32768 0 1882.6905642233821 32620.562974653905 1:0.50817 2:0.62 3:0.686045 4:0.069606 5:0.000505 6:0.376 7:0.010459 8:0.559114 9:0.585967 10:0.059314 11:6e-06 12:2.3e-05 13:0.003263 14:1 15:0.8 16:1 17:7e-06 
32768 0 0 0 0 32768 0 0 0 1:0.915499 2:1 3:0.863509 4:0.103734 5:4e-06 6:5e-05 7:0.147195 8:0.30715 9:0.564966 10:0.050325 11:0.000855 12:0.001101 13:0.003533 14:1 15:1 16:1 17:0.000154 
32768 32768 0 0 32768 32768 0 0 0 1:0.10785 2:0.7 3:0.801912 4:0.03251 5:0.154983 6:0.019 7:0.021482 8:0.190332 9:0.6062 10:0.039545 11:0.000373 12:0.000438 13:0.003385 14:1 15:1 16:1 17:0.000103 
32768 0 0 0 0 32768 0 0 0 1:0.663055 2:0.2 3:0.820922 4:0.126556 5:0.009919 6:0 7:0.097969 8:0.495468 9:0.712411 10:0.050649 11:0.013276 12:0.00841 13:0.054243 14:1 15:1 16:1 17:0.002678 
32768 0 0 0 0 32768 0 0 0 1:0.586376 2:0.5 3:0.820582 4:0.070124 5:0.022456 6:0.00405 7:0.024639 8:0.394763 9:0.426586 10:0.122847 11:0.006414 12:0.004112 13:0.02944 14:1 15:1 16:1 17:0.000707 
32768 32768 0 32768 32768 32768 0 0 0 1:0.047832 2:0.7 3:0.732923 4:0.030809 5:0.217882 6:0.00161 7:0.01066 8:0.229607 9:0.495316 10:0.05484 11:2.9e-05 12:7.1e-05 13:0.005556 14:1 15:0 16:0 17:4.9e-05 
32768 0 32768 0 0 32768 0 0 0 1:0.029218 2:0.5 3:0.799392 4:0.029564 5:0.085044 6:5e-06 7:0.001292 8:0.059617 9:0.427021 10:0.027699 11:6.3e-05 12:9.5e-05 13:0.024463 14:0.8 15:0 16:0.6 17:9e-06 
0 2142.5423649787549 0 674.80427309558172 0 0 0 0 0 1:0.43052 2:0.1 3:0.547069 4:0.038693 5:0.087395 6:0.888 7:0.001155 8:0.08006 9:0.529971 10:0.02488 11:7.8e-05 12:0.000216 13:0.011342 14:1 15:1 16:1 17:6e-06 
0 22561.870367573832 0 0 12742.069092679913 0 0 0 0 1:0.051065 2:0.5 3:0.477914 4:0.034544 5:0.805545 6:0.969 7:0.000822 8:0.102719 9:0.419909 10:0.018797 11:3.6e-05 12:0.000114 13:0.011134 14:1 15:1 16:1 17:1e-06 
0 0 0 0 0 32768 0 0 0 1:0.25124 2:0.9 3:0.846083 4:0.039627 5:0.289653 6:2.4e-05 7:0.636055 8:0.466264 9:0.760157 10:0.025595 11:0.000903 12:0.000685 13:0.001928 14:1 15:1 16:1 17:9.9e-05 
7695.1502774542296 0 0 0 0 0 0 0 0 1:0.000128 2:0.4 3:0.351763 4:0.040145 5:0.435575 6:0.95 7:0.001402 8:0.091843 9:0.698725 10:0.033157 11:4.4e-05 12:3.4e-05 13:0.009269 14:1 15:0 16:0 17:0.000173 
32768 0 0 0 0 0 0 0 0 1:0.056428 2:0 3:0.679439 4:0.044087 5:0.465665 6:0.9 7:0.000334 8:0.398792 9:0.310081 10:0.058277 11:3e-06 12:5e-06 13:0.001305 14:1 15:1 16:1 17:0 
32768 0 0 1638.3760683046175 0 0 0 0 0 1:2.6e-05 2:1 3:0.271304 4:0.039004 5:0.964289 6:0.831 7:0.001122 8:0.086103 9:0.397401 10:0.007094 11:3.6e-05 12:3.8e-05 13:0.00572 14:1 15:1 16:1 17:1e-06 
15262.106516062595 0 0 0 0 0 0 0 0 1:0.002515 2:1 3:0.685514 4:0.042739 5:0.816716 6:0.00355 7:0.002194 8:0.037261 9:0.297335 10:0.070519 11:0.000232 12:0.00043 13:0.007857 14:1 15:0 16:0 17:0.000118 
0 0 0 0 0 0 4282.4962344827518 0 0 1:0.00021 2:0.5 3:0.399257 4:0.056535 5:0.929439 6:0.962 7:0.043611 8:0.044209 9:0.524917 10:0.009482 11:0.001194 12:0.001863 13:0.002416 14:0.8 15:0 16:0 17:0.000426 
32768 0 0 253.78103690254892 0 0 0 0 0 1:2e-06 2:0.9 3:0.252167 4:0.051141 5:0.851408 6:0.96 7:0.002045 8:0.030916 9:0.450081 10:0.011146 11:1.7e-05 12:4.3e-05 13:0.002317 14:1 15:1 16:1 17:0 
32768 0 0 0 0 0 0 0 0 1:0.001158 2:1 3:0.504227 4:0.034129 5:0.990991 6:0.8162 7:0.002045 8:0.039879 9:0.357576 10:0.016259 11:0.000152 12:0.000567 13:0.009527 14:1 15:1 16:1 17:1.7e-05 
23655.951374176097 32181.568951110981 6574.5011537538685 2061.0292106881884 10922.337871721924 2180.3635322373752 0 0 5192.7543855591321 1:0.107172 2:1 3:0.767927 4:0.043257 5:0.289653 6:0.916 7:0.000415 8:0.399114 9:0.302266 10:0.027986 11:0.000718 12:0.001523 13:0.008284 14:0 15:0 16:0.2 17:0.00025 
32768 0 0 32768 32768 32768 0 8529.5251503606323 32768 1:0.014172 2:0.4 3:0.739941 4:0.049689 5:0.366852 6:0.00129 7:0.003867 8:0.197382 9:0.461072 10:0.035829 11:0.000522 12:0.000731 13:0.021721 14:0 15:0.8 16:1 17:2.8e-05 
0 32768 0 24362.841329678435 0 0 0 2992.8876804856527 0 1:0.177504 2:0.9 3:0.754439 4:0.050104 5:0.220806 6:0.081207 7:0.003071 8:0.151057 9:0.508263 10:0.039319 11:3.5e-05 12:2.7e-05 13:0.005443 14:0 15:0 16:0.4 17:8.3e-05 
0 0 0 0 681.77209473426308 0 0 0 0 1:0.012167 2:0.5 3:0.791028 4:0.037137 5:0.020593 6:0 7:0.000726 8:0.151057 9:0.325724 10:0.050738 11:0.00632 12:0.004815 13:0.016767 14:0 15:1 16:1 17:0.000721 
0 0 0 0 0 32768 0 0 0 1:0.032157 2:0.6 3:0.665888 4:0.040622 5:0.038392 6:0.04 7:0.00491 8:0.110775 9:0.336904 10:0.053222 11:0.00763 12:0.006368 13:0.010404 14:1 15:1 16:1 17:0.000723 
32768 32768 32768 32768 32768 32768 5834.8529857166086 32768 32768 1:0.016581 2:1 3:0.754014 4:0.036411 5:0.073389 6:0.0611 7:0.001222 8:0.270614 9:0.398819 10:0.035906 11:1.8e-05 12:0.002559 13:0.004979 14:0 15:0 16:0 17:5e-06 
32768 32768 0 0 32768 32768 0 0 0 1:0.074088 2:0.5 3:0.819732 4:0.03361 5:0.113335 6:0.0529 7:0.003239 8:0.159114 9:0.622381 10:0.032653 11:0.016292 12:0.013022 13:0.004065 14:1 15:1 16:1 17:0.002393 
32768 32768 32768 32768 32768 32768 16684.045624130311 32768 32768 1:0.065451 2:0.34 3:0.712659 4:0.029876 5:0.070266 6:8e-06 7:0.008239 8:0.340383 9:0.450318 10:0.039926 11:0.002807 12:0.002168 13:0.020249 14:0 15:0 16:1 17:9e-05 
32768 32768 32768 32768 32768 32768 0 0 32768 1:0.218167 2:0 3:0.790909 4:0.030394 5:0.051683 6:0 7:0.001155 8:0.81571 9:0.758201 10:0.032703 11:2e-06 12:4e-06 13:0.00184 14:1 15:0 16:0 17:4e-06 
32768 32768 32768 32768 32768 32768 0 0 0 1:0.245314 2:0.4 3:0.837757 4:0.028216 5:0.000841 6:7e-06 7:0.000773 8:0.257805 9:0.427576 10:0.066405 11:0.001026 12:0.00054 13:0.054638 14:1 15:1 16:1 17:8.5e-05 
1164.939136073049 0 0 0 0 0 0 0 0 1:0.000724 2:0.2 3:0.488148 4:0.036722 5:0.890503 6:0.917 7:0.006536 8:0.041591 9:0.542573 10:0.037856 11:5e-06 12:1.4e-05 13:0.028039 14:1 15:1 16:1 17:1e-06 
32768 0 0 0 0 0 0 0 0 1:0.003724 2:0.5 3:0.423619 4:0.043797 5:0.970181 6:0.923 7:0.001904 8:0.199396 9:0.340491 10:0.041347 11:5.9e-05 12:8.8e-05 13:0.001342 14:1 15:1 16:1 17:2.2e-05 
32768 0 0 0 0 0 0 0 0 1:0.000844 2:0.7 3:0.478781 4:0.048651 5:0.898239 6:0.137 7:0.006026 8:0.103726 9:0.307673 10:0.033693 11:1e-06 12:0.000566 13:0.010611 14:1 15:0.2 16:0.2 17:0 
32768 0 0 0 0 0 0 0 0 1:0.221558 2:0.7 3:0.343607 4:0.048651 5:0.48772 6:0.845 7:0.001292 8:0.147029 9:0.273129 10:0.072558 11:0.00013 12:0.000265 13:0.001589 14:0 15:0 16:1 17:4.8e-05 
32768 32768 0 0 32768 32768 0 0 0 1:0.153991 2:0.5 3:0.860047 4:0.032469 5:0.163007 6:0 7:0.009126 8:0.200403 9:0.618748 10:0.04813 11:0.007704 12:0.008792 13:0.068042 14:1 15:1 16:1 17:0.000871 
32768 0 0 32768 32768 32768 0 0 32768 1:0.035288 2:0.2 3:0.768687 4:0.036411 5:0.17774 6:0 7:0.001558 8:0.244713 9:0.491737 10:0.06076 11:0.00054 12:0.001464 13:0.008068 14:0 15:1 16:1 17:0.000256 
32768 32768 29593.940823409444 32768 32768 32768 32768 32768 32768 1:0.045118 2:0.9 3:0.748173 4:0.072884 5:0.099804 6:0 7:0.000849 8:0.264854 9:0.383561 10:0.0439 11:0.008273 12:0.003632 13:0.000607 14:0 15:1 16:1 17:0.000684 
32768 0 0 0 0 0 0 0 0 1:5e-06 2:0.9 3:0.364571 4:0.044813 5:0.970181 6:0.935 7:7e-05 8:0.064149 9:0.357613 10:0.019436 11:7e-06 12:2.9e-05 13:0.002719 14:1 15:1 16:1 17:5e-06 
0 7751.5033314560969 0 0 0 0 0 0 0 1:0.004827 2:0.9 3:0.560578 4:0.033714 5:0.798087 6:0.886 7:0.001769 8:0.259819 9:0.409086 10:0.048915 11:0.00083 12:0.002113 13:0.006224 14:1 15:1 16:1 17:0.002702 
32768 0 0 0 0 32768 0 0 0 1:0.022426 2:0.7 3:0.692438 4:0.037137 5:0.990991 6:0.902 7:0.001365 8:0.178248 9:0.436874 10:0.044484 11:0.000724 12:0.000913 13:0.002901 14:1 15:0 16:0 17:0.000162 
32768 32768 32768 32768 32768 32768 0 0 0 1:0.174677 2:0.24 3:0.795178 4:0.05083 5:0.225237 6:1.5e-05 7:0.002776 8:0.258812 9:0.336649 10:0.047201 11:0.001057 12:0.00088 13:0.012979 14:1 15:1 16:1 17:0.000151 
32768 32768 0 32768 32768 32768 0 0 0 1:0.108487 2:1 3:0.817821 4:0.030083 5:0.421875 6:3e-06 7:0.001813 8:0.236657 9:0.39433 10:0.050254 11:0.00485 12:0.054007 13:0.097626 14:1 15:1 16:1 17:0.000543 
32768 32768 32768 32768 32768 32768 0 0 0 1:0.013144 2:0.44 3:0.651784 4:0.032884 5:0.297637 6:0.000177 7:0.015066 8:0.474119 9:0.435128 10:0.087179 11:0.003585 12:0.003476 13:0.021846 14:1 15:1 16:1 17:0.000721 
32768 0 0 0 32768 32768 0 0 0 1:0.38362 2:0.7 3:0.866313 4:0.096826 5:0.029322 6:0.00775 7:0.000528 8:0.420947 9:0.739243 10:0.044097 11:0.000844 12:0.002116 13:0.016617 14:1 15:1 16:1 17:0.000361 
32768 32768 32768 32768 32768 32768 9097.5342675701795 32768 32768 1:0.192496 2:0 3:0.812353 4:0.040768 5:0 6:0.116 7:0.015066 8:0.422961 9:0.373806 10:0.042255 11:3e-06 12:9e-06 13:0.006921 14:1 15:0 16:0.4 17:2e-06 
32768 32768 32768 32768 32768 32768 32768 32768 32768 1:0.535387 2:0.9 3:0.861236 4:0.034336 5:0 6:0.0117 7:0.035285 8:0.503525 9:0.419732 10:0.036849 11:0.00039 12:0.000655 13:0.004616 14:1 15:1 16:1 17:0.000158 
32768 0 0 0 0 32768 0 0 0 1:0.539341 2:0.2 3:0.699936 4:0.031017 5:0 6:2.3e-05 7:0.001769 8:0.399799 9:0.737895 10:0.048306 11:0.000467 12:0.000855 13:0.006336 14:1 15:1 16:1 17:0.001004 
2600.5906247927392 13954.564105301028 0 24658.122354550102 0 32768 0 0 0 1:0.167925 2:0 3:0.727014 4:0.041494 5:0.361532 6:0.484154 7:0.041865 8:0.247734 9:0.390456 10:0.015333 11:0.000187 12:0.000354 13:0.002584 14:1 15:0 16:0 17:4.9e-05 
32768 0 0 0 0 0 0 0 0 1:0 2:0.1 3:0.389974 4:0.051556 5:0.996991 6:0.881 7:0.001478 8:0.295065 9:0.571804 10:0.081826 11:0.000412 12:0.000508 13:0.005691 14:1 15:0 16:0 17:0.000138 
32768 7185.9067358270031 0 0 0 32768 0 0 0 1:2e-06 2:0.1 3:0.31935 4:0.04471 5:0.993988 6:0.933 7:0.001328 8:0.158107 9:0.547508 10:0.019614 11:2e-06 12:5e-06 13:0.000671 14:1 15:1 16:1 17:0 
32768 29668.613160162226 0 0 32768 32768 0 0 0 1:0.946966 2:0.7 3:0.890506 4:0.052905 5:2e-06 6:0.000699 7:0.327081 8:0.79859 9:0.736777 10:0.032782 11:0.000691 12:0.000221 13:0.014138 14:1 15:0 16:0 17:0.00016 
32768 32768 32768 32768 32768 32768 0 15899.23851756982 21077.713890054129 1:0.296741 2:0.7 3:0.882307 4:0.035373 5:0.128036 6:2.5e-05 7:0.002297 8:0.238671 9:0.568927 10:0.046606 11:0.08817 12:0.019916 13:0.024252 14:1 15:1 16:1 17:0.005285 
32768 0 0 0 0 32768 0 0 0 1:0.039652 2:0.5 3:0.767664 4:0.035477 5:0.24591 6:0 7:0.001518 8:0.103726 9:0.472289 10:0.049024 11:0.001308 12:0.001042 13:0.003569 14:1 15:0 16:0 17:0.000108 
32768 32768 32768 32768 32768 32768 0 0 0 1:0.338609 2:1 3:0.831882 4:0.043672 5:0.009919 6:0 7:0.006536 8:0.209466 9:0.505461 10:0.060354 11:0.000441 12:0.000738 13:0.008782 14:1 15:1 16:1 17:0.000107 
6217.1899962675607 0 0 0 0 0 0 0 0 1:0.265094 2:0.6 3:0.860612 4:0.039108 5:0 6:0 7:0.915498 8:0.221551 9:0.248155 10:0.087041 11:0.007894 12:0.003902 13:0.005125 14:1 15:1 16:1 17:2.7e-05 
20819.79882714196 0 0 0 0 15208.763750332784 0 0 0 1:0.384678 2:0.5 3:0.608963 4:0.054564 5:0.239218 6:0.000485 7:0.719322 8:0.198389 9:0.518441 10:0.08977 11:0.002111 12:0.00203 13:0.005424 14:1 15:1 16:1 17:0.00179 
32768 18451.75507483289 0 32768 32768 32768 0 0 32768 1:0.014887 2:0.9 3:0.60941 4:0.035996 5:0.047615 6:0.000102 7:0.002326 8:0.418328 9:0.58888 10:0.073656 11:0.000634 12:0.000366 13:0.005043 14:1 15:0 16:0 17:9.2e-05 
32768 0 0 0 0 0 0 0 0 1:0.395447 2:0.2 3:0.863275 4:0.03973 5:0.000678 6:3.7e-05 7:0.321417 8:0.315206 9:0.714191 10:0.042079 11:0.000459 12:0.000457 13:0.00645 14:1 15:0.8 16:1 17:4.6e-05 
32768 32768 32768 32768 32768 32768 32768 32768 32768 1:0.180362 2:0.1 3:0.836831 4:0.03973 5:0.092227 6:0 7:0.002625 8:0.266868 9:0.524514 10:0.045994 11:0.009787 12:0.004607 13:0.010735 14:1 15:1 16:1 17:0.000525 
32768 32768 32768 32768 32768 32768 0 32768 32768 1:0.192938 2:0.52 3:0.813339 4:0.046162 5:0.140375 6:3e-06 7:0.008819 8:0.193353 9:0.511263 10:0.04338 11:0.00222 12:0.001089 13:0.012732 14:1 15:1 16:1 17:0.000457 
32768 32768 32768 32768 32768 32768 32768 32768 32768 1:0.230346 2:0.9 3:0.835918 4:0.05861 5:0.013473 6:0.000259 7:0.002172 8:0.192346 9:0.541314 10:0.039603 11:0.010527 12:0.009552 13:0.00511 14:1 15:1 16:1 17:5.5e-05 
32768 32768 32768 32768 32768 32768 32768 32768 32768 1:0.283593 2:1 3:0.784325 4:0.097407 5:0.021745 6:2.8e-05 7:0.003509 8:0.327291 9:0.359971 10:0.050356 11:6.2e-05 12:0.000847 13:0.001284 14:0 15:0 16:0.4 17:0.000232 
32768 0 0 0 32768 32768 0 0 0 1:0.058102 2:0.4 3:0.704545 4:0.030394 5:0.403511 6:2e-06 7:0.00062 8:0.315206 9:0.6062 10:0.049765 11:0.000566 12:0.003225 13:0.006643 14:0.6 15:0 16:0.4 17:0.000197 
32768 2939.4025211891576 0 0 0 32768 0 0 0 1:0.09296 2:0.72 3:0.749184 4:0.044502 5:0.430403 6:0 7:0.001518 8:0.578046 9:0.755716 10:0.021495 11:4.9e-05 12:6.5e-05 13:0.007073 14:1 15:0 16:0 17:2.3e-05 
32768 32768 32768 32768 32768 32768 0 0 0 1:0.043987 2:1 3:0.798156 4:0.029876 5:0.03805 6:0 7:0.000997 8:0.283988 9:0.304484 10:0.047684 11:0.009109 12:0.006309 13:0.017068 14:1 15:0.8 16:1 17:0.000782 
32768 0 0 32768 32768 32768 0 32768 0 1:0.082313 2:0.2 3:0.809473 4:0.031846 5:0.06429 6:0 7:0.0105 8:0.149043 9:0.517282 10:0.054863 11:0.001012 12:0.001291 13:0.051207 14:1 15:0 16:0 17:0.000516 
31931.624341848081 0 0 9964.8815288214155 32768 0 32768 0 3178.2529257563051 1:0.047046 2:0.1 3:0.784945 4:0.143506 5:0.006513 6:0.000171 7:0.112156 8:0.077341 9:0.600239 10:0.047213 11:7.5e-05 12:0.000128 13:0.010378 14:0 15:0 16:0 17:2.4e-05 
32768 32768 32768 32768 32768 32768 32768 32768 32768 1:0.354895 2:0 3:0.758496 4:0.072324 5:0.001663 6:0 7:0.014058 8:0.69285 9:0.451259 10:0.044971 11:0.003807 12:0.036594 13:0.103354 14:1 15:1 16:1 17:0.000425 
32768 0 0 0 0 0 0 0 0 1:0.122763 2:0 3:0.774703 4:0.041286 5:0.0102 6:0 7:0.003509 8:0.530715 9:0.843371 10:0.064363 11:0.000906 12:0.000631 13:0.007309 14:0.8 15:1 16:1 17:0.000285 
32768 0 0 0 0 32768 0 0 0 1:0.796598 2:0.9 3:0.800786 4:0.076037 5:0 6:0.025573 7:0.026195 8:0.387714 9:0.581275 10:0.060902 11:0.010364 12:0.013378 13:0.167528 14:1 15:1 16:1 17:0.00113 
32768 32768 32768 32768 32768 32768 32768 32768 32768 1:0.225867 2:0.9 3:0.744053 4:0.047407 5:0.027601 6:0.179569 7:0.007527 8:0.446123 9:0.550076 10:0.039703 11:0.002557 12:0.000701 13:0.013334 14:0.6 15:0 16:0 17:0.000192 
32768 0 0 0 22144.953525583926 32768 0 0 0 1:0.656235 2:0.4 3:0.811389 4:0.057469 5:0.004464 6:8e-06 7:0.221443 8:0.697885 9:0.756143 10:0.043294 11:0.000822 12:0.000742 13:0.02473 14:1 15:0 16:0 17:0.000251 
32768 0 0 0 0 32768 0 0 0 1:0.695506 2:0.4 3:0.799575 4:0.10166 5:0.000372 6:0.00156 7:0.008487 8:0.652568 9:0.730211 10:0.046512 11:0.00047 12:0.000571 13:0.010215 14:1 15:0 16:0 17:0.000187 
32768 32768 32768 32768 32768 32768 0 0 0 1:0.196123 2:0.4 3:0.809643 4:0.029979 5:0.055975 6:0.0224 7:0.005085 8:0.261833 9:0.366866 10:0.039371 11:2.5e-05 12:0.00271 13:0.003426 14:1 15:0 16:0 17:2.1e-05 
32768 0 0 0 0 32768 0 0 0 1:0.006539 2:0.52 3:0.710255 4:0.040975 5:0.351632 6:0.203 7:0.008739 8:0.127895 9:0.458023 10:0.04982 11:0.000892 12:0.000392 13:0.008297 14:1 15:0 16:0 17:0.000133 
32161.85432020987 0 0 3129.4540071603974 0 32768 0 0 0 1:0.000601 2:0.7 3:0.549257 4:0.05 5:0.44286 6:0.0068 7:0.000429 8:0.176234 9:0.345142 10:0.041443 11:8e-06 12:1.2e-05 13:0.020602 14:1 15:0 16:0 17:5e-06 
32768 32768 32768 32768 32768 32768 0 32768 32768 1:0.040708 2:0 3:0.729758 4:0.028734 5:0.102419 6:0.183816 7:0.006226 8:0.418228 9:0.578386 10:0.045541 11:0.001002 12:0.000689 13:0.003597 14:1 15:0 16:0 17:0.000225 
32768 32768 12156.681815450725 32768 10020.64668635208 32768 0 10562.867704026212 12084.062245560295 1:0.004657 2:0.38 3:0.642545 4:0.036722 5:0.715412 6:0.96 7:0.00109 8:0.605237 9:0.593992 10:0.023673 11:4.2e-05 12:7.1e-05 13:0.015022 14:1 15:1 16:1 17:1e-06 
15761.055545843601 0 0 0 0 0 0 0 0 1:2e-06 2:0.2 3:0.416631 4:0.044087 5:0.940961 6:0.191 7:0.000581 8:0.096173 9:0.477808 10:0.079898 11:6e-06 12:1e-05 13:0.007944 14:1 15:0 16:1 17:2e-06 
32768 32768 32768 32768 32768 32768 0 0 0 1:0 2:0.4 3:0.632995 4:0.039191 5:0.680353 6:0.0427 7:0.002045 8:0.356294 9:0.436561 10:0.041667 11:0 12:3e-06 13:0.003099 14:1 15:1 16:1 17:0 
32768 32768 32768 1896.16777934888 32768 32768 0 0 32768 1:0.116214 2:0.2 3:0.693585 4:0.037759 5:0.935188 6:0.011281 7:0.000807 8:0.543807 9:0.396664 10:0.03421 11:4e-06 12:7e-06 13:0.001478 14:1 15:1 16:1 17:0 
32768 0 0 0 26587.231954384617 32768 0 0 0 1:0.017576 2:0.7 3:0.628229 4:0.038485 5:0.915169 6:0.904 7:0.005542 8:0.29708 9:0.44326 10:0.016157 11:7e-06 12:9e-06 13:0.018008 14:1 15:0 16:0 17:1e-06 
32768 32768 32768 32768 32768 32768 0 0 0 1:0.014527 2:0.7 3:0.586045 4:0.045643 5:0.829945 6:0.21143 7:0.041779 8:0.327956 9:0.458069 10:0.031707 11:2.7e-05 12:6.4e-05 13:0.001527 14:1 15:0 16:0 17:7e-06 
32768 32768 32768 32768 32768 32768 0 32768 32768 1:0.038273 2:0 3:0.741461 4:0.035373 5:0.533895 6:0 7:0.013478 8:0.548842 9:0.482044 10:0.047072 11:0.009338 12:0.007816 13:0.031709 14:0.8 15:1 16:1 17:0.0007 
32768 32768 32768 32768 32768 32768 0 32768 32768 1:0.035937 2:0.5 3:0.78158 4:0.093423 5:0.247727 6:0 7:0.001813 8:0.38425 9:0.335959 10:0.029415 11:0.00034 12:0.005454 13:0.005736 14:1 15:0 16:0.4 17:7.8e-05 
32768 32768 32768 32768 32768 32768 0 32768 32768 1:0.281201 2:0 3:0.830076 4:0.056535 5:0.202623 6:0 7:0.005637 8:0.488419 9:0.296468 10:0.027745 11:8.3e-05 12:0.000108 13:0.006539 14:1 15:1 16:1 17:1.5e-05 
32768 32768 32768 32768 32768 32768 0 32768 32768 1:0.089307 2:0.4 3:0.826232 4:0.032261 5:0.420183 6:0 7:0.001682 8:0.502518 9:0.441456 10:0.057831 11:3.3e-05 12:5.7e-05 13:0.006149 14:1 15:0 16:0.2 17:1.4e-05 
14865.984821852948 0 0 0 1302.6941910728765 0 0 0 0 1:0.131872 2:1 3:0.796283 4:0.066909 5:0.065261 6:1e-06 7:0.049025 8:0.296073 9:0.281207 10:0.040394 11:0.000348 12:0.000451 13:0.005365 14:0 15:0 16:0 17:9.6e-05 
32768 0 0 0 0 0 0 0 0 1:0.000469 2:0.5 3:0.40359 4:0.047925 5:0.952577 6:0.967 7:0.00109 8:0.05569 9:0.324947 10:0.009922 11:0.000144 12:0.00023 13:0.041355 14:1 15:1 16:1 17:2.4e-05 
32768 32768 32768 32768 32768 32768 26766.485638439881 32768 32768 1:1e-06 2:0.1 3:0.691134 4:0.04222 5:0.780423 6:0.153 7:0.000526 8:0.509225 9:0.491112 10:0.009359 11:2e-06 12:2e-06 13:0.005871 14:1 15:1 16:1 17:0.001418 
0 0 0 3008.432810831594 0 0 0 0 0 1:0.000724 2:0.5 3:0.498237 4:0.040768 5:0.808846 6:0.983 7:0.004654 8:0.037261 9:0.465555 10:0.010596 11:0.000144 12:0.00023 13:0.007818 14:1 15:1 16:1 17:2.2e-05 
9093.1572090122572 22037.598286165467 0 10269.077532977697 26838.722104250439 0 0 0 0 1:4e-06 2:0.7 3:0.340548 4:0.043465 5:0.750184 6:0.937 7:0.000796 8:0.217442 9:0.323875 10:0.067817 11:0.000397 12:0.000419 13:0.005265 14:1 15:0.6 16:0.6 17:6.2e-05 
32768 0 0 32768 32768 32768 0 0 0 1:0.05401 2:0.1 3:0.68819 4:0.031846 5:0.52209 6:0.001868 7:0.001682 8:0.095871 9:0.481759 10:0.024698 11:0.000111 12:0.000208 13:0.031627 14:0.6 15:1 16:1 17:1.5e-05 
0 0 0 0 0 26126.043590544894 0 0 0 1:0.003308 2:0.7 3:0.549681 4:0.050415 5:0.001074 6:0.915 7:0.000903 8:0.111782 9:0.333962 10:0.018017 11:1e-06 12:3e-06 13:0.005581 14:0.6 15:1 16:1 17:0 
0 0 0 0 0 2814.3428654729146 0 0 0 1:0.027271 2:0.2 3:0.71678 4:0.039834 5:0.397363 6:0.0033 7:0.002194 8:0.080363 9:0.345253 10:0.032161 11:3.3e-05 12:9.7e-05 13:0.030283 14:1 15:1 16:1 17:0.001724 
0 0 32768 32768 0 16013.241872892131 7333.9400601672887 32768 0 1:0.315821 2:0.4 3:0.846708 4:0.044191 5:0.058208 6:0 7:0.389015 8:0.270896 9:0.550729 10:0.042489 11:0.000137 12:0.000242 13:0.018527 14:0 15:0 16:0 17:5.8e-05 
32768 32768 32768 32768 32768 32768 32768 32768 32768 1:0.015253 2:0.6 3:0.760004 4:0.038485 5:0.089032 6:2.1e-05 7:0.000753 8:0.386707 9:0.465293 10:0.024308 11:0.005372 12:0.005097 13:0.017919 14:0 15:0 16:0 17:0.000986 
32768 32768 32768 32768 32768 32768 1479.3562772954917 32768 32768 1:0.033386 2:0 3:0.755811 4:0.029253 5:0.145618 6:0.00215 7:0.008412 8:0.418933 9:0.595122 10:0.039964 11:0.000915 12:0.000692 13:0.004426 14:1 15:0.4 16:0.4 17:0.000113 
32768 32768 0 18110.290178561008 32768 32768 0 8895.530194157398 5448.69775872633 1:0.014887 2:1 3:0.731041 4:0.066805 5:0.915169 6:8e-06 7:0.128785 8:0.209466 9:0.452073 10:0.052368 11:0.002914 12:0.002981 13:0.007239 14:1 15:0 16:0 17:0.000264 
1608.5856948989654 0 0 0 0 0 0 0 0 1:0.039304 2:0.2 3:0.645285 4:0.069606 5:0.961352 6:0.442 7:0.277166 8:0.10574 9:0.337685 10:0.035413 11:0.00082 12:0.001584 13:0.003731 14:0.8 15:1 16:1 17:0.002243 
32768 32768 32768 32768 32768 32768 32768 32768 32768 1:0.11198 2:0.2 3:0.800786 4:0.037552 5:0.023183 6:1.7e-05 7:0.170029 8:0.549849 9:0.488979 10:0.04958 11:0.003365 12:0.022488 13:0.00134 14:1 15:1 16:1 17:0.003134 
0 0 0 0 0 22949.361316993334 0 0 0 1:0.031079 2:0.8 3:0.7161 4:0.040145 5:0.848706 6:1.4e-05 7:0.342998 8:0.248741 9:0.255058 10:0.051525 11:0.001295 12:0.001448 13:0.001529 14:1 15:0 16:0 17:0.000159 
